tree
version=v4
num_class=1
num_tree_per_iteration=1
label_index=0
max_feature_idx=17
objective=binary sigmoid:1
feature_names=profile_score is_sprint is_mountain is_hilly is_tt co_MTN co_SPR co_HLL co_ITT co_COB co_GC spec_climber spec_sprint spec_tt spec_hills gt_form_5 gt_form_10 gt_wins_so_far
feature_infos=[0:509] [0:1] [0:1] [0:1] [0:1] none none none none none none none none none none [-1:184] [-1:184] [0:19]
tree_sizes=3327 3394 3432 3388 3402 3377 3419 3436 3430 3429 3459 3396 3434 3431 3432 3419 3390 3434 3443 3383 3414 3440 3422 3420 3442 3419 3448 3433 3421 3450 3428 3448 3450 3467 3455 3467 3449 3454 3452 3450 3441 3439 3471 3457 3421 3462 3424 3461 3413

Tree=0
num_leaves=31
num_cat=0
split_feature=17 16 0 16 17 16 16 0 16 0 0 0 17 0 16 16 0 16 16 0 0 0 0 16 16 0 0 0 16 0
split_gain=1032.87 210.238 355.649 110.8 105.139 64.7007 60.45 27.9121 37.7107 25.9577 17.8737 17.7585 17.1033 14.9312 70.4426 10.9271 8.34962 6.51559 6.79699 6.23973 5.80336 24.4433 6.90415 5.75939 4.77489 4.68914 5.19559 3.97642 3.97491 6.49221
threshold=2.5000000000000004 31.150000000000002 189.50000000000003 76.250000000000014 1.0000000180025095e-35 80.15000000000002 22.050000000000004 77.500000000000014 51.250000000000007 183.00000000000003 108.00000000000001 115.00000000000001 3.5000000000000004 70.500000000000014 64.050000000000011 85.050000000000011 142.00000000000003 71.450000000000017 68.950000000000017 398.50000000000006 290.00000000000006 221.50000000000003 461.00000000000006 124.15000000000002 110.05000000000001 108.00000000000001 120.50000000000001 168.50000000000003 108.45000000000002 57.500000000000007
decision_type=2 2 2 2 2 2 2 2 2 2 2 2 2 2 2 2 2 2 2 2 2 2 2 2 2 2 2 2 2 2
left_child=1 2 -1 12 5 7 -4 -3 11 17 24 -9 -2 14 -6 -15 -17 18 -10 -11 21 -8 -22 -5 28 -20 -27 -28 -7 -30
right_child=3 4 6 23 13 10 20 8 9 19 -12 -13 -14 15 -16 16 -18 -19 25 -21 22 -23 -24 -25 -26 26 27 -29 29 -31
leaf_value=-3.4343762037085988 -3.2458986152875995 -3.4620639232615784 -3.0679646366204785 -3.2815621681645633 -3.463494735129323 -3.4596315017999015 -3.2157272833150428 -3.4549044161738398 -3.4210936460956667 -3.4569891067486913 -3.4811239037006816 -3.3880761161189255 -3.0396741646676917 -3.4163946516882207 -3.348695107689847 -3.4119581887356274 -3.4684124113900587 -3.4446244249575271 -3.4337502014300791 -3.4908427090253915 -3.233992416271311 -3.4168640246089659 -3.4338486695760388 -3.4247586946351456 -3.4717416317343441 -3.2698900167716061 -3.4442027791347609 -3.3495918268149163 -3.3935070055140364 -3.4786625799852016
leaf_weight=67.477119170129299 4.6246000677347245 159.45861272513866 5.7957650199532535 11.681619651615618 22.011895127594471 165.52464658021927 1.501493528485297 11.89182874560356 35.885695330798626 86.51605711132288 297.74616669863462 48.438181228935719 13.183113180100916 58.077769681811333 31.621453709900379 8.0780351832509059 22.522402927279472 21.321208104491234 2.2522402927279463 15.855771660804747 8.9789313003420794 4.7747494205832481 0.60059741139412004 1.1111052110791195 106.15559246391058 0.99098572880029667 2.1321208104491238 1.0510454699397085 4.9248987734317771 2.6426286101341248
leaf_count=2247 154 5310 193 389 733 5512 50 396 1195 2881 9915 1613 439 1934 1053 269 750 710 75 528 299 159 20 37 3535 33 71 35 164 88
internal_value=-3.4426 -3.45006 -3.37663 -3.16045 -3.45604 -3.46198 -3.20519 -3.4461 -3.43483 -3.44716 -3.47256 -3.40132 -3.07966 -3.41607 -3.39542 -3.42901 -3.45285 -3.42231 -3.41116 -3.4627 -3.27489 -3.34349 -3.24404 -3.29144 -3.46331 -3.36674 -3.34024 -3.39939 -3.45797 -3.42457
internal_weight=1224.83 1194.23 89.1287 30.6004 1105.1 962.788 21.6515 385.794 226.335 166.005 576.994 60.33 17.8077 142.312 53.6333 88.6782 30.6004 63.6333 42.3121 102.372 15.8558 6.27624 9.57953 12.7927 279.248 6.42639 4.17415 3.18317 173.092 7.56753
internal_count=40787 39768 2968 1019 36800 32061 721 12847 7537 5528 19214 2009 593 4739 1786 2953 1019 2119 1409 3409 528 209 319 426 9299 214 139 106 5764 252
is_linear=0
shrinkage=1


Tree=1
num_leaves=31
num_cat=0
split_feature=17 17 17 0 0 0 0 17 0 0 0 0 0 0 0 0 0 0 0 0 0 0 0 4 0 0 0 0 0 0
split_gain=729.886 123.005 52.514 20.2924 12.1031 4.34329 5.91956 10.7689 3.87609 4.62963 3.70683 3.16954 6.38048 2.97644 4.69446 2.94133 2.52022 1.84094 1.77109 3.29568 1.51549 1.5832 1.51393 1.40301 1.27769 1.49944 10.5332 3.05829 2.42037 1.70032
threshold=2.5000000000000004 1.0000000180025095e-35 5.5000000000000009 93.500000000000014 176.50000000000003 255.50000000000003 51.500000000000007 1.5000000000000002 33.000000000000007 17.500000000000004 77.500000000000014 403.00000000000006 306.50000000000006 34.500000000000007 29.500000000000004 262.50000000000006 234.50000000000003 34.500000000000007 15.500000000000002 9.5000000000000018 29.500000000000004 31.500000000000004 241.50000000000003 1.0000000180025095e-35 58.500000000000007 216.50000000000003 210.50000000000003 236.50000000000003 111.50000000000001 251.50000000000003
decision_type=2 2 2 2 2 2 2 2 2 2 2 2 2 2 2 2 2 2 2 2 2 2 2 2 2 2 2 2 2 2
left_child=1 10 3 -2 -5 6 7 8 9 18 17 12 -6 14 -9 -7 23 -1 19 -3 -11 -22 -18 -12 -8 26 28 -27 -26 -29
right_child=2 5 -4 4 11 15 24 13 -10 20 16 -13 -14 -15 -16 -17 22 -19 -20 -21 21 -23 -24 -25 25 27 -28 29 -30 -31
leaf_value=-0.014790587540521434 0.20419453753244143 0.035212552246569939 0.2926751652853527 0.018342709719283371 0.12390426130553603 0.098012458567171779 -0.0041290347116935324 0.07052667865366738 0.054448082539289927 -0.02780346655422743 -0.0074010931150043403 0.21504913926801855 0.023043083207394705 0.14298698055943015 -0.023053738598974676 0.041138932755492262 -0.029897856206224278 -0.022112197692017575 0.066929013186735303 -0.0044383075094566 0.04342593670124268 -0.020856634919148076 -0.013558163516538361 -0.030062623216104291 0.028371243467007326 -0.024741034417339956 0.13233944810305673 0.034369521685852569 0.0075182541796055234 -0.021539958146201174
leaf_weight=273.76826391741633 12.452803347259762 13.349537476897249 13.486149262636898 3.9298654273152342 5.5191277749836427 2.3182946462184182 5.4497907385230056 8.7916920557618106 8.86316344514489 5.5657703913748255 308.09148964844644 1.0481005795299996 2.955595675855875 1.5513048693537701 0.97955968230962831 39.903337216004729 15.452231265604494 143.50205102935433 1.92320106178522 7.6101201046258202 1.0679763145744798 0.83928906358778466 270.02597010135651 6.2748054061084977 28.949512576684356 4.8217510450631362 1.154911609366535 5.3548168428242207 29.376565197482705 0.8822481520473956
leaf_count=9261 335 429 324 105 148 75 174 279 284 179 10367 28 79 49 31 1279 524 4865 62 244 34 27 9099 211 936 157 35 174 964 29
internal_value=-2.34594e-05 -0.00714086 0.208991 0.155981 0.0999652 0.0322634 0.0271216 0.0404213 0.0265704 0.0167945 -0.0137087 0.12823 0.0954009 0.0819426 0.0594118 0.0465728 -0.0111307 -0.0173673 0.0277486 0.0210417 -0.0154736 0.0159746 -0.0145613 -0.00796317 0.0178006 0.0195988 0.0227057 0.00197634 0.0182565 0.0238865
internal_weight=1225.26 1185.87 39.3916 25.9055 13.4527 168.753 126.531 50.5416 39.2191 30.3559 1017.11 9.52282 8.47472 11.3226 9.77125 42.2216 599.844 417.27 22.8829 20.9597 7.47304 1.90727 285.478 314.366 75.9896 70.5398 59.481 11.0588 58.3261 6.23706
internal_count=40787 39768 1019 695 360 5441 4087 1618 1259 975 34327 255 227 359 310 1354 20201 14126 735 673 240 61 9623 10578 2469 2295 1935 360 1900 203
is_linear=0
shrinkage=0.05


Tree=2
num_leaves=31
num_cat=0
split_feature=17 16 17 16 15 16 1 1 16 16 17 15 16 16 16 15 15 17 16 15 16 15 16 15 16 15 16 15 15 15
split_gain=557.657 182.505 86.5788 62.3318 45.8978 36.9426 291.222 50.4135 38.145 36.468 20.5751 17.8427 14.5793 10.6212 8.70928 11.8288 9.23915 7.10945 6.10046 8.43729 8.35479 7.50116 6.06954 5.48912 5.4478 5.49062 5.15278 4.96103 4.72927 4.44065
threshold=2.5000000000000004 31.150000000000002 1.0000000180025095e-35 80.15000000000002 1.0000000180025095e-35 32.750000000000007 1.0000000180025095e-35 1.0000000180025095e-35 41.45000000000001 54.250000000000007 3.5000000000000004 36.45000000000001 51.250000000000007 17.250000000000004 73.050000000000011 110.25000000000001 105.10000000000001 3.5000000000000004 85.050000000000011 84.250000000000014 82.850000000000009 98.65000000000002 90.550000000000011 107.10000000000001 110.45000000000002 115.10000000000001 112.85000000000001 108.65000000000002 56.900000000000006 124.90000000000002
decision_type=2 2 2 2 2 2 2 2 2 2 2 2 2 2 2 2 2 2 2 2 2 2 2 2 2 2 2 2 2 2
left_child=1 4 3 12 -1 6 -2 9 -9 -7 -10 13 -3 -6 -4 16 18 23 20 28 -16 22 -21 -11 25 -5 -24 -18 -20 -27
right_child=5 2 14 24 11 7 -8 8 10 17 -12 -13 -14 -15 15 -17 27 -19 19 21 -22 -23 26 -25 -26 29 -28 -29 -30 -31
leaf_value=-0.0024653921042090032 0.42469807881429783 0.013380112885700349 0.010369658629518779 -0.027184890707221056 0.1416384224468937 0.18033086599364101 0.0004279836435066753 -0.0031270585522543853 0.094726326727056692 0.088579978202805554 0.2604698749175634 -0.013979764600634565 -0.0086274002056684826 0.075295821057806592 0.038811469956804304 -0.0006284065403503198 0.13334417110357374 -0.014076521600187672 0.066436232542146548 0.0034699225402026121 0.12021542848496812 -0.0026654311469220277 0.094164551627033161 -0.02301939260766905 -0.035788953003788551 0.0061373476526965093 -0.018765672716329351 0.018711730954143579 -0.024052850705148607 -0.02920239812436028
leaf_weight=22.543260261416435 7.9989958778023702 102.04430890642107 76.306387579068542 317.54777131043375 8.0292611476033908 3.4936930686235437 7.3931684456765652 2.1706939712166795 4.4243507906794539 2.8876664489507671 9.3748444039374572 4.481660444289445 277.49407044053078 59.182751642540097 17.737930389121178 17.731400514021516 3.5750820767134419 8.3155002351850253 0.66503409482538955 3.4721248317509916 3.6333890669047824 6.2720655407756558 7.8897844236344081 0.96584499441087235 199.59071163460612 24.080675827339292 0.72198142111301411 1.79388059861958 10.098296904936431 12.724940434098242
leaf_count=754 157 3386 2433 10993 243 70 143 42 108 73 208 143 9461 1828 547 559 111 192 21 110 112 196 249 26 6949 832 23 57 321 440
internal_value=-1.02882e-05 -0.00681956 -0.0126463 -0.0183143 0.0595433 0.166998 0.233676 0.128233 0.188937 0.0584142 0.217658 0.0788757 -0.00267762 0.0852548 0.0225057 0.0347149 0.0458355 0.0119969 0.0375573 0.0212354 0.0576297 0.0411203 0.0626959 0.0605988 -0.0289948 -0.0250639 0.0832093 0.10478 -0.0128643 -0.00639779
internal_weight=1224.64 1177.62 1083.38 933.482 94.2369 47.0248 15.3922 31.6326 15.9699 15.6627 13.7992 71.6937 379.538 67.212 149.897 73.591 55.8596 12.169 50.4906 29.1193 21.3713 18.356 12.0839 3.85351 553.944 354.353 8.61177 5.36896 10.7633 36.8056
internal_count=40787 39768 36800 32061 2968 1019 300 719 358 361 316 2214 12847 2071 4739 2306 1747 291 1579 920 659 578 382 99 19214 12265 272 168 342 1272
is_linear=0
shrinkage=0.05


Tree=3
num_leaves=31
num_cat=0
split_feature=16 0 15 1 1 16 15 16 16 1 0 0 16 16 16 0 15 15 16 16 15 0 0 15 0 0 0 16 0 16
split_gain=283.952 312.602 121.606 73.1187 59.9008 74.6825 37.8118 25.8027 15.9256 15.3556 14.3271 19.0623 12.2064 11.2919 13.5433 27.4322 14.6521 13.92 11.2527 10.4196 13.4508 10.268 9.22707 9.10268 8.62192 10.4694 8.21577 7.57511 7.55316 7.49266
threshold=43.050000000000004 183.00000000000003 27.300000000000001 1.0000000180025095e-35 1.0000000180025095e-35 65.750000000000014 1.0000000180025095e-35 28.750000000000004 111.25000000000001 1.0000000180025095e-35 3.0000000000000004 168.50000000000003 25.050000000000004 66.15000000000002 80.15000000000002 52.500000000000007 63.250000000000007 114.25000000000001 86.15000000000002 51.250000000000007 44.300000000000004 49.500000000000007 110.00000000000001 41.250000000000007 347.50000000000006 196.50000000000003 52.500000000000007 34.45000000000001 398.50000000000006 31.950000000000003
decision_type=2 2 2 2 2 2 2 2 2 2 2 2 2 2 2 2 2 2 2 2 2 2 2 2 2 2 2 2 2 2
left_child=1 3 9 6 5 19 -1 10 13 12 -8 -12 -3 26 -15 17 -17 -16 23 20 21 -2 -5 -7 25 -4 -6 -24 -21 -26
right_child=4 2 24 22 8 18 7 -9 -10 -11 11 -13 -14 14 15 16 -18 -19 -20 28 -22 -23 27 -25 29 -27 -28 -29 -30 -31
leaf_value=0 -0.019170824872240332 0.25884154733734771 0.14803465519548281 -0.030420449801225061 -0.021413688582595548 0.080374516629108272 0.015258888763798134 0.040790201299910317 -0.015514296331531778 0.016593605407137491 0.17291154753569218 0 0.15268245439229544 0.028339933998562567 0.016187660431155364 0.077655245404834095 -0.017500632769391299 0.073769563509264044 -0.03751867202769827 0.0084358134638918766 0.0080608539026281577 0.086470196882532879 -0.012616474744848623 -0.021483500995325883 0.17526225842328599 0.045572929523526644 0.0064649360300474802 0.063252947663011566 -0.039807156275858173 0.067955459466832707
leaf_weight=21.411755243316293 2.2884144056588402 17.277440063655384 2.233347341418269 62.349942130967975 50.54022771678865 1.2469722069799889 2.6680558472871772 18.937102166935802 99.161887057125568 1.1417354345321644 11.195698658004401 1.8572460338473309 10.944292254745958 87.083055008202791 82.294668851420283 3.2272662520408621 96.041934860870242 11.326583400368689 281.68993926234543 73.859822167083621 20.698477920144796 12.723204730078576 8.0963193159550411 143.71435307338834 3.6009738221764547 24.601312261074781 53.125509399920702 4.1889213956892482 8.0878112968057376 6.4911564737558365
leaf_count=718 77 361 63 1897 1699 41 75 586 3497 31 299 44 292 2871 2784 107 3292 368 9918 2453 658 397 243 4860 90 717 1736 130 282 201
internal_value=-1.43093e-05 0.054812 0.142383 0.00961625 -0.0105777 -0.0219348 0.0523077 0.0838453 0.00223485 0.217373 0.129868 0.150186 0.224478 0.00686401 0.0120791 0.00460387 -0.0136136 0.0239129 -0.0316485 0.0132167 0.0353721 0.0698622 -0.0226572 -0.0200284 0.0784621 0.0592921 -0.00715371 0.0156904 0.0031917 0.119043
internal_weight=1224.11 196.995 66.2903 130.705 1027.11 544.309 56.0699 34.6581 482.801 29.3635 15.721 13.0529 28.2217 383.639 279.974 192.89 99.2692 93.6213 426.651 117.658 35.7101 15.0116 74.6352 144.961 36.9268 26.8347 103.666 12.2852 81.9476 10.0921
internal_count=40787 5747 1755 3992 35040 18686 1722 1004 16354 684 418 343 653 12857 9422 6551 3399 3152 14819 3867 1132 474 2270 4901 1071 780 3435 373 2735 291
is_linear=0
shrinkage=0.05


Tree=4
num_leaves=31
num_cat=0
split_feature=16 0 15 1 1 16 15 16 0 16 16 16 0 16 15 16 15 0 0 16 0 15 15 0 0 0 16 16 0 0
split_gain=247.17 237.134 72.5191 63.9282 55.7211 70.0879 30.4318 19.5312 18.5394 14.491 11.1324 10.2122 16.2308 10.1565 9.06541 9.0151 10.9618 8.68856 8.39924 7.06265 24.447 13.0453 11.4478 9.32555 7.05795 6.91548 6.6718 6.61819 6.46929 6.43333
threshold=43.050000000000004 183.00000000000003 27.300000000000001 1.0000000180025095e-35 1.0000000180025095e-35 65.750000000000014 1.0000000180025095e-35 32.750000000000007 168.50000000000003 111.25000000000001 103.05000000000001 19.150000000000002 276.50000000000006 60.250000000000007 47.100000000000009 51.250000000000007 44.300000000000004 110.00000000000001 49.500000000000007 80.15000000000002 52.500000000000007 63.250000000000007 114.25000000000001 89.500000000000014 398.50000000000006 3.0000000000000004 75.850000000000009 34.45000000000001 7.5000000000000009 347.50000000000006
decision_type=2 2 2 2 2 2 2 2 2 2 2 2 2 2 2 2 2 2 2 2 2 2 2 2 2 2 2 2 2 2
left_child=1 3 11 6 5 15 -1 8 25 13 14 12 -3 -6 -7 16 18 -5 -2 23 22 -22 -21 26 -17 -8 -15 -19 -24 -4
right_child=4 2 29 17 9 10 7 -9 -10 -11 -12 -13 -14 19 -16 24 -18 27 -20 20 21 -23 28 -25 -26 -27 -28 -29 -30 -31
leaf_value=0 -0.018742485002372952 0.092932971977107662 0.053924130559248676 -0.029761707125407447 -0.010339960288366866 0.039938096730804062 0.03996097446612909 0.023470367294091514 -0.012219856899398822 -0.01496674620478005 -0.042060344031808021 0.14447400276968519 0.28447883589068201 0.0025925839914617971 -0.025901465498916688 0.0079557444861537759 0.0076199985129784611 -0.012184694235887238 0.076368470816762513 0.015152977019922796 0.07053340266899516 -0.016914693575005475 0.0040222787429573144 0.041564924222499432 -0.039357417862492416 0.13065580872582025 0.034586361678788959 0.057795421035824482 0.08682453499462861 0.10414236749889534
leaf_weight=21.411755243316293 2.2475789207965162 3.0773564614355546 28.215417061001062 60.610271157696843 71.801492173224688 4.42105584219098 3.8516075704246822 13.56409062258899 2.9115336947143069 97.724105885252357 148.84208915568888 26.844120260328054 5.4916659854352474 65.264875208958983 260.83045587129891 74.44570024125278 20.854911932721734 8.0019456651061756 13.788368657231329 83.553009334951639 3.4698400422930709 94.475724317133427 3.4197276104241601 34.349444188177586 7.7902150955051175 16.991296134889126 20.988209366798401 4.4427955187857142 8.712703710421918 11.132236134260891
leaf_count=718 77 48 780 1897 2389 143 105 413 76 3497 5467 556 80 2137 9209 2453 658 243 397 2784 107 3292 104 1099 282 410 681 130 264 291
internal_value=-1.38465e-05 0.0497121 0.120211 0.00907669 -0.0101569 -0.0212897 0.0475302 0.0742087 0.10086 0.00212246 -0.0309995 0.171872 0.233113 0.00648897 -0.0246394 0.0123977 0.0325945 -0.0219937 0.0624267 0.0103708 0.0043808 -0.0130847 0.0222609 0.0198317 0.0029947 0.116722 0.0107422 0.014867 0.0659496 0.0704848
internal_weight=1223.53 206.546 74.7608 131.785 1016.98 533.22 58.7303 37.3185 23.7544 483.759 414.094 35.4131 8.56902 386.035 265.252 119.127 36.8909 73.055 16.0359 314.234 193.631 97.9456 95.6854 120.603 82.2359 20.8429 86.2531 12.4447 12.1324 39.3477
internal_count=40787 5747 1755 3992 35040 18686 1722 1004 591 16354 14819 684 128 12857 9352 3867 1132 2270 474 10468 6551 3399 3152 3917 2735 515 2818 373 368 1071
is_linear=0
shrinkage=0.05


Tree=5
num_leaves=31
num_cat=0
split_feature=17 15 0 17 15 15 0 0 15 0 0 17 0 15 0 4 0 15 15 15 15 0 15 0 0 0 17 0 17 15
split_gain=399.527 123.983 129.538 79.6728 49.6819 23.2864 23.3524 22.5373 21.8103 20.1483 14.0091 13.9466 14.3504 54.3095 15.2749 11.3877 15.5581 13.2773 13.4901 9.67373 9.54649 9.4883 12.0249 8.5598 8.14483 7.83044 7.26424 6.51132 6.68286 6.89274
threshold=2.5000000000000004 43.45000000000001 183.00000000000003 1.0000000180025095e-35 21.450000000000003 64.90000000000002 183.00000000000003 99.000000000000014 80.250000000000014 73.500000000000014 154.00000000000003 5.5000000000000009 93.500000000000014 51.900000000000006 186.50000000000003 1.0000000180025095e-35 51.500000000000007 111.10000000000001 94.65000000000002 65.250000000000014 97.450000000000017 290.00000000000006 19.250000000000004 111.50000000000001 7.5000000000000009 261.00000000000006 1.5000000000000002 63.500000000000007 1.5000000000000002 88.250000000000014
decision_type=2 2 2 2 2 2 2 2 2 2 2 2 2 2 2 2 2 2 2 2 2 2 2 2 2 2 2 2 2 2
left_child=1 2 -1 5 21 9 -7 8 26 -3 23 12 19 14 -14 16 17 18 -10 -2 -9 22 25 -11 -21 -4 -5 -18 29 -29
right_child=11 3 4 7 -6 6 -8 20 15 10 -12 -13 13 -15 -16 -17 27 -19 -20 24 -22 -23 -24 -25 -26 -27 -28 28 -30 -31
leaf_value=-0.002265208665323233 0.080902505992052814 -0.024681132112641037 0.15422402776849961 0 0.054433630286113643 -0.017122245611136674 -0.037011751961603362 0.013901441829948902 0.063569175368404854 0.015424347297427378 -0.0016917139777974073 0.16303476828853991 0.022930287214445441 -0.018093082841471649 0.18691082530686032 0.0012243106380827502 -0.011613777863161463 0.024612683798133056 0.19259801162328138 0.030584819538783472 -0.028705843276821602 0.18166181271253184 -0.0062362172475344925 0.069377927300467088 0.19473212277554797 0.0084594690916021589 0.05923278372834169 0.096000983553739247 0.13301435294621997 -0.0163185670857974
leaf_weight=137.69386698678136 8.6701438315212744 64.423358283936977 3.568583324551585 23.114470370113853 63.679050235077739 428.3791760969907 228.71660470403731 49.262749874964356 5.0348492860794121 19.086150612682108 69.277533389627934 21.976437162607908 2.2585170604288596 9.4623124245554191 6.0263946168124676 4.6002752706408492 4.1475840397179109 3.5340406578034154 6.1432434767484665 1.3742413893341998 16.78316356241703 10.679961590096353 2.3806961178779602 12.190229276195167 7.2713572904467583 1.3997800163924692 5.7246802132576695 1.0084561817348001 1.4180828463286159 3.4269856624305248
leaf_count=4392 160 2239 63 721 1646 15311 8617 1567 143 630 2340 324 43 239 78 140 125 101 170 29 572 176 47 391 146 25 170 31 44 107
internal_value=-1.15801e-05 -0.00638526 0.0273916 -0.0142427 0.0768525 -0.0198862 -0.0240985 0.0229329 0.0453559 -0.00303467 0.0108911 0.128022 0.102027 0.0639419 0.150031 0.0750584 0.0880258 0.119716 0.144884 0.135165 0.00273311 0.148752 0.0842973 0.0381061 0.175035 0.122293 0.0134937 0.0343082 0.0645232 0.0212626
internal_weight=1222.71 1165.67 219.402 946.272 81.7081 822.073 657.096 124.199 58.1527 164.977 100.554 57.0394 35.063 17.7472 8.28491 29.3135 24.7132 14.7121 11.1781 17.3157 66.0459 18.029 7.34906 31.2764 8.6456 4.96836 28.8392 10.0011 5.85352 4.43544
internal_count=40787 39768 6349 33419 1957 29528 23928 3891 1752 5600 3361 1019 695 360 121 861 721 414 313 335 2139 311 135 1021 175 88 891 307 182 138
is_linear=0
shrinkage=0.05


Tree=6
num_leaves=31
num_cat=0
split_feature=17 16 0 17 16 0 16 16 0 0 0 16 16 0 17 16 0 0 0 16 0 0 0 16 0 16 0 16 0 0
split_gain=329.002 115.286 121.809 74.7134 41.0947 29.2048 32.5853 26.0574 15.102 10.5327 10.4356 10.7728 10.1225 54.0103 8.85681 8.45668 7.45467 6.36662 6.5574 5.87969 5.92674 5.24233 10.7079 5.56453 7.46899 6.01767 4.85342 4.69903 4.64437 8.43441
threshold=2.5000000000000004 51.250000000000007 183.00000000000003 1.0000000180025095e-35 26.950000000000003 108.00000000000001 64.050000000000011 83.15000000000002 186.50000000000003 398.50000000000006 115.00000000000001 49.650000000000013 80.15000000000002 108.00000000000001 1.5000000000000002 30.350000000000005 99.000000000000014 264.00000000000006 210.50000000000003 27.850000000000005 29.500000000000004 57.500000000000007 183.00000000000003 71.450000000000017 93.500000000000014 66.950000000000017 8.5000000000000018 110.05000000000001 285.50000000000006 347.50000000000006
decision_type=2 2 2 2 2 2 2 2 2 2 2 2 2 2 2 2 2 2 2 2 2 2 2 2 2 2 2 2 2 2
left_child=1 2 10 7 -4 6 -5 9 27 21 15 -12 -2 -14 -8 19 -16 18 -6 26 -21 -3 23 24 -23 -26 -1 -9 -19 -30
right_child=12 3 4 5 17 -7 14 8 -10 -11 11 -13 13 -15 16 -17 -18 28 -20 20 -22 22 -24 -25 25 -27 -28 -29 29 -31
leaf_value=0.019381729352020465 0.12428845933144606 -0.015331232308994464 0.11506983788680827 -0.029706099419136545 0.060897308628605089 -0.0026824494038306312 0.048319338387920116 -0.01581527615379303 -0.039956536058464671 -0.047924822553319299 0.011801038198949228 0.11234418776231579 0.13574829549411144 -0.032985326301994702 0.10895129182619874 -0.021455652530863251 -0.020645169243118131 0.092078688817060939 0.0059532460843784041 -0.0017827178081259805 0.077548826661696879 -0.004298313517104327 -0.013482944032179476 -0.004063244805762185 0.019254414300907345 0.065083065016767902 -0.013230767518912596 -0.028670593655080585 0.017575842512252617 0.06652489774417715
leaf_weight=15.837721431627868 44.75987970083952 105.61023743450642 29.486734800040722 10.693708069622515 6.9398018009960678 58.35621896199882 35.38266876898706 189.91209623031318 162.24834930151701 15.304342377930878 27.231130298227075 2.0267424657940856 11.15589387714863 7.1749768555164328 12.335311757400628 72.268644580617547 0.82549855299294073 7.6560239717364302 18.79420979321003 4.1400501579046232 4.0005755797028542 19.238804016262293 91.272587984800339 38.094039898365736 25.745749345049262 10.103400960564612 34.203225327655673 122.51642948202789 16.888502940535545 20.865414634346962
leaf_count=507 638 3728 475 346 183 1898 1008 6881 6441 585 802 61 197 184 330 2458 26 211 517 130 122 656 3270 1310 829 320 1059 4655 440 520
internal_value=0 -0.00609517 0.0231342 -0.0145943 0.0659298 0.0224009 0.0468286 -0.0201994 -0.0275259 -0.00874167 -0.00404229 0.0224138 0.11028 0.071155 0.0640488 -0.0101394 0.0995855 0.0441809 0.0226809 0.00395738 0.0408753 -0.00649957 -0.0013606 0.0104773 0.0205146 0.0337217 -0.0026336 -0.0209477 0.0555061 0.045776
internal_weight=1221.07 1157.98 260.339 897.639 100.631 117.593 59.2372 780.046 474.677 305.369 159.708 29.2579 63.0908 18.3309 48.5435 130.45 13.1608 71.144 25.734 58.1816 8.14063 290.065 184.455 93.182 55.088 35.8492 50.0409 312.429 45.4099 37.7539
internal_count=40787 39768 7485 32283 2346 3608 1710 28675 17977 10698 5139 863 1019 381 1364 4276 356 1871 700 1818 252 10113 6385 3115 1805 1149 1566 11536 1171 960
is_linear=0
shrinkage=0.05


Tree=7
num_leaves=31
num_cat=0
split_feature=17 16 17 16 16 15 16 15 15 1 15 17 15 16 16 15 15 15 15 16 15 15 16 16 15 15 16 16 15 17
split_gain=272.534 104.358 68.2941 24.846 19.9083 17.4157 9.45346 8.87827 8.51747 7.482 6.45 10.0335 7.75533 5.83497 5.3343 5.99082 4.86904 5.87124 4.8067 4.29888 6.29604 4.21992 5.86129 8.57239 5.04537 3.95793 3.44768 5.90136 4.83383 3.50848
threshold=2.5000000000000004 51.250000000000007 1.0000000180025095e-35 83.15000000000002 31.150000000000002 1.0000000180025095e-35 60.750000000000007 109.10000000000001 36.45000000000001 1.0000000180025095e-35 110.25000000000001 1.5000000000000002 105.10000000000001 17.250000000000004 47.850000000000001 37.100000000000009 32.45000000000001 30.900000000000002 101.10000000000001 110.45000000000002 105.90000000000002 80.700000000000003 84.750000000000014 82.850000000000009 54.900000000000006 117.55000000000001 43.050000000000004 41.45000000000001 40.550000000000004 1.0000000180025095e-35
decision_type=2 2 2 2 2 2 2 2 2 2 2 2 2 2 2 2 2 2 2 2 2 2 2 2 2 2 2 2 2 2
left_child=1 4 3 -3 5 -1 -4 -2 13 -9 12 -12 18 -7 26 -16 17 -15 21 20 -5 22 23 -8 -24 -13 27 -6 -28 -29
right_child=7 2 6 19 14 8 10 9 -10 -11 11 25 -14 16 15 -17 -18 -19 -20 -21 -22 -23 24 -25 -26 -27 28 29 -30 -31
leaf_value=-0.002363268016644722 0.1021167624753522 -0.008383903370789092 -0.01274081334795798 -0.027361311388405238 0.0040189172790488443 0.083434822859222352 0.020740123555840394 -0.023418036013305023 -0.015665113661535387 0.06988863541801757 -0.027448315932352224 -0.0038344580037366245 0.082347479133229817 0.042125160559215412 0.073183279706345819 0.016081871957049944 0.087061571801396231 -0.018190353492823153 -0.014169222693553411 -0.033266276665269344 -0.010371391348318451 0.044817044988815835 0.065703522069977607 0.11652489820953527 -0.029016580503532272 0.072833473254764955 0.015275536298429116 0.019724278860436175 -0.02132939033826509 0.080538615992928025
leaf_weight=22.4958929810673 61.664162505418062 302.89968161843717 17.149109270423651 211.59384559839964 67.847664810717106 11.759440224617718 32.022014331072569 2.7265091538429251 4.7192620187997809 4.6464875042438507 11.664220830425622 2.2656184844672671 6.4172177724540225 69.019694779068232 4.9695746917277601 26.237674284726381 5.7988634370267382 3.624978467822074 5.8043377920985213 173.83133971132338 77.120149144902825 30.501731801778078 0.67335673607885738 1.6512690223753441 8.1135422457009536 3.7874695565551519 13.104621279984711 8.7398866079747659 23.925924943760037 3.1282447837293139
leaf_count=754 874 10698 548 8124 2033 243 944 72 143 73 381 68 176 1582 142 829 150 96 169 6949 2904 886 18 43 260 115 391 265 768 89
internal_value=-3.95188e-06 -0.00583075 -0.0140758 -0.0195786 0.021612 0.0369187 0.0208413 0.0957552 0.0462079 0.0361111 0.0265548 -0.000611486 0.0322047 0.0496361 0.0092646 0.0273201 0.04352 0.0388414 0.0270757 -0.0268648 -0.0228918 0.0305716 0.0194275 0.0288066 -0.0152754 0.0469534 0.00420471 0.0100512 -0.00818287 0.0411556
internal_weight=1219.9 1150.87 885.495 765.445 265.372 117.418 120.05 69.0372 94.9222 7.373 102.901 17.7173 85.1835 90.203 147.954 31.2072 78.4435 72.6447 78.7663 462.545 288.714 72.9619 42.4602 33.6733 8.7869 6.05309 116.746 79.7158 37.0305 11.8681
internal_count=40787 39768 32283 28675 7485 2968 3608 1019 2214 145 3060 564 2496 2071 4517 971 1828 1678 2320 17977 11028 2151 1265 987 278 183 3546 2387 1159 354
is_linear=0
shrinkage=0.05


Tree=8
num_leaves=31
num_cat=0
split_feature=17 15 0 17 15 0 0 0 4 17 15 0 15 15 0 0 15 0 15 4 15 15 0 15 15 0 17 0 17 15
split_gain=228.537 93.1927 75.184 56.1596 39.9025 31.4428 25.796 22.7099 9.48419 7.71543 7.64594 7.3947 7.15931 8.63285 7.06886 6.81136 33.8953 8.84545 6.5464 5.93239 5.88964 6.96468 5.8767 6.87782 5.31291 5.28392 6.45317 7.42979 5.28333 5.1885
threshold=2.5000000000000004 64.450000000000017 111.50000000000001 1.0000000180025095e-35 27.300000000000001 108.00000000000001 189.50000000000003 183.00000000000003 1.0000000180025095e-35 5.5000000000000009 72.100000000000009 51.500000000000007 58.100000000000009 60.900000000000006 34.500000000000007 93.500000000000014 59.650000000000013 234.50000000000003 65.250000000000014 1.0000000180025095e-35 111.10000000000001 93.90000000000002 62.000000000000007 88.250000000000014 129.10000000000002 164.00000000000003 1.0000000180025095e-35 255.50000000000003 1.5000000000000002 94.250000000000014
decision_type=2 2 2 2 2 2 2 2 2 2 2 2 2 2 2 2 2 2 2 2 2 2 2 2 2 2 2 2 2 2
left_child=1 2 -1 7 6 8 -4 19 10 15 -5 14 28 -14 20 18 17 -17 -2 29 21 -12 -13 -24 -25 -15 -27 -28 -6 -3
right_child=9 3 4 5 12 -7 -8 -9 -10 -11 11 22 13 25 -16 16 -18 -19 -20 -21 -22 -23 23 24 -26 26 27 -29 -30 -31
leaf_value=-0.0087523636759980761 0.051235944233211608 -0.0062248851664556352 0.0064736298037767967 1.377678535972893e-05 0.027998593321082219 -0.011180880478481122 0.088867516012005737 -0.035442089842608313 -0.0044968548489348944 0.10601050040966187 0.033894417744525243 -0.013265322502338021 -0.028315589240031899 0.065854230339057282 0.14219086209843837 0.034180209135863081 -0.027238623552871405 0.12903156081470077 0.11331687504018079 -0.032041740057365729 -0.00046360001275336856 0.10942540526066535 0.096453145620378655 -0.0070992304607604504 0.082299558118672164 -0.011658086672398833 -0.025079597268191096 0.10683507171991956 -0.016565612154367613 -0.018342949495135975
leaf_weight=207.88328187726438 11.284501966089012 163.79080601967871 12.637705454602836 5.6824318002909413 128.46030130051076 44.871160579845309 41.289531482383609 210.84603162482381 7.5787982307374469 29.748523648828268 7.6833415627479607 4.3524200338870278 14.317138586193321 4.0732417739927795 3.8689590916037551 5.149465139955284 9.210997596383093 7.0658840611577034 12.128368522971867 45.958733441308141 3.0111509338021269 6.6988094542175531 4.0320939701050502 5.8480313159525394 1.212282810360193 11.715152263641356 1.1281203143298619 1.8168046474456785 6.2374914791434994 198.96716896817088
leaf_count=6920 160 5923 356 165 3739 1460 635 8663 214 324 199 123 484 124 91 69 219 72 175 1809 79 143 111 167 35 420 35 55 167 7651
internal_value=-5.94985e-07 -0.00556375 0.0128153 -0.0166242 0.033012 0.0190284 0.0701191 -0.0221117 0.0459413 0.0842008 0.0549702 0.0631191 0.0207085 -8.59293e-06 0.0823018 0.0676251 0.043378 0.0950367 0.0869244 -0.015153 0.0617019 0.0742264 0.0330082 0.0511739 0.0159366 0.0217106 0.00570411 0.0614869 0.0257912 -0.0129174
internal_weight=1218.55 1143.96 429.559 714.402 221.675 94.8395 53.9272 619.563 49.9683 74.5877 42.3895 36.7071 167.748 33.0505 21.2623 44.8392 21.4263 12.2153 23.4129 408.717 17.3933 14.3822 15.4448 11.0924 7.06031 18.7333 14.6601 2.94492 134.698 362.758
internal_count=40787 39768 12935 26833 6015 2787 991 24046 1327 1019 1113 948 5024 1118 512 695 360 141 335 15383 421 342 436 313 202 634 510 90 3906 13574
is_linear=0
shrinkage=0.05


Tree=9
num_leaves=31
num_cat=0
split_feature=17 16 17 2 16 16 16 2 17 15 16 2 16 15 15 1 17 15 16 15 1 16 16 17 16 16 16 15 16 15
split_gain=195.225 86.0816 58.515 38.1387 22.8878 11.5903 8.14039 9.28475 7.66421 7.20768 9.27561 6.87652 6.87051 6.60163 6.0187 5.756 4.87163 10.0237 12.7729 7.14355 4.52896 56.7142 54.2514 12.4816 7.47713 6.82718 4.2416 6.33022 4.05964 3.56578
threshold=2.5000000000000004 51.250000000000007 1.0000000180025095e-35 1.0000000180025095e-35 83.15000000000002 25.050000000000004 60.750000000000007 1.0000000180025095e-35 1.5000000000000002 22.450000000000003 24.050000000000004 1.0000000180025095e-35 66.15000000000002 37.100000000000009 109.10000000000001 1.0000000180025095e-35 1.5000000000000002 110.25000000000001 92.65000000000002 87.450000000000017 1.0000000180025095e-35 38.45000000000001 41.45000000000001 3.5000000000000004 83.950000000000017 101.95000000000002 111.25000000000001 114.25000000000001 110.85000000000001 62.900000000000006
decision_type=2 2 2 2 2 2 2 2 2 2 2 2 2 2 2 2 2 2 2 2 2 2 2 2 2 2 2 2 2 2
left_child=1 3 4 13 -3 9 -4 16 -7 -5 -11 26 -9 -1 20 -16 17 18 29 -20 21 -2 -22 24 -24 -25 27 -6 -21 -8
right_child=14 2 6 5 11 8 7 12 -10 10 -12 -13 -14 -15 15 -17 -18 -19 19 28 22 -23 23 25 -26 -27 -28 -29 -30 -31
leaf_value=0.013500186244446986 0.14007815564506412 -0.0076344084678106093 -0.012629684265482664 0.099122046726879021 -0.020803927775737318 0.039630036337846557 0.042765851959788131 0.064548812909336881 -0.028944362941792291 -0.0099561367329560925 0.10054082200719172 -0.036654734234514909 -0.011101202302482991 -0.0057745284907747005 -0.023665897887376584 0.055776347853646574 0.052616863494671054 -0.024345067614072693 0.00060221480571983352 0.10565780622728189 -0.015281905015741446 0.016247056271234527 -0.0067960265082703478 0.15511590788752005 0.095134621097807306 0.030356969831441941 -0.029471277286517002 0.0042239550197217344 0.0072143473449591588 0.0074844142589650109
leaf_weight=123.96354343742132 23.832747474312782 297.86883125081658 17.097978470847011 14.173246555030348 182.50251836702228 58.160103360190988 9.0031787268817407 2.410393504425886 3.5902564302086821 4.8382688313722602 1.9078628383576868 109.40002433396876 23.834532503038645 67.782738413661718 2.7493721283972246 5.3363029658794403 21.387783899903297 8.3766787685453874 2.7485722601413718 8.1616930086165649 13.300565183162687 15.35203532129526 3.4478680565953281 11.09886823967099 2.3460854925215244 1.9368751160800446 120.87051178514957 28.572902066633105 1.4813006669282902 29.194533774629235
leaf_count=3556 190 10698 548 158 7130 1373 259 72 88 67 30 4770 786 2213 72 73 551 266 79 204 185 256 55 126 36 26 5021 1056 41 802
internal_value=0 -0.00531522 -0.0130745 0.0190248 -0.0184037 0.0472081 0.0186253 0.0237558 0.0351656 0.0793013 0.0295931 -0.025627 -0.00185562 0.00666598 0.0753019 0.0285816 0.0321023 0.0238247 0.0322149 0.0745367 0.0800614 0.0932989 0.0614376 0.113919 0.0416695 0.140419 -0.0218784 -0.0173884 0.093104 0.0168067
internal_weight=1216.73 1137.33 862.911 274.416 739.215 82.6697 123.697 106.599 61.7504 20.9194 6.74613 441.346 26.2449 191.746 79.4007 8.08568 80.3537 58.966 50.5893 12.3916 71.315 39.1848 32.1303 18.8297 5.79395 13.0357 331.946 211.075 9.64299 38.1977
internal_count=40787 39768 32283 7485 28675 1716 3608 3060 1461 255 97 17977 858 5769 1019 145 2202 1651 1385 324 874 446 428 243 91 152 13207 8186 245 1061
is_linear=0
shrinkage=0.05


Tree=10
num_leaves=31
num_cat=0
split_feature=17 16 17 2 16 16 16 2 2 4 16 16 16 16 17 16 17 16 16 16 16 17 4 16 2 4 16 16 16 16
split_gain=168.481 77.8297 53.725 32.5145 21.7453 9.59275 7.22182 7.98705 6.75136 6.38006 6.44182 12.4075 8.05718 6.14754 5.21079 5.15086 5.86841 4.48327 4.80361 4.47225 4.10118 3.94999 5.56649 4.89449 3.57143 3.95772 3.3731 8.95383 5.02332 3.20459
threshold=2.5000000000000004 51.250000000000007 1.0000000180025095e-35 1.0000000180025095e-35 83.15000000000002 31.150000000000002 60.750000000000007 1.0000000180025095e-35 1.0000000180025095e-35 1.0000000180025095e-35 43.050000000000004 1.0000000180025095e-35 28.750000000000004 66.15000000000002 5.5000000000000009 36.150000000000013 1.5000000000000002 84.350000000000009 91.450000000000017 17.250000000000004 111.25000000000001 1.5000000000000002 1.0000000180025095e-35 67.750000000000014 1.0000000180025095e-35 1.0000000180025095e-35 80.550000000000011 73.050000000000011 105.85000000000001 68.15000000000002
decision_type=2 2 2 2 2 2 2 2 2 2 2 2 2 2 2 2 2 2 2 2 2 2 2 2 2 2 2 2 2 2
left_child=1 3 4 9 24 19 -4 21 20 -1 11 -11 -13 -9 17 -7 -17 -2 -19 -5 -6 22 23 -8 25 -3 27 29 -28 -23
right_child=14 2 6 5 8 15 7 13 -10 10 -12 12 -14 -15 -16 16 -18 18 -20 -21 -22 26 -24 -25 -26 -27 28 -29 -30 -31
leaf_value=0.001780509431110318 0.065852716725146795 -0.0015289404380997942 -0.0121716669547293 0.11040313447972883 -0.016803841641300093 -0.0033217815666205168 -0.0088642250050517939 0.05959703869297811 -0.036099018957331939 -3.2234484758605835e-06 -0.02081496524466861 0.097034308325588167 0.024283816115924773 -0.010677296166987725 0.084788097294754755 0.040620937889823627 -0.033491674925487928 -0.017801886161089197 0.043513542739219882 0.052580911697628629 -0.028820322342695187 0.046446710171886729 -0.018322040345208995 0.033584553478277372 -0.016751455272031712 -0.021895094863251249 0.0098925362207811611 0.13302940558992105 0.069490252553015261 -0.028718263586160989
leaf_weight=156.09550320543349 33.410682786256075 195.1844859868288 16.897151781246066 4.3677472099661818 207.6264324914664 10.358755167573689 7.2960301954299203 2.5592284873127964 105.64128021895885 14.632653133943679 5.7131216060370198 7.6771485656499889 8.8112848848104459 23.587885320186615 33.977928053587675 35.587757453322411 2.071044109761714 3.4131561964750317 12.826433066278694 33.589560758322477 117.52893435768783 2.5218975748866828 6.6539352424442759 46.225591627880931 74.215299492701888 26.333611644804478 11.003766309469937 2.7583358399569988 4.7251875922083846 1.4308311492204664
leaf_count=4647 415 6885 548 38 8186 242 211 72 4770 487 194 177 264 786 324 885 55 62 218 496 5021 66 192 1248 2815 998 271 61 118 35
internal_value=5.38765e-06 -0.00507756 -0.0125827 0.0177995 -0.0178066 0.0431965 0.0174827 0.0222042 -0.0249687 0.00629178 0.0247251 0.0336286 0.0620545 -0.00167284 0.0680603 0.0272483 0.0356549 0.0550661 0.0300514 0.062026 -0.0212376 0.0297506 0.0222683 0.0276498 -0.00730754 -0.00406001 0.0477957 0.0769985 0.031179 0.0179237
internal_weight=1214.72 1131.09 852.19 278.905 726.53 85.9749 125.66 108.763 430.797 192.93 36.8342 31.1211 16.4884 26.1471 83.6282 48.0176 37.6588 49.6503 16.2396 37.9573 325.155 82.6156 60.1756 53.5216 295.733 221.518 22.44 6.71106 15.729 3.95273
internal_count=40787 39768 32283 7485 28675 1716 3608 3060 17977 5769 1122 928 441 858 1019 1182 940 695 280 534 13207 2202 1651 1459 10698 7883 551 162 389 101
is_linear=0
shrinkage=0.05


Tree=11
num_leaves=31
num_cat=0
split_feature=17 16 17 3 16 16 16 16 3 16 3 17 16 16 16 16 16 16 16 16 16 4 16 16 16 16 16 16 16 16
split_gain=149.297 70.836 46.8486 15.9116 13.3452 11.9394 11.785 9.69276 4.55422 4.07485 10.7745 4.04765 3.94146 6.35417 3.68101 8.74989 3.911 3.5725 4.21415 3.48881 4.39525 3.12369 3.01837 7.59109 2.8857 2.45397 2.21637 5.44968 2.45342 2.21986
threshold=1.0000000180025095e-35 63.550000000000004 2.5000000000000004 1.0000000180025095e-35 17.250000000000004 83.15000000000002 31.150000000000002 14.65 1.0000000180025095e-35 73.050000000000011 1.0000000180025095e-35 5.5000000000000009 85.050000000000011 90.250000000000014 33.650000000000013 1.0000000180025095e-35 35.250000000000007 84.350000000000009 91.450000000000017 25.050000000000004 29.550000000000004 1.0000000180025095e-35 82.050000000000011 79.450000000000017 110.45000000000002 108.45000000000002 43.050000000000004 41.45000000000001 45.150000000000013 29.550000000000004
decision_type=2 2 2 2 2 2 2 2 2 2 2 2 2 2 2 2 2 2 2 2 2 2 2 2 2 2 2 2 2 2
left_child=1 3 4 6 -2 21 7 -1 24 26 12 17 22 -14 15 -5 -16 -4 -19 -9 -21 -3 23 -11 25 -7 27 29 -28 -6
right_child=2 5 11 14 9 8 -8 19 -10 10 -12 -13 13 -15 16 -17 -18 18 -20 20 -22 -23 -24 -25 -26 -27 28 -29 -30 -31
leaf_value=-0.010163978922105715 0.090812594449359754 -0.0072054140786334975 0.059534802497952094 0 0.02112187147900485 -0.019314463447758758 -0.0033954888526603905 0.043242716026884238 -0.035406968068798526 0.052833737322972731 -0.016353543442614103 0.075939009070544905 -0.013114591486758809 0.0312042491629901 -0.033700792656957523 0.065633479680379123 0.025339073144807347 -0.01732277488984561 0.040059896958914293 0.002859375144539543 0.047694713254915921 -0.029129258341744704 0.077912204970528753 -0.016596679013799003 -0.027852328939934709 0.001907488182559438 -0.030877397627709913 0.069575698861365332 0.0052784276703498135 0
leaf_weight=18.375473408028483 5.1395971104502669 179.90419379808009 35.166318293660879 6.871733687818053 25.77662386931479 202.49709135480225 167.91049772500992 28.296684641391039 78.579528940841556 12.771307541057473 13.283050190657375 36.098148480057716 9.4615499041974527 37.364029413089156 2.098912624642252 17.083524871617556 38.50046256557107 3.3611751981079605 13.308793751522897 18.753174806013707 6.9641319625079623 17.298704002052546 6.2714589256793252 4.8245779518038026 125.71445280872285 13.959848091006277 4.0981314070522776 3.4924801811575881 55.839932253584266 23.92285742983222
leaf_count=587 76 6573 415 231 520 8357 5530 553 3464 323 403 324 268 1034 55 344 1182 62 218 437 174 684 152 126 5590 566 124 89 1663 663
internal_value=8.43558e-06 -0.00982754 0.0312316 0.00986291 0.0177912 -0.0195497 0.00386544 0.0205924 -0.0243126 0.0154132 0.0237573 0.0615399 0.0314868 0.0220577 0.0317123 0.0473815 0.0214299 0.0501704 0.0278813 0.0311411 0.0165185 -0.00929107 0.0481538 0.0336591 -0.0216545 -0.0179203 0.00902164 0.0163683 0.00225817 0.0112321
internal_weight=1212.99 922.808 290.18 304.855 202.246 617.954 240.3 72.3895 420.751 197.106 83.976 87.9344 70.6929 46.8256 64.5546 23.9553 40.5994 51.8363 16.67 54.014 25.7173 197.203 23.8673 17.5959 342.171 216.457 113.13 53.192 59.9381 49.6995
internal_count=40787 34327 6460 9093 5441 25234 7281 1751 17977 5365 2306 1019 1903 1302 1812 575 1237 695 280 1164 611 7257 601 449 14513 8923 3059 1272 1787 1183
is_linear=0
shrinkage=0.05


Tree=12
num_leaves=31
num_cat=0
split_feature=16 1 1 16 15 16 0 16 16 16 0 16 16 15 15 0 16 0 16 15 0 15 15 16 15 15 0 15 4 0
split_gain=95.0526 115.701 43.8362 50.5027 23.6752 20.435 12.2626 10.405 10.3916 9.26292 9.11341 7.40799 8.39242 7.06927 6.50979 5.03077 4.90295 7.48585 17.4028 7.65294 6.65747 5.3918 5.30618 12.2251 6.45432 11.6033 4.70815 5.7036 5.25005 4.61812
threshold=43.050000000000004 1.0000000180025095e-35 1.0000000180025095e-35 65.750000000000014 1.0000000180025095e-35 19.150000000000002 115.00000000000001 103.05000000000001 36.150000000000013 32.750000000000007 398.50000000000006 47.850000000000001 111.25000000000001 41.250000000000007 50.70000000000001 186.50000000000003 66.15000000000002 29.500000000000004 78.65000000000002 81.450000000000017 52.500000000000007 63.250000000000007 76.250000000000014 74.65000000000002 91.450000000000017 100.65000000000002 398.50000000000006 39.900000000000006 1.0000000180025095e-35 52.500000000000007
decision_type=2 2 2 2 2 2 2 2 2 2 2 2 2 2 2 2 2 2 2 2 2 2 2 2 2 2 2 2 2 2
left_child=1 4 3 26 -1 -6 -3 13 -8 10 -7 -4 16 -5 -11 -15 20 19 22 -18 -13 -20 -19 -24 -25 -26 28 -28 -2 -23
right_child=2 6 11 7 5 9 8 -9 -10 14 -12 12 -14 15 -16 -17 17 18 21 -21 -22 29 23 24 25 -27 27 -29 -30 -31
leaf_value=0 0.017502040368831785 -0.031024138644754885 -0.027344264036356754 0.061006838776902633 0.099308316163237709 0.050052806416713738 -0.009864930320409292 -0.03957887507414496 0.073172086226806501 0.022746741373513023 0.10012952135118841 -0.017163626282635704 -0.0093030773353298089 -0.01220199006999835 0.082063724631425125 -0.027714397790399189 0.0035289820467803074 0.04017906636403043 0.038970580907598286 0.03226869775428081 0.010531831042375841 0.010248786483811936 -0.024520617384007182 0.012904108385939569 0.15074498951770743 -0.023362478334084821 0.039921670367085729 -0.036634409998747869 -0.010353988430037986 -0.012848396962099946
leaf_weight=21.365460468456149 93.231727769598365 67.532453410327435 17.649851337075233 1.6248407941311587 23.280982926487923 71.595601703971624 10.897523041814564 120.07211237028241 4.5501508973538867 45.952557051554322 11.476318333297966 39.710424987599254 84.607903108000755 86.910833206027746 4.5374874975532284 147.2837041541934 36.811284460127354 34.138247901573777 5.5442600622773162 64.778691159561276 45.354844253510237 27.027501557022333 11.935320626944305 5.900233827531336 1.9451530408114197 0.99927145615220059 2.2249701041728249 9.4133472219109517 19.675666011869907 93.320728441700339
leaf_count=718 2803 1961 591 44 229 1127 275 5467 112 1078 140 1403 3497 3281 107 6027 1206 1018 160 2084 1441 867 357 188 60 32 58 333 673 3450
internal_value=9.01331e-06 0.0266681 -0.00733436 -0.0179392 0.0492973 0.0559836 -0.0218791 -0.0275127 0.0172516 0.0477126 0.058139 0.00351684 0.00479045 -0.0212067 0.0296649 -0.0220553 0.00806545 0.0112293 0.00504014 0.0220395 -0.00238815 -0.00519801 0.0282724 0.00753529 0.0493974 0.0994465 0.00937851 -0.0196023 0.0125556 -0.00757837
internal_weight=1211.35 261.189 950.161 480.437 178.208 156.843 82.9801 355.891 15.4477 133.562 83.0719 469.724 452.074 235.819 50.49 234.195 367.466 282.401 180.811 101.59 85.0653 125.892 54.9182 20.78 8.84466 2.94442 124.546 11.6383 112.907 120.348
internal_count=40787 5747 35040 18686 3399 2681 2348 14819 387 2452 1267 16354 15763 9352 1185 9308 12266 9422 6132 3290 2844 4477 1655 637 280 92 3867 391 3476 4317
is_linear=0
shrinkage=0.05


Tree=13
num_leaves=31
num_cat=0
split_feature=17 15 17 16 16 16 16 3 16 3 3 15 15 15 16 16 15 15 15 16 16 15 15 4 15 15 16 16 15 15
split_gain=128.588 61.1259 37.5371 11.3542 11.1685 9.72176 9.48827 5.09719 4.20286 9.0753 4.0314 3.74425 4.65425 4.04417 3.7126 3.82002 3.58453 3.88062 7.39085 3.56133 5.50074 6.81375 3.52998 4.3631 7.07931 3.39556 4.21435 3.22959 3.08595 7.09588
threshold=1.0000000180025095e-35 59.650000000000013 2.5000000000000004 83.15000000000002 31.150000000000002 17.250000000000004 14.65 1.0000000180025095e-35 73.050000000000011 1.0000000180025095e-35 1.0000000180025095e-35 89.100000000000009 85.90000000000002 70.90000000000002 56.250000000000007 49.050000000000004 110.25000000000001 105.10000000000001 99.90000000000002 25.050000000000004 29.550000000000004 36.45000000000001 112.25000000000001 1.0000000180025095e-35 48.250000000000007 132.35000000000005 114.75000000000001 42.250000000000007 88.65000000000002 107.10000000000001
decision_type=2 2 2 2 2 2 2 2 2 2 2 2 2 2 2 2 2 2 2 2 2 2 2 2 2 2 2 2 2 2
left_child=1 4 5 -3 6 -2 -1 -6 11 16 -5 12 13 -7 15 27 17 18 -10 -8 -21 -22 23 -4 -25 -18 -27 -9 -11 -30
right_child=2 3 22 10 7 8 19 14 9 28 -12 -13 -14 -15 -16 -17 25 -19 -20 20 21 -23 -24 24 -26 26 -28 -29 29 -31
leaf_value=-0.0030318928174038729 0.075599856817086558 -0.0088346334112268526 0.052481664680207346 -0.020823372273695667 -0.0017890560281343401 0.01112895173939688 0.042224457998504945 0.029524054278779101 0.036571210924916442 -0.042222058595037998 -0.034206563198423141 -0.038422134761903613 0.081647222996157079 -0.020352813392916991 -0.0036104836159475437 0.054154194319313231 -0.0069679038734295293 0.071508995150669705 -0.017887377982144414 0.0051369920478948096 0.067686810219897725 -0.029819137566778942 0.018623244432016996 0.12425833879221936 0.020460771751761756 -0.024140267462900659 0.070087453360427654 -0.0088072673493492654 0.045404400852794978 -0.039617655004834412
leaf_weight=25.799177279695868 5.7956467047333708 206.85226611979306 76.296231945976615 328.26907070912421 161.39693711139262 100.37356448173523 39.315850038081408 12.426196200773125 44.55855717509985 4.9629778135567886 73.281853167340159 3.2102768626064053 1.2222724370658387 10.322490150108932 13.728621773421763 8.4025649707764369 11.39200685918331 6.219193071126937 6.4704565033316603 23.95153833553195 7.6953961011022312 1.5611513368785379 7.8764240816235533 5.4999563544988614 2.9800286069512367 1.056147683411836 2.6611476764082909 8.4097494557499868 4.1059327069669962 3.7123070675879717
leaf_count=831 76 7683 813 14391 5290 2630 692 316 1147 156 3442 92 34 303 466 248 343 135 167 530 171 42 126 40 40 34 77 225 121 126
internal_value=9.62404e-06 -0.00932286 0.0284268 -0.0184504 0.00900738 0.0163665 0.0227684 0.00228373 0.0142604 0.0226696 -0.0233571 0.00785691 0.00955717 0.00799256 0.0173887 0.0272074 0.0295043 0.0351726 0.0293587 0.0319309 0.0187198 0.0494506 0.0547347 0.0577753 0.0943154 0.00686673 0.0428136 0.0141291 -0.0149934 0.00455207
internal_weight=1209.81 911.09 298.716 608.403 302.687 206.063 98.3231 204.364 200.267 85.1387 401.551 115.129 111.918 110.696 42.9671 29.2385 72.3575 57.2482 51.029 72.5239 33.2081 9.25655 92.6526 84.7762 8.47998 15.1093 3.7173 20.8359 12.7812 7.81824
internal_count=40787 34327 6460 25516 8811 5441 2266 6545 5365 2306 17833 3059 2967 2933 1255 789 1903 1449 1314 1435 743 213 1019 893 80 454 111 541 403 247
is_linear=0
shrinkage=0.05


Tree=14
num_leaves=31
num_cat=0
split_feature=17 15 0 17 0 16 0 16 16 0 15 15 0 16 15 0 4 16 0 0 0 16 16 16 0 15 15 0 4 15
split_gain=114.758 56.2823 39.1924 31.7913 21.9133 13.106 12.0622 8.32701 8.21827 6.83444 37.1545 19.7387 9.89309 11.0281 6.61533 5.97262 5.33485 5.13074 5.08982 5.00405 4.91243 9.35469 5.67233 6.49557 4.27393 4.48629 10.6905 5.23465 4.12587 4.06956
threshold=1.0000000180025095e-35 59.650000000000013 111.50000000000001 2.5000000000000004 183.00000000000003 25.050000000000004 215.00000000000003 17.250000000000004 110.05000000000001 77.500000000000014 57.45000000000001 53.650000000000013 183.00000000000003 38.45000000000001 59.100000000000009 66.500000000000014 1.0000000180025095e-35 85.450000000000017 46.500000000000007 7.5000000000000009 161.50000000000003 56.250000000000007 66.950000000000017 78.65000000000002 347.50000000000006 85.100000000000009 82.250000000000014 233.00000000000003 1.0000000180025095e-35 25.300000000000001
decision_type=2 2 2 2 2 2 2 2 2 2 2 2 2 2 2 2 2 2 2 2 2 2 2 2 2 2 2 2 2 2
left_child=1 2 14 7 8 6 -4 -2 28 11 12 -5 -11 -14 16 -16 18 24 -1 -13 22 -22 -7 -24 25 26 -6 -28 -3 -18
right_child=3 4 5 9 17 20 -8 -9 -10 10 -12 19 13 -15 15 -17 29 -19 -20 -21 21 -23 23 -25 -26 -27 27 -29 -30 -31
leaf_value=-0.029113159463129319 0.068853628487520038 -0.0047380158392683509 0.0021203560380367212 0.024673383955889163 -0.01320840135236067 0.026882776365235651 0.074947877886303957 0.013388236874225738 -0.023455099207397759 0.025834372296910432 -0.024674234999867775 0.032364035592375516 0.096733001515165451 0.00383806102612398 -0.0066362490710530665 0.1266772763749652 0.018848099163799509 -0.037965342011366178 -0.006680137677144051 0.10593241211156215 0.022401112332721185 -0.010039003491915152 0.13151043312169616 -0.016894253595727941 -0.040794392624557967 -0.039054219607284814 -0.020800062954348584 0.093575139647607719 -0.022959154089772303 -0.013257212598240711
leaf_weight=50.605655264109373 6.1340719349682322 267.02565710060298 7.9838103763759163 18.474389415234327 39.807361159473658 18.6123893968761 20.660877328366041 202.81882413476706 100.37754433602095 13.287670396268366 16.381695387884974 4.1038283109664944 20.379759132862095 3.98898597434163 1.3768228590488427 0.66362836770713318 20.155534958466887 121.87701659090817 52.503730738535523 19.605526298284531 83.060978479683399 29.303089309483767 1.981526289135217 0.63047888502478588 18.747711641713977 11.828989312052725 0.84745066612958853 2.7719553876668215 34.590024329721928 17.422507498413324
leaf_count=1797 76 10217 175 192 1578 514 213 5365 4638 126 292 47 121 41 52 22 607 6139 1736 200 1972 1047 56 21 804 507 36 118 1479 599
internal_value=1.46811e-05 -0.00894324 0.00850693 0.026475 -0.0178518 0.0252591 0.0555744 0.0153605 -0.011104 0.0501531 0.0369291 0.0657301 0.0638028 0.0824746 -0.0105431 0.0624811 -0.012071 -0.0315478 -0.0179121 0.095226 0.018357 0.0138831 0.0401267 0.0995447 -0.0205469 -0.0129852 -0.00505249 0.0670074 -0.00691315 0.00387553
internal_weight=1208.01 902.835 304.961 305.175 597.874 162.233 28.6447 208.953 401.993 96.2219 54.0381 42.1837 37.6564 24.3687 142.728 2.04045 140.687 195.88 103.109 23.7094 133.588 112.364 21.2244 2.61201 74.0035 55.2558 43.4268 3.61941 301.616 37.578
internal_count=40787 34327 8811 6460 25516 3998 388 5441 16334 1019 580 439 288 162 4813 74 4739 9182 3533 247 3610 3019 591 77 3043 2239 1732 154 11696 1206
is_linear=0
shrinkage=0.05


Tree=15
num_leaves=31
num_cat=0
split_feature=15 1 1 16 0 15 15 16 0 16 0 0 16 0 16 0 16 15 16 16 16 16 15 15 16 0 16 16 16 16
split_gain=68.2604 60.4477 56.3065 39.73 24.0754 18.2658 13.9461 18.491 11.3704 10.5504 8.0181 7.81107 7.21245 7.14178 6.68033 6.8267 6.66306 6.21756 6.05295 6.74835 5.81979 5.63638 5.73655 4.53853 6.34585 4.28267 6.87439 7.45698 4.19945 4.08309
threshold=64.450000000000017 1.0000000180025095e-35 1.0000000180025095e-35 50.150000000000013 51.500000000000007 50.70000000000001 1.0000000180025095e-35 32.750000000000007 60.500000000000007 103.05000000000001 186.50000000000003 398.50000000000006 72.250000000000014 85.500000000000014 19.150000000000002 398.50000000000006 111.25000000000001 114.25000000000001 79.850000000000009 74.950000000000017 88.65000000000002 68.550000000000011 63.250000000000007 46.250000000000007 74.250000000000014 93.500000000000014 77.450000000000017 79.050000000000011 67.750000000000014 108.45000000000002
decision_type=2 2 2 2 2 2 2 2 2 2 2 2 2 2 2 2 2 2 2 2 2 2 2 2 2 2 2 2 2 2
left_child=2 9 3 6 28 12 -1 14 16 10 -2 21 -6 -14 -8 -16 17 29 19 -10 -19 22 -5 24 -23 -21 -27 -28 -4 -3
right_child=1 8 4 11 5 -7 7 -9 18 -11 -12 -13 13 -15 15 -17 -18 20 -20 25 -22 23 -24 -25 -26 26 27 -29 -30 -31
leaf_value=-0.00025502210687926443 -0.006669026110879721 0.010916021184657967 -0.031465059768405898 0.0082761199729775806 -0.010889783605944905 0.035365736526507492 0.078004097053371024 0.023884796458349507 -0.0039869659652910375 -0.038481214655902228 -0.026681403536182327 -0.041120865509571974 -0.021813052363200983 0.12656388665981552 0.040458977625891401 0.081096347453968806 -0.0050878392782516728 -0.029828614398059311 -0.012777264427541433 0.0020157199290519604 0.056230721904274798 -0.029372203522952358 0.069989874109586112 -0.024088325803805436 0.085247735241207878 0.10286178048643269 -0.036301018295968768 0.07903658709034786 0 0.053100753471089612
leaf_weight=21.52731635607779 81.676735296845436 140.89475472271442 74.846735700964928 64.561947526410222 64.2662757858634 38.321318563073874 26.596143677830696 87.625817799940705 29.32916041277349 110.33301335573196 135.2087084595114 9.3252311348915082 0.88025567494332679 0.93973426893353462 78.155641485005617 13.073448915034531 46.559811616316438 1.5514387451112259 108.86431904695928 5.3960480298846942 13.666602255776523 1.5052083507180243 3.0731851086020461 21.043499680235982 1.5205148868262766 3.5029893070459366 2.6592627372592692 1.2681803703308103 12.490060260519384 5.1545610651373854
leaf_count=718 3172 4600 2476 2028 1813 1136 229 2070 908 5463 5828 362 24 23 1127 140 1986 45 4357 162 388 43 98 768 39 105 82 40 386 171
internal_value=1.81815e-05 -0.010326 0.0136756 0.0262332 -0.00780485 0.00834264 0.0377998 0.0417934 0.0038355 -0.025836 -0.0192331 8.22458e-05 -0.00754625 0.07074 0.0547567 0.0471528 0.0114083 0.0162038 -0.0065595 0.00930565 0.0458507 0.00472442 0.012132 -0.0155452 0.0338535 0.0381523 0.06045 0.00840888 -0.027041 0.0127898
internal_weight=1205.82 686.066 519.752 328.008 191.744 104.408 226.978 205.451 358.847 327.218 216.885 101.03 66.0863 1.81999 117.825 91.2291 207.827 161.267 151.02 42.1556 15.218 91.7044 67.6351 24.0692 3.02572 12.8265 7.43043 3.92744 87.3368 146.049
internal_count=40787 27307 13480 7622 5858 2996 4284 3566 12844 14463 9000 3338 1860 47 1496 1267 7190 5204 5654 1297 433 2976 2126 850 82 389 227 122 2862 4771
is_linear=0
shrinkage=0.05


Tree=16
num_leaves=31
num_cat=0
split_feature=17 16 17 0 16 0 0 0 16 0 16 16 0 17 0 16 16 0 0 4 16 16 0 16 0 4 16 16 0 16
split_gain=99.2678 48.8747 26.2023 25.1339 17.0193 16.3589 15.3901 11.4879 6.6985 5.95801 27.1615 14.4071 12.4068 9.01115 8.35175 5.39857 7.60831 4.78672 4.57163 4.53571 4.15426 4.19271 4.2054 6.04989 4.81348 4.1093 5.63566 5.0811 3.72618 3.72231
threshold=1.0000000180025095e-35 80.15000000000002 2.5000000000000004 77.500000000000014 51.250000000000007 234.50000000000003 108.00000000000001 133.50000000000003 14.65 77.500000000000014 40.750000000000007 53.050000000000004 183.00000000000003 5.5000000000000009 108.00000000000001 25.050000000000004 14.65 398.50000000000006 380.50000000000006 1.0000000180025095e-35 79.450000000000017 71.450000000000017 183.00000000000003 68.950000000000017 203.00000000000003 1.0000000180025095e-35 65.350000000000009 75.850000000000009 433.50000000000006 73.450000000000017
decision_type=2 2 2 2 2 2 2 2 2 2 2 2 2 2 2 2 2 2 2 2 2 2 2 2 2 2 2 2 2 2
left_child=1 3 8 25 7 20 19 -5 -2 11 12 -4 -11 -13 -12 16 -9 18 -7 -3 21 22 23 -6 -24 27 -27 -1 -18 -10
right_child=2 6 9 4 5 17 -8 15 29 10 14 13 -14 -15 -16 -17 28 -19 -20 -21 -22 -23 24 -25 -26 26 -28 -29 -30 -31
leaf_value=-0.020594003887533678 0.078373425174749128 -0.0088649376365969139 0.022911033877846494 -0.0044684676954130503 0.017145944255641872 -0.015821645879907011 -0.031195373468513921 -0.023673520855194998 0.0071174597323384742 0.014180552838999955 0.05087691391436347 0.059851084371519231 0.081395222327073954 0.13342410913404634 -0.023453538962153228 0.023545450710247579 0.047228367039110097 -0.0466863759498366 0.036685835093013298 -0.030286603956951243 0.070376221137320477 -0.0053955561294901097 -0.041560690592056547 0.066247771905486058 0.016542700658356443 0.0089164619391034552 -0.030019378616005898 0.008501328767711324 0.11459610494278927 0.020815430162212982
leaf_weight=114.20870480686426 3.0543556809425345 190.13611264713109 18.115670770406723 28.655792081728578 38.156949996948242 52.597962819039822 195.82651516795158 2.6517794206738499 123.4400587156415 10.64286522194743 3.679975654929879 19.659101981669668 22.622755356132984 6.54341697692871 18.595687875524163 85.501323414966464 25.433580111712221 11.568150747567413 3.5020408760756245 28.11481498926878 2.2533595953136674 24.0773656796664 4.684522856026887 7.0204131398349991 8.5045713819563371 39.291492836549878 11.079770449548958 16.431781027466059 2.2000192552804938 85.844425354152918
leaf_count=4194 38 7962 180 858 1195 2031 9915 72 3134 97 44 208 127 51 312 1868 284 528 139 1337 81 862 168 214 310 1247 473 570 19 2269
internal_value=2.07498e-05 -0.00847068 0.0242449 0.00241809 0.0113684 -0.000275548 -0.0210232 0.0236029 0.0141613 0.0452838 0.0330979 0.059378 0.0610782 0.0826373 -0.00930094 0.0305719 0.0488623 -0.018489 -0.0118712 -0.0117728 0.0142636 0.011845 0.0190124 0.0261539 -0.00521678 -0.0122123 0 -0.0168597 0.0565812 0.0128321
internal_weight=1204.1 891.897 312.198 477.82 296.808 152.365 414.077 144.442 212.339 99.8595 55.5413 44.3182 33.2656 26.2025 22.2757 115.787 30.2854 67.6682 56.1 218.251 84.6972 82.4438 58.3665 45.1774 13.1891 181.012 50.3713 130.64 27.6336 209.284
internal_count=40787 34327 6460 15113 8629 5528 19214 3101 5441 1019 580 439 224 259 356 2243 375 2698 2170 9299 2830 2749 1887 1409 478 6484 1720 4764 303 5403
is_linear=0
shrinkage=0.05


Tree=17
num_leaves=31
num_cat=0
split_feature=17 16 17 16 16 16 3 15 16 16 16 3 15 15 15 15 3 15 16 17 15 15 15 15 15 15 15 16 15 16
split_gain=89.0265 45.3739 22.8048 12.3985 6.14108 5.87201 4.69491 4.07871 4.24456 3.89386 3.23858 7.48685 3.43737 4.21801 3.59131 3.01719 4.20986 3.01465 10.2451 2.94511 3.03261 2.94033 6.41107 2.81902 3.24701 6.24968 3.05049 3.706 2.76947 3.76225
threshold=1.0000000180025095e-35 80.15000000000002 2.5000000000000004 31.150000000000002 14.65 14.65 1.0000000180025095e-35 67.90000000000002 96.750000000000014 85.050000000000011 73.050000000000011 1.0000000180025095e-35 89.100000000000009 85.90000000000002 70.90000000000002 59.650000000000013 1.0000000180025095e-35 104.25000000000001 105.45000000000002 5.5000000000000009 23.450000000000003 88.65000000000002 107.10000000000001 110.25000000000001 105.10000000000001 99.90000000000002 132.35000000000005 114.75000000000001 95.450000000000017 85.050000000000011
decision_type=2 2 2 2 2 2 2 2 2 2 2 2 2 2 2 2 2 2 2 2 2 2 2 2 2 2 2 2 2 2
left_child=1 3 5 4 -1 -2 7 8 9 -3 12 23 13 14 -7 16 -5 -9 -19 -4 -21 -13 -23 24 25 28 -25 -28 29 -12
right_child=2 6 19 15 -6 10 -8 17 -10 -11 11 21 -14 -15 -16 -17 -18 18 -20 20 -22 22 -24 26 -26 -27 27 -29 -30 -31
leaf_value=-0.0034157622047610464 0.0721438441676856 0.023720574312720601 0.033554353477697661 -0.0016441220694057756 0.024285099508510377 0.009498619287803144 -0.032212019418549953 -0.023845501401507485 0.078362663932050311 -0.02865162834645282 0.039229066149116774 -0.041995545388053473 -0.038142725528029275 0.075064629050257389 -0.02013779169100097 -0.0067934912643901162 0.015682103082294587 0.0072944927993361768 -0.021241243958608332 0.030352715387767459 0.063122005165732908 0.041251674555937604 -0.039275859917471283 -0.0076817042804373063 0.061778761313835653 -0.018271860209327324 -0.024045277745128185 0.063097921131885851 0.061044197044493834 0.0082830435713192371
leaf_weight=25.985056275501847 3.2337002120912066 6.2771369125694001 60.168975101783872 156.76574370451272 78.92790013179183 107.99187863059342 71.100814718753099 160.2298302706331 0.89931185543537218 5.9086177833378315 21.310106841847301 4.8446500282734615 3.1347398050129405 1.3352032583206881 10.249580992385743 172.7516460083425 43.981678836047649 41.640820303931832 119.84531322680414 14.542619630694388 27.782188151031733 4.3282260242849588 3.5974039286375046 11.578098867088555 6.8117624614387742 6.544807380065321 1.0489987842738622 2.8787342142313719 6.4438658189028493 19.624815724790096
leaf_count=831 38 251 695 5117 1435 2668 3669 7297 37 252 485 156 92 34 303 6515 1215 1810 5898 97 227 121 126 343 135 167 34 77 141 521
internal_value=2.96453e-05 -0.00812135 0.0227056 0.00230391 0.0174094 0.0133109 -0.0203967 -0.0177842 0.00876885 -0.00154146 0.0120539 0.0193067 0.00663893 0.00816096 0.00674036 -0.00196091 0.00218601 -0.0189035 -0.0138526 0.0420415 0.0529385 -0.0149756 0.00383516 0.0252332 0.0300507 0.0248998 0.00538295 0.0386529 0.0312212 0.0250636
internal_weight=1201.76 884.314 317.45 478.412 104.913 214.957 405.902 334.801 13.0851 12.1858 211.723 89.0115 122.711 119.577 118.241 373.499 200.747 321.716 161.486 102.494 42.3248 12.7703 7.92563 76.2412 60.7354 53.9236 15.5058 3.92773 47.3788 40.9349
internal_count=40787 34327 6460 15113 2266 5441 19214 15545 540 503 5403 2306 3097 3005 2971 12847 6332 15005 7708 1019 324 403 247 1903 1449 1314 454 111 1147 1006
is_linear=0
shrinkage=0.05


Tree=18
num_leaves=31
num_cat=0
split_feature=15 1 1 16 0 15 16 0 15 16 0 16 0 16 0 0 16 16 16 0 15 16 16 15 16 0 15 0 15 15
split_gain=51.2415 53.982 45.9468 29.1882 21.5009 16.0182 10.1844 9.72845 9.24087 15.2778 7.26875 6.5635 6.2947 5.64259 5.37615 6.03978 7.6096 4.95396 5.96642 4.74717 4.29649 5.3072 4.50039 5.63596 4.1666 4.09057 3.99147 7.06886 3.89257 3.89935
threshold=64.450000000000017 1.0000000180025095e-35 1.0000000180025095e-35 53.650000000000013 51.500000000000007 50.70000000000001 103.45000000000002 60.500000000000007 1.0000000180025095e-35 32.750000000000007 186.50000000000003 72.250000000000014 85.500000000000014 131.05000000000004 433.50000000000006 415.00000000000006 19.150000000000002 79.850000000000009 74.950000000000017 406.50000000000006 132.35000000000005 113.55000000000001 125.35000000000001 124.25000000000001 61.750000000000007 34.500000000000007 53.100000000000009 337.50000000000006 54.250000000000007 60.900000000000006
decision_type=2 2 2 2 2 2 2 2 2 2 2 2 2 2 2 2 2 2 2 2 2 2 2 2 2 2 2 2 2 2
left_child=2 6 3 8 -4 11 10 13 -1 14 -2 -6 -13 20 15 16 -10 18 -9 -5 21 24 -23 -24 -3 -25 -11 28 -28 -30
right_child=1 7 4 19 5 -7 -8 17 9 26 -12 12 -14 -15 -16 -17 -18 -19 -20 -21 -22 22 23 25 -26 -27 27 -29 29 -31
leaf_value=-0.00022660681769646999 -0.00597800582281275 -0.018453352084170201 -0.026511273017619949 0.00048382402578705651 -0.011215048074980817 0.031633049813565288 -0.037602639572757023 -0.0041379524328218386 0.068138197463479017 0.015351346298601132 -0.025264343664745965 -0.021848237908774049 0.11473215764904579 -0.019378878192486695 0.085048333422919536 -0.028183867326240453 0.036035113171801331 -0.011509238248869191 0.035004823512871729 -0.042993910442673783 0.050014430835501181 -0.022132685118079795 -0.030736733793639087 0.090750251040532706 0.016500445991243642 -0.018067706968601265 0.11105375962203141 -0.016267110263982275 0.014191144835762387 0.083832240797256791
leaf_weight=21.515094617381692 80.408992795273662 8.0709372870624048 85.342466255649924 78.264862295240164 64.653104027733207 39.960332864895463 99.889654023572803 29.387605357915163 25.759190808981657 93.328245671465993 129.94525603018701 0.88041798025369544 1.0735519006848333 13.281202377751468 8.2999675422906858 2.2697261907160273 90.734206337481737 105.34281120076776 13.305779382586477 5.8053888715803614 6.7830426022410384 17.907280731946233 1.7085313983261574 2.1448189485818152 158.00992362760007 0.69793591275811184 2.341821212321519 3.3650029152631751 7.2461669500917179 2.28416658192873
leaf_count=718 3207 277 2862 2602 1813 1136 5358 908 212 2138 5898 24 23 609 75 16 1193 4357 389 250 237 770 72 102 5090 33 61 92 201 64
internal_value=3.3677e-05 -0.00919422 0.0115818 0.0225705 -0.00794584 0.00698368 -0.0244137 0.00406262 0.030906 0.0337588 -0.0179789 -0.00797969 0.0649361 0.0110058 0.0455461 0.0420565 0.0436959 -0.0056959 0.00846876 -0.00292981 0.0131855 0.0115772 -0.0107426 0.0290859 0.0146716 0.0649834 0.0196278 0.0429544 0.0600881 0.037733
internal_weight=1200.01 666.884 533.124 341.214 191.91 106.567 310.244 356.64 257.144 235.628 210.354 66.6071 1.95397 208.604 127.063 118.763 116.493 148.036 42.6934 84.0703 195.322 188.539 22.4586 4.55129 166.081 2.84275 108.565 15.2372 11.8722 9.53033
internal_count=40787 27307 13480 7622 5858 2996 14463 12844 4770 4052 9105 1860 47 7190 1496 1421 1405 5654 1297 2852 6581 6344 977 207 5367 135 2556 418 326 265
is_linear=0
shrinkage=0.05


Tree=19
num_leaves=31
num_cat=0
split_feature=17 16 0 17 0 16 0 0 0 16 16 0 17 16 0 0 4 0 0 16 16 16 16 0 16 0 0 0 0 4
split_gain=77.439 39.3863 21.1962 18.941 14.0399 11.9184 14.1924 9.04793 5.11785 26.5076 12.9432 8.59394 7.60466 4.78451 4.67472 4.233 4.16767 3.78527 4.33771 3.65367 3.70567 3.61725 5.84223 3.59099 5.16082 4.56137 3.58351 4.05561 3.9832 3.51642
threshold=1.0000000180025095e-35 80.15000000000002 77.500000000000014 2.5000000000000004 108.00000000000001 51.250000000000007 234.50000000000003 133.50000000000003 93.500000000000014 40.750000000000007 53.050000000000004 183.00000000000003 5.5000000000000009 14.65 398.50000000000006 380.50000000000006 1.0000000180025095e-35 290.00000000000006 285.50000000000006 79.450000000000017 71.450000000000017 25.050000000000004 14.65 183.00000000000003 68.950000000000017 203.00000000000003 108.00000000000001 120.50000000000001 168.50000000000003 1.0000000180025095e-35
decision_type=2 2 2 2 2 2 2 2 2 2 2 2 2 2 2 2 2 2 2 2 2 2 2 2 2 2 2 2 2 2
left_child=1 2 29 13 16 7 19 -4 10 11 -5 -10 -12 -2 15 -8 -3 18 -6 20 23 22 -9 24 -7 -25 -26 -28 -29 -1
right_child=3 4 5 8 17 6 14 21 9 -11 12 -13 -14 -15 -16 -17 -18 -19 -20 -21 -22 -23 -24 25 26 -27 27 28 -30 -31
leaf_value=-0.016099892715096448 0.063960952621253772 -0.0077693539866169935 -0.0050090495224489138 0.018037029684928364 -0.025304570678274421 0.015745342008858514 -0.01481845735296939 -0.023437380133024793 0.0098092141501982134 -0.017432646597504538 0.050963743000180743 0.068418364461395764 0.11234343615791741 0.01118334436150231 -0.046290330606861059 0.0354001135754708 -0.028882749663557784 -0.040173257696296878 0.039534901030743932 0.064705753044870751 -0.0052425539893511319 0.020036182474323698 0.046392028921070125 -0.041170324622238658 0.0049792312460159834 0.015901166231078474 0.13657082569376877 -0.0060146810069818916 0.08307001192916201 -0.00045633891864936229
leaf_weight=127.9037976320833 3.4841126799583426 185.43599562160671 28.966367475688457 21.080797746777534 119.88104474171996 38.94544431194663 51.174487959593534 2.6111901029944411 9.080180209130047 20.665670074522495 22.626295369118456 24.344543486833572 7.9519539028406134 214.29291438683867 10.734028389677404 3.56744117476046 26.357179291546345 60.138244781643152 1.7187359407544125 2.4096539765596381 23.991783786565065 89.461218757554889 30.177603207528591 4.4944016300141802 2.4669762328267089 8.5920108836144191 1.368024658411741 2.420286333188415 1.2000867798924444 50.807375060394406
leaf_count=4764 38 7962 858 200 6342 1195 2031 72 78 337 223 127 54 5403 528 139 1337 3475 98 81 862 1868 303 168 75 310 33 71 35 1720
internal_value=3.32912e-05 -0.00769316 0.00189361 0.0209005 -0.0194056 0.00995534 0 0.0198346 0.0382041 0.0264151 0.049717 0.0533893 0.0701362 0.0123391 -0.0173691 -0.0108797 -0.0105437 -0.0295914 -0.0240323 0.0133243 0.0110336 0.0257546 0.040154 0.0176587 0.0240884 -0.00487577 0.060063 0.0810889 0.0340209 -0.0117076
internal_weight=1198.35 874.823 481.292 323.526 393.531 302.581 151.365 151.216 105.749 54.0904 51.659 33.4247 30.5782 217.777 65.476 54.7419 211.793 181.738 121.6 85.8887 83.479 122.25 32.7888 59.4872 46.4008 13.0864 7.45537 4.9884 3.62037 178.711
internal_count=40787 34327 15113 6460 19214 8629 5528 3101 1019 542 477 205 277 5441 2698 2170 9299 9915 6440 2830 2749 2243 375 1887 1409 478 214 139 106 6484
is_linear=0
shrinkage=0.05


Tree=20
num_leaves=31
num_cat=0
split_feature=17 16 0 17 0 15 0 16 0 15 15 0 16 4 16 0 0 0 0 0 0 15 16 16 0 0 0 0 16 16
split_gain=69.528 36.5293 19.2275 16.6258 13.4403 11.0728 5.48218 4.23476 4.2039 22.3618 10.1206 4.90767 5.55026 3.95472 3.82669 4.19356 3.76943 4.05983 3.56831 4.15763 3.48546 14.0967 4.16563 3.39577 10.8531 3.95613 5.09703 9.60368 8.56236 7.82718
threshold=1.0000000180025095e-35 80.15000000000002 77.500000000000014 2.5000000000000004 108.00000000000001 63.900000000000006 272.50000000000006 14.65 77.500000000000014 57.45000000000001 45.650000000000013 183.00000000000003 38.45000000000001 1.0000000180025095e-35 75.350000000000009 259.00000000000006 290.00000000000006 285.50000000000006 221.50000000000003 96.500000000000014 111.50000000000001 80.700000000000003 70.550000000000011 25.050000000000004 215.00000000000003 86.500000000000014 111.50000000000001 161.50000000000003 65.750000000000014 56.250000000000007
decision_type=2 2 2 2 2 2 2 2 2 2 2 2 2 2 2 2 2 2 2 2 2 2 2 2 2 2 2 2 2 2
left_child=1 2 -1 7 13 23 14 -2 10 11 -5 -10 -13 -3 18 -16 17 -6 19 -7 21 -21 -22 24 -4 -25 -27 28 -28 -29
right_child=3 4 5 8 16 6 -8 -9 9 -11 -12 12 -14 -15 15 -17 -18 -19 -20 20 22 -23 -24 25 -26 26 27 29 -30 -31
leaf_value=-0.011254713484106093 0.059358082838596261 -0.0074388869915287415 -0.0021570694568995882 0.013825754646347719 -0.024652493405077986 -0.034521652064642583 -0.026277644278687035 0.010518043927536445 0.018168391220729451 -0.023810095216582824 0.062828140134563754 0.06494634946334181 0.0011996198351828041 -0.028254939222730764 0.011278775204627896 0.088034351661282262 -0.039721390047277851 0.037344748677591702 -0.031581919738948354 -0.01013643481201029 0.01590341086127427 0.14205400898035495 -0.030162471287577514 0.045064416412949462 0.047862002730881037 -0.014392804538141844 0.024744720326398264 0.014817817801103679 0.09855287273648311 -0.012508023582955481
leaf_weight=176.75989908911288 3.6399335376918307 184.07027452252805 17.819746403023601 16.847538769245148 117.00005980487913 5.2462781127542284 23.368054091930389 216.46096552722156 14.452297318726776 15.857851088047026 32.297876287251711 24.307899154722694 4.1768610477447501 25.636402409523726 15.671811720356347 1.1278665233403433 57.8508271407336 1.7854497358202923 9.4790992885828 3.9728539623320129 13.756200062111022 1.3054723609238861 6.3480000682175151 7.7518416196107855 25.681961454451084 17.899558115750551 21.718636961653832 94.288548594340682 4.2855084035545579 35.096824450418353
leaf_count=6484 38 7962 441 161 6342 177 1079 5403 126 292 278 121 41 1337 575 52 3475 98 399 127 460 42 237 251 213 553 561 2059 106 1297
internal_value=4.10056e-05 -0.00736732 0.00181383 0.0196197 -0.0187997 0.00942047 -0.00641544 0.0116132 0.0356436 0.0256581 0.0467401 0.0441679 0.0561261 -0.0101294 0.0019672 0.0213691 -0.0289502 -0.0233749 -0.00636002 0.00203937 0.0108077 0.0433387 0.00038097 0.0151074 0.0276721 0.0119254 0.0101643 0.0130989 0.0402926 0.00732803
internal_weight=1195.96 867.921 481.578 328.041 386.343 304.818 80.2756 220.101 107.94 58.7949 49.1454 42.9371 28.4848 209.707 56.9076 16.7997 176.636 118.786 40.1079 30.6288 25.3825 5.27833 20.1042 224.543 43.5017 181.041 173.289 155.39 26.0041 129.385
internal_count=40787 34327 15113 6460 19214 8629 3148 5441 1019 580 439 288 162 9299 2069 627 9915 6440 1442 1043 866 169 697 5481 654 4827 4576 4023 667 3356
is_linear=0
shrinkage=0.05


Tree=21
num_leaves=31
num_cat=0
split_feature=15 1 1 16 16 16 16 15 16 16 16 15 16 16 15 16 16 16 16 15 15 15 16 15 15 15 16 15 16 16
split_gain=37.9878 46.7977 37.523 21.1679 16.9376 9.8638 6.49719 10.5399 5.63214 4.07477 3.72229 7.00007 3.6921 4.11352 3.61727 4.65731 5.41296 3.43234 3.77087 3.57566 4.10805 3.30908 3.22149 3.79763 5.4977 4.76381 3.20475 3.19761 3.13672 2.93328
threshold=64.450000000000017 1.0000000180025095e-35 1.0000000180025095e-35 53.650000000000013 47.850000000000001 103.45000000000002 32.750000000000007 1.0000000180025095e-35 66.550000000000011 17.250000000000004 131.05000000000004 142.55000000000004 27.850000000000005 30.350000000000005 53.100000000000009 52.45000000000001 50.150000000000013 101.35000000000001 64.050000000000011 120.25000000000001 124.90000000000002 46.250000000000007 111.25000000000001 112.25000000000001 104.25000000000001 90.250000000000014 73.450000000000017 120.25000000000001 57.350000000000001 68.550000000000011
decision_type=2 2 2 2 2 2 2 2 2 2 2 2 2 2 2 2 2 2 2 2 2 2 2 2 2 2 2 2 2 2
left_child=2 5 3 6 12 17 7 -1 -6 -9 11 22 -4 -14 -8 16 -16 18 -2 -19 -21 -10 28 24 25 -24 -23 -25 -3 -5
right_child=1 10 4 29 8 -7 14 9 21 -11 -12 -13 13 -15 15 -17 -18 19 -20 20 -22 26 23 27 -26 -27 -28 -29 -30 -31
leaf_value=0 0.0020564424173698296 -0.022943468861622147 -0.035186789929552681 0.0037490360221620576 -0.0018977452293975176 -0.036428135597744882 0.012768910577121659 0.058913689656613567 -0.017748311244510106 0.033562082226800696 -0.015553403767767125 0.063281227768155132 0.016188891593174017 -0.019682193451542949 0.040130743445798894 0.097079260658363045 -0.026664763931712604 -0.0018431287586446827 -0.020409803494033506 0.11729280505242168 -0.014964880715257717 0.046087703274733799 0.042308849611752929 -0.033988873707187638 0.036972565167987338 -0.0369035621953787 0.012028327456278558 -0.0034185529420343399 0.0075641839259640957 -0.016173951847414589
leaf_weight=21.268423078581691 20.313445402309299 7.6706784367561331 36.041959652677178 57.406600557267666 60.868011364713311 92.160258785821497 96.759196659550071 21.278798673301935 3.526405742391943 114.08361026644707 21.573498912155628 4.1613971758633843 8.4427284784615022 53.210495596751571 10.829135863110421 1.9891576711088426 3.2039155811071405 9.2541593909263593 170.788619030267 0.46000316366553196 0.55241693928837776 13.625051163136961 1.6074229255318666 13.723754102364181 9.1019773855805379 6.2116308603435755 15.917385296896098 22.032209541648626 269.64455277100205 25.921282613649964
leaf_count=718 724 251 898 1889 2053 5358 2138 150 98 1346 1031 151 237 1760 267 60 91 463 7869 21 28 372 57 631 391 274 440 989 9069 963
internal_value=4.63083e-05 -0.00811156 0.00978214 0.0194426 -0.0079827 -0.0228564 0.0262343 0.0328807 0.00710764 0.0379868 0.00407116 0.0053957 -0.0224682 -0.0145103 0.0167521 0.0383499 0.0237886 -0.0164711 -0.0179974 0.0105725 0.0710667 0.0233993 0.00446164 -0.00673477 0.0121465 -0.0171014 0.028895 -0.0158935 0.00662296 -0.00250753
internal_weight=1193.63 649.256 544.372 352.74 191.632 293.529 269.412 156.631 93.9369 135.362 355.727 334.154 97.6952 61.6532 112.781 16.0222 14.0331 201.369 191.102 10.2666 1.01242 33.0688 329.992 52.677 16.921 7.81905 29.5424 35.756 277.315 83.3279
internal_count=40787 27307 13480 7622 5858 14463 4770 2214 2963 1496 12844 11813 2895 1997 2556 418 358 9105 8593 512 49 910 11662 2342 722 331 812 1620 9320 2852
is_linear=0
shrinkage=0.05


Tree=22
num_leaves=31
num_cat=0
split_feature=17 16 0 17 0 16 0 0 0 16 0 0 16 0 16 16 17 0 0 0 0 0 16 16 0 0 16 16 4 0
split_gain=60.838 31.7183 16.7955 14.1916 12.2332 8.06394 12.19 6.88845 5.53745 5.25476 4.68147 6.55738 5.26186 3.90274 22.4717 10.439 9.22491 4.78649 3.74492 3.87937 3.68931 4.57647 3.48495 3.68644 22.7379 17.0669 7.58717 6.90077 3.45242 3.43337
threshold=1.0000000180025095e-35 80.15000000000002 77.500000000000014 2.5000000000000004 108.00000000000001 51.250000000000007 262.50000000000006 264.00000000000006 251.50000000000003 49.650000000000013 297.00000000000006 347.50000000000006 17.250000000000004 100.50000000000001 40.750000000000007 53.050000000000004 5.5000000000000009 183.00000000000003 290.00000000000006 285.50000000000006 398.50000000000006 378.00000000000006 14.65 73.050000000000011 108.00000000000001 183.00000000000003 66.15000000000002 64.050000000000011 1.0000000180025095e-35 189.50000000000003
decision_type=2 2 2 2 2 2 2 2 2 2 2 2 2 2 2 2 2 2 2 2 2 2 2 2 2 2 2 2 2 2
left_child=1 2 -1 22 28 7 -7 8 9 29 -9 12 -12 15 17 -5 -17 -15 19 -6 21 -8 -2 25 -25 27 -27 -24 -3 -4
right_child=3 4 5 13 18 6 20 10 -10 -11 11 -13 -14 14 -16 16 -18 -19 -20 -21 -22 -23 23 24 -26 26 -28 -29 -30 -31
leaf_value=-0.010845569224272551 0.053173069801606243 -0.0071340111014324683 -0.0015094999145288286 0.014253441433990844 -0.023556887545598214 0.010047049551041302 -0.01865222344350493 0.053561978164762707 -0.037296926434089897 0.051173946443843002 0.071083353432347784 0.03368512870107563 -0.0090042033439082063 0.01162283323304647 -0.019947427067903846 0.040529314895196643 0.10169387141480764 0.056538000337502031 -0.038944589558654347 0.036823219188688854 -0.045936664601475295 0.030659097248203149 -0.020514966138173461 0.038240754176647365 -0.011861045512966161 0.030075852113229301 -0.027614698416872547 0.016871734773070107 -0.027035572372148271 0.020466370800934816
leaf_weight=175.0003609675914 3.8505588285624972 182.81309812702239 49.452692948281765 22.032070141285658 112.43202207703143 101.83526839502156 34.408984581008554 13.877541862428187 5.5926449187099925 6.2258931621909133 1.2708085924387003 35.154874486848712 20.017400270327926 8.7712095603346807 19.401683932170272 24.951528131961823 9.031051713973282 25.967451840639114 54.264460918493569 1.8017864674329747 10.056214243173597 4.4407059326767913 54.8767522983253 53.262280901893973 38.015618542209268 52.21345760859549 5.5088944341987363 14.875022768974302 24.333816275000572 26.323743421584368
leaf_count=6484 38 7962 1335 204 6342 3404 1422 244 105 159 7 483 327 74 328 230 56 127 3475 98 528 174 1611 1096 1210 939 177 370 1337 441
internal_value=4.4565e-05 -0.00698094 0.00147879 0.0181685 -0.0178614 0.00849499 0.000175669 0.0163538 0.00679442 0.0102749 0.0279291 0.0207171 -0.00102423 0.0328053 0.0223302 0.042273 0.0593694 0.0459798 -0.0278539 -0.0222498 -0.0200685 -0.0122623 0.0107888 0.00978145 0.0174177 0.00418161 0.0241083 -0.0123456 -0.00961455 0.00622664
internal_weight=1192.06 859.302 483.657 332.758 375.645 308.657 150.741 157.916 87.595 82.0023 70.3206 56.4431 21.2882 110.155 54.1403 56.0146 33.9826 34.7387 168.498 114.234 48.9059 38.8497 222.603 218.752 91.2779 127.474 57.7224 69.7518 207.147 75.7764
internal_count=40787 34327 15113 6460 19214 8629 5528 3101 2040 1935 1061 817 334 1019 529 490 286 201 9915 6440 2124 1596 5441 5403 2306 3097 1116 1981 9299 1776
is_linear=0
shrinkage=0.05


Tree=23
num_leaves=31
num_cat=0
split_feature=17 16 0 17 0 16 0 0 0 0 16 0 0 16 16 0 16 16 17 0 16 16 0 0 16 16 0 0 16 16
split_gain=54.7112 29.3467 15.2152 12.5703 11.8018 7.19509 11.1437 6.17081 3.62317 4.19288 3.30326 3.90423 6.80023 5.07877 4.21093 3.23595 20.0208 8.82276 7.67393 4.15869 3.10933 3.23567 19.7786 15.3331 6.4262 6.0163 3.07644 2.80518 5.80968 4.40835
threshold=1.0000000180025095e-35 80.15000000000002 77.500000000000014 2.5000000000000004 186.50000000000003 51.250000000000007 262.50000000000006 133.50000000000003 398.50000000000006 378.00000000000006 110.05000000000001 29.500000000000004 20.500000000000004 93.250000000000014 108.45000000000002 100.50000000000001 40.750000000000007 53.050000000000004 5.5000000000000009 183.00000000000003 14.65 73.050000000000011 108.00000000000001 150.50000000000003 64.050000000000011 66.15000000000002 10.500000000000002 5.5000000000000009 83.550000000000011 92.950000000000017
decision_type=2 2 2 2 2 2 2 2 2 2 2 2 2 2 2 2 2 2 2 2 2 2 2 2 2 2 2 2 2 2
left_child=1 2 26 20 10 7 -7 -4 9 -8 11 12 14 -14 -3 17 19 -5 -19 -17 -2 23 27 24 -22 -25 -1 28 -23 -30
right_child=3 4 5 15 -6 6 8 -9 -10 -11 -12 -13 13 -15 -16 16 -18 18 -20 -21 21 22 -24 25 -26 -27 -28 -29 29 -31
leaf_value=-0.0018482072815017244 0.049658513020177986 -0.0088635075054600988 -0.005178230385848164 0.013441671230346085 -0.031269216235310468 0.0094588159372927388 -0.018062043962134837 0.019994402867594803 -0.045688717321806176 0.028700757807040164 -0.019388783826680737 -0.013191675469201435 -0.001692332093574743 0.061506878998815032 0.047754866253505668 0.011022732129345776 -0.01930931881796899 0.037474065114015444 0.092143764425781483 0.052751980552021627 -0.022715266086775432 0.11850438047134411 -0.011408640602973799 0.025273519592380778 0.014996133784737756 -0.023194272990060254 -0.015645825647666294 0.029653260533178977 -0.031020427519292001 0.054149935072391825
leaf_weight=66.553684167563915 3.9841335229575625 52.178699361160398 29.054422877728939 22.249143656343222 106.77122944314033 102.79657985456288 33.804949773475528 130.85529801808298 9.6216750927269441 4.5712850578129283 87.777596130035818 108.43045523017645 5.1684174854308349 6.4972440060228109 2.4913457725197068 8.8389537148177606 19.082023041322827 25.69793314114213 9.5578078404068929 26.497061811387539 47.249853327870369 2.1921120509505263 37.597497591748834 60.545726636424661 13.815652379766105 6.2567384224385014 106.66801563277841 48.543435346335173 1.649095334112644 2.7158801555633545
leaf_count=2451 38 2182 858 204 6879 3404 1422 2243 528 174 4655 4950 202 253 93 74 328 230 56 127 1443 41 1210 1118 333 203 4033 962 35 58
internal_value=4.56345e-05 -0.00668386 0.0014107 0.0170946 -0.0172791 0.00803163 0.000149897 0.0153859 -0.019471 -0.0117774 -0.0114736 -0.00738196 0.00209506 0.0351891 -0.00538209 0.0307469 0.021134 0.0392416 0.0545656 0.0430421 0.0101615 0.00920461 0.0162874 0.00394459 -0.0139986 0.0203851 -0.0104144 0.0351412 0.0658081 0.0212561
internal_weight=1189.71 853.241 483.926 336.473 369.315 310.704 150.794 159.91 47.9979 38.3762 262.544 174.766 66.3357 11.6657 54.67 111.923 54.418 57.5049 35.2557 35.336 224.55 220.566 92.698 127.868 61.0655 66.8025 173.222 55.1005 6.55709 4.36498
internal_count=40787 34327 15113 6460 19214 8629 5528 3101 2124 1596 12335 7680 2730 455 2275 1019 529 490 286 201 5441 5403 2306 3097 1776 1321 6484 1096 134 93
is_linear=0
shrinkage=0.05


Tree=24
num_leaves=31
num_cat=0
split_feature=15 1 1 0 16 16 16 0 0 16 15 16 0 0 0 16 16 0 0 15 16 0 15 2 15 15 0 0 0 0
split_gain=29.0527 39.687 29.6784 18.2846 15.5421 13.2272 9.46673 7.53645 5.9891 5.59836 5.4535 5.80782 6.0394 5.26109 7.20401 4.94183 5.74587 4.76463 5.74398 5.39104 4.99959 5.47151 4.11993 3.97157 3.95138 3.86433 6.27214 10.1039 4.43728 5.82425
threshold=64.450000000000017 1.0000000180025095e-35 1.0000000180025095e-35 46.500000000000007 43.050000000000004 36.150000000000013 103.45000000000002 46.500000000000007 186.50000000000003 66.15000000000002 1.0000000180025095e-35 19.150000000000002 22.500000000000004 347.50000000000006 340.50000000000006 79.850000000000009 74.950000000000017 398.50000000000006 380.50000000000006 39.900000000000006 68.550000000000011 364.00000000000006 19.250000000000004 1.0000000180025095e-35 76.250000000000014 19.250000000000004 154.00000000000003 222.50000000000003 234.50000000000003 241.50000000000003
decision_type=2 2 2 2 2 2 2 2 2 2 2 2 2 2 2 2 2 2 2 2 2 2 2 2 2 2 2 2 2 2
left_child=2 6 4 -4 10 -5 8 -3 -2 -7 -1 -12 22 14 25 16 -9 18 20 -19 21 -6 -13 -22 -17 26 -14 -28 -27 -30
right_child=1 7 3 5 17 9 -8 15 -10 -11 11 12 13 -15 -16 24 -18 19 -20 -21 23 -23 -24 -25 -26 28 27 -29 29 -31
leaf_value=0.00046119122201949736 -0.0040712152769593751 0.01143672361529535 -0.026534442526108828 -0.02137196780605554 0.012023174535860116 0.007364821987979742 -0.035218244688217576 -0.0016213530943698555 -0.022162682274089223 0.036620579020344018 0.046971479638844432 -0.00072245810937896231 -0.022713734578557136 0.035121581719251789 -0.03445081498843882 -0.037471749707837586 0.032426348078347156 0.030101309275499123 0.059865462408745941 -0.041624520795221089 -0.033477854601036215 -0.035799734773222958 0.06364822488177091 0.0079995223656098517 -0.0056577315903139878 0.0022701802451439153 0.1123560613014381 0.014616739815530432 0.068333709956739208 0.016431459796370517
leaf_weight=21.040585987269878 77.068525778129697 169.07339313440025 75.277283355593681 32.68401519022882 96.201667575165629 59.146976951509714 85.27377749606967 37.534778539091349 116.41148109175265 22.354146260768175 32.588960282504559 2.8118510097265235 2.3783760219812384 42.161950930953026 6.1953896656632415 9.7720021437853557 17.253429571166635 2.5946504641324273 3.887217314913868 9.6334397504106146 12.97458260320127 5.3691130820661774 12.948191802948712 9.010489858686924 122.67702859826386 46.650931408628821 3.9524254873394948 6.7427546270191669 5.6279043145477763 40.071919769048691
leaf_count=718 3207 5694 2655 858 2710 1799 5358 1154 5898 546 229 46 36 476 82 376 486 62 111 391 468 138 273 350 5134 806 37 53 70 566
internal_value=4.87261e-05 -0.00723556 0.00843149 -0.00756398 0.0167953 0.00502079 -0.0213345 0.00380934 -0.01504 0.0157963 0.0249576 0.0274681 0.0234364 0.0201048 0.0141267 -0.00307571 0.00940008 0.00363307 0.00658249 -0.0249022 0.00439883 0.00912209 0.0525072 -0.0166525 -0.00830562 0.0173253 0.0421268 0.0576826 0.013347 0.0242566
internal_weight=1187.37 635.064 552.305 189.462 362.842 114.185 278.754 356.311 193.48 81.5011 223.171 202.131 169.542 153.782 111.62 187.237 54.7882 139.671 127.443 12.2281 123.556 101.571 15.76 21.9851 132.449 105.424 13.0736 10.6952 92.3508 45.6998
internal_count=40787 27307 13480 5858 7622 3203 14463 12844 9105 2345 3392 2674 2445 2126 1650 7150 1640 4230 3777 453 3666 2848 319 818 5510 1568 126 90 1442 636
is_linear=0
shrinkage=0.05


Tree=25
num_leaves=31
num_cat=0
split_feature=17 16 0 17 0 15 0 15 0 16 15 0 15 16 0 15 0 16 15 16 17 0 0 0 17 16 0 15 0 0
split_gain=48.1663 25.3178 13.2048 10.8643 10.6254 6.85949 4.48313 4.10324 4.99144 3.01884 4.85189 10.9095 5.64536 3.04099 8.19301 5.725 2.97683 14.2863 6.98934 5.17445 6.26956 4.34633 3.99484 5.13093 5.65239 3.34754 2.81011 4.07213 3.32397 6.80063
threshold=1.0000000180025095e-35 80.15000000000002 77.500000000000014 2.5000000000000004 186.50000000000003 63.900000000000006 347.50000000000006 67.250000000000014 290.00000000000006 110.05000000000001 115.10000000000001 52.500000000000007 124.90000000000002 108.45000000000002 57.500000000000007 109.45000000000002 93.500000000000014 40.750000000000007 45.650000000000013 80.15000000000002 3.5000000000000004 183.00000000000003 29.500000000000004 17.500000000000004 4.5000000000000009 105.05000000000001 10.500000000000002 66.100000000000009 60.500000000000007 58.500000000000007
decision_type=2 2 2 2 2 2 2 2 2 2 2 2 2 2 2 2 2 2 2 2 2 2 2 2 2 2 2 2 2 2
left_child=1 2 26 -2 9 -4 -7 8 -6 10 13 12 -12 -3 15 -15 18 21 -5 20 -20 -18 23 24 -21 -24 -1 -28 29 -29
right_child=3 4 5 16 7 6 -8 -9 -10 -11 11 -13 -14 14 -16 -17 17 -19 19 22 -22 -23 25 -25 -26 -27 27 28 -30 -31
leaf_value=-0.0018419335625567126 0.0094819858905789926 -0.011487703504880004 0.01144933408129893 0.011136939793542393 0.056297443057490938 -0.00081047204692849366 -0.036058710046885378 -0.032259113721918371 -0.032806167673425216 -0.018586944461752197 0.071596064888959685 -0.021819106242227632 -0.003562396258128488 0.10065808630419167 -0.035306688104143662 -0.021143466466360242 0.006687751109888152 -0.014675342032574685 0.012558910860726184 0.053922918947550628 0.089110155224247048 0.047397576539068099 -0.011036620728442033 0.1023612680443711 -0.021855860725529874 0.040164362304042196 -0.022107347612586467 -0.00088832765329307497 -0.030860306199783374 0.084168017679361176
leaf_weight=66.523348025977612 226.48980318382382 147.7389788236469 235.74587930180132 19.419713631272316 2.2247246522456399 69.210719548165798 9.439779903739689 96.625299805775285 2.0881043467670679 85.638031669892371 7.0883992481976765 9.440940357744692 3.3052693083882332 2.2633497305214401 2.5557284560054541 0.85985527560114849 9.4109910316765291 19.276854300871491 4.0789660960435858 5.2771959565579909 11.438642047345636 27.2043242380023 7.4158417023718339 2.6875419393181792 3.216213446110487 4.1306192725896835 69.020270282402635 27.841921109706167 6.6096879951655856 1.5545963458716858
leaf_count=2451 5441 6636 5481 181 119 2638 510 6639 121 4655 243 439 121 84 126 31 78 337 41 47 72 127 57 18 24 37 2654 1073 249 57
internal_value=4.50483e-05 -0.00634059 0.00109756 0.0159143 -0.0163748 0.00718852 -0.0055034 -0.0301072 0.014161 -0.0109063 -0.00699619 0.0156446 0.0490413 -0.010038 0.0230003 0.068917 0.0285052 0.0194908 0.0366761 0.0489025 0.0712691 0.0375231 0.0310604 0.0512109 0.0254214 0.0086228 -0.0100132 -0.0150755 -0.00122799 0.00606629
internal_weight=1185.82 845.775 485.946 340.047 359.829 314.396 78.6505 100.938 4.31283 258.891 173.253 19.8346 10.3937 153.418 5.67893 3.12321 113.557 55.8922 57.6647 38.245 15.5176 36.6153 22.7274 11.181 8.49341 11.5465 171.55 105.026 36.0062 29.3965
internal_count=40787 34327 15113 6460 19214 8629 3148 6879 240 12335 7680 803 364 6877 241 115 1019 542 477 296 113 205 183 89 71 94 6484 4033 1379 1130
is_linear=0
shrinkage=0.05


Tree=26
num_leaves=31
num_cat=0
split_feature=17 15 0 0 17 0 0 15 0 0 15 0 15 15 0 3 0 15 15 17 15 15 15 15 0 15 0 15 17 15
split_gain=43.4562 21.9516 16.6076 12.979 9.77618 5.17652 2.97706 4.41397 4.99158 3.07572 2.91391 2.77301 2.76299 2.6164 9.20314 2.7565 2.58929 14.8586 7.39362 3.74621 2.80965 3.97238 2.55129 5.05467 3.80573 3.65375 2.59881 2.43132 2.39173 2.38769
threshold=1.0000000180025095e-35 63.900000000000006 62.000000000000007 290.00000000000006 2.5000000000000004 12.500000000000002 60.500000000000007 112.25000000000001 269.50000000000006 53.500000000000007 130.25000000000003 38.500000000000007 32.45000000000001 17.900000000000002 175.00000000000003 1.0000000180025095e-35 100.50000000000001 51.900000000000006 42.100000000000009 5.5000000000000009 34.100000000000009 23.450000000000003 106.25000000000001 107.10000000000001 96.500000000000014 94.250000000000014 73.500000000000014 110.25000000000001 3.5000000000000004 66.90000000000002
decision_type=2 2 2 2 2 2 2 2 2 2 2 2 2 2 2 2 2 2 2 2 2 2 2 2 2 2 2 2 2 2
left_child=1 2 5 6 -2 -1 9 22 -9 11 -10 -3 -7 14 15 -4 18 -18 20 -20 21 28 25 24 -24 26 -8 -25 -6 -21
right_child=4 3 13 -5 16 12 7 8 10 -11 -12 -13 -14 -15 -16 -17 17 -19 19 29 -22 -23 23 27 -26 -27 -28 -29 -30 -31
leaf_value=-0.0025850595113885307 0.0089329773281486644 -0.0044024039728373671 -0.039459586566236028 -0.033845595397716692 0.033979034392136474 -0.0052281361057814005 -0.033313886549345161 -0.029963408705071866 0.051416606594467666 0.015474414155954165 -0.024722924288137878 -0.021793333877447876 -0.032106187979530514 0.0084221397523563651 0.051367552871702173 0.0091206573949496102 0.034131034179449758 -0.022665278143702977 0.033688008119244391 0.096323467300559407 -0.030028880565371469 0.046973960008647661 -0.017559158147100459 -0.01976547970967435 0.089685526675157945 -0.025274558451788845 -0.0046580201392371718 0.019987272757383778 -0.01565429563735803 0.040053638556855307
leaf_weight=55.238814665004611 228.39991289190948 154.91906592901796 3.5482761953026074 64.233641760423779 2.2997275590896633 14.153802726417778 7.7213452514260998 51.816200253553689 2.3842215221375223 15.440899964421986 1.1436441745609043 26.418503986671567 35.826678153127432 229.83980998396873 13.691593680530785 7.1135630402714014 39.811949539929628 15.130812577903269 28.721913270652294 5.1973244249820691 3.0303059667348853 5.5280644074082366 0.67164972983300986 8.807533195242284 1.8160329246893523 36.151845752261579 104.27502305060625 5.2864685282111159 8.0768843442201597 7.1142228245735168
leaf_count=2007 5441 6723 105 4323 27 475 336 3078 166 694 83 1201 1498 5698 111 209 235 294 245 30 29 48 31 495 107 1979 4709 299 70 41
internal_value=4.89259e-05 -0.0060695 0.00326402 -0.0130451 0.0150168 -0.0133401 -0.00975464 -0.0137576 -0.0259397 -0.00520555 0.0256209 -0.00706908 -0.0248446 0.0101819 0.025606 -0.00861546 0.0268846 0.0182748 0.0342616 0.0459925 0.00755721 0.016367 -0.00950286 0.0085318 0.0625644 -0.0115986 -0.00695522 -0.00418718 -0.00219491 0.0696352
internal_weight=1183.81 840.499 359.413 481.086 343.311 105.219 416.852 220.074 55.3441 196.778 3.52787 181.338 49.9805 254.193 24.3534 10.6618 114.911 54.9428 59.9684 41.0335 18.935 15.9047 164.73 16.5817 2.48768 148.148 111.996 14.094 10.3766 12.3115
internal_count=40787 34327 10103 24224 6460 3980 19901 11283 3327 8618 249 7924 1973 6123 425 314 1019 529 490 316 174 145 7956 932 138 7024 5045 794 97 71
is_linear=0
shrinkage=0.05


Tree=27
num_leaves=31
num_cat=0
split_feature=17 15 0 0 17 15 0 0 15 15 0 15 0 0 15 15 0 15 15 15 0 0 15 15 15 15 0 15 15 0
split_gain=39.1812 20.1446 13.7323 13.0281 8.7418 5.99337 4.43164 4.34841 3.92674 4.01924 3.47048 3.12749 7.37667 3.94697 3.19253 4.12227 3.68151 2.87172 2.77893 4.77452 2.75665 2.38122 3.30478 2.51682 2.5998 2.36405 2.37713 9.30326 7.45541 3.70283
threshold=1.0000000180025095e-35 59.650000000000013 344.00000000000006 111.50000000000001 2.5000000000000004 59.100000000000009 183.00000000000003 66.500000000000014 85.100000000000009 82.250000000000014 233.00000000000003 17.900000000000002 175.00000000000003 161.50000000000003 50.70000000000001 58.100000000000009 154.00000000000003 77.100000000000009 153.45000000000002 151.90000000000003 216.50000000000003 172.00000000000003 72.550000000000011 82.250000000000014 91.90000000000002 112.25000000000001 93.500000000000014 56.900000000000006 45.650000000000013 177.50000000000003
decision_type=2 2 2 2 2 2 2 2 2 2 2 2 2 2 2 2 2 2 2 2 2 2 2 2 2 2 2 2 2 2
left_child=1 3 6 5 -2 -1 18 -7 9 17 -11 12 -5 14 16 -16 -13 -8 19 21 -15 -3 -23 -24 -25 26 28 29 -6 -28
right_child=4 2 -4 11 25 7 8 -9 -10 10 -12 13 -14 20 15 -17 -18 -19 -20 -21 -22 22 23 24 -26 -27 27 -29 -30 -31
leaf_value=-0.0095519663867760576 0.0084199895836555971 -0.0075141566152070113 -0.040475047767762604 -0.027642519143706482 0.010026345196318776 -0.0040514812438129464 -0.0046925348188111586 0.11038282811056593 -0.026713686636394163 -0.025852711850501059 0.051976734374756278 0.004919282980536119 0.047474687596967907 -0.0059352120673153083 0.070894699783230014 -0.010611592604018692 0.066801134633238071 -0.035681134240900692 -0.037029145417828591 0.070119949446044882 0.010375367615425951 -0.025913499170914109 0.062234161396159074 -0.031658642322840151 0.024522290921258717 0.0013456861163859907 0.0042589485788599082 -0.019900632206922279 0.049783345859511406 0.038325933628104165
leaf_weight=132.24081199802458 230.21232560276985 343.23450283892453 38.316357190720737 3.3627809360623386 19.690270751714706 1.250343278050422 31.375737518072128 0.82857155799865712 61.621752373874187 1.2298735547810782 3.8173705525696278 16.402743062004454 14.143371537327765 32.178470768034458 5.8704815302044144 1.5680437199771402 1.9110586829483498 9.2110899798572046 6.6135408058762541 1.0313232988119114 115.47490492183715 3.1496338946744791 2.4897813722491255 1.8715020958334188 6.2364459615200758 9.9727648235857469 11.361963532865046 11.115043202415107 32.473504856228828 31.72627817466855
leaf_count=4739 5441 15240 2626 95 181 52 1455 22 4291 71 214 393 111 746 138 37 43 525 369 57 2435 111 107 85 365 126 95 219 232 166
internal_value=4.51546e-05 -0.0058138 -0.0120064 0.0038923 0.0141598 -0.007981 -0.00960345 0.0609714 -0.0185337 -0.00704473 0.031046 0.0122701 0.0320612 0.0100711 0.0278443 0.0538992 0.01476 -0.0125344 -0.00691941 -0.00624767 0.00677111 -0.00667753 0.0129649 0.0261887 0.00895332 0.0253064 0.0274729 0.0193071 0.0353412 0.0297566
internal_weight=1181.98 835.43 510.199 325.232 346.552 134.32 471.883 2.07891 107.256 45.6341 5.04724 190.912 17.5062 173.406 25.7523 7.43853 18.3138 40.5868 364.627 358.013 147.653 356.982 13.7474 10.5977 8.10795 116.34 106.367 54.2033 52.1638 43.0882
internal_count=40787 34327 25516 8811 6460 4813 22890 74 6556 2265 285 3998 206 3792 611 175 436 1980 16334 15965 3181 15908 668 557 450 1019 893 480 413 261
is_linear=0
shrinkage=0.05


Tree=28
num_leaves=31
num_cat=0
split_feature=17 15 0 0 17 0 4 0 15 15 4 15 15 0 0 15 0 15 0 0 15 15 0 0 0 0 15 0 0 0
split_gain=35.2207 18.6461 14.0323 11.9169 7.77637 4.92471 3.82096 5.35241 6.0387 2.68382 2.33445 10.1965 2.24483 2.47361 2.71323 2.05172 6.95766 2.26655 7.94944 5.23421 2.91542 4.25296 6.86692 3.32411 4.80417 2.5738 2.54716 9.8195 3.73294 2.44786
threshold=1.0000000180025095e-35 63.900000000000006 62.000000000000007 290.00000000000006 2.5000000000000004 12.500000000000002 1.0000000180025095e-35 43.000000000000007 123.10000000000001 32.45000000000001 1.0000000180025095e-35 48.250000000000007 28.250000000000004 23.500000000000004 51.500000000000007 17.900000000000002 175.00000000000003 61.900000000000006 164.00000000000003 93.500000000000014 59.650000000000013 56.45000000000001 290.00000000000006 111.50000000000001 86.500000000000014 83.000000000000014 58.100000000000009 106.50000000000001 129.00000000000003 79.000000000000014
decision_type=2 2 2 2 2 2 2 2 2 2 2 2 2 2 2 2 2 2 2 2 2 2 2 2 2 2 2 2 2 2
left_child=1 2 5 6 -2 -1 7 -3 -9 12 -6 -12 -7 -14 -15 16 -4 20 19 -19 21 23 26 24 25 -17 28 -28 29 -23
right_child=4 3 15 -5 10 9 -8 8 -10 -11 11 -13 13 14 -16 17 -18 18 -20 -21 -22 22 -24 -25 -26 -27 27 -29 -30 -31
leaf_value=-0.0020247862746182676 0.0079401848777421371 0.00081560091560096092 -0.0077599968029583612 -0.032720954701299459 0.020902619215673206 -0.016389411672653457 -0.024939616860811177 -0.0084065063662532771 -0.030462634960869508 -0.031312418825019395 0.079373454210885652 -0.0078504047899847443 -0.02353445351010908 0.070769893432402184 -0.017543471005273797 -0.00094333759645774489 0.044000707073153233 0 -0.0090953474966238949 0.1000497260711008 -0.016523192541452379 0.056429699461640087 -0.021445831164887699 0.0083763376884535747 -0.027705610256461455 0.044996603002184832 0.097606777564092501 -0.017956810743066567 0.089300390489964937 -0.01695470154807386
leaf_weight=54.624128736555576 231.93216845206916 127.4810836808756 10.446804558858277 60.334909586235881 105.29599562473595 10.439102282747625 33.820273952558637 212.07709524501115 36.040978138335049 34.452233532443643 7.2035347670316678 5.2212695442140102 1.0268949214369052 1.8330835122615101 0.66174955666065205 10.993698202073576 14.564633596688507 1.9160331301391105 6.2352117104455829 3.2504511885344982 11.988546934910117 0.81992976740002843 4.2048053229227653 160.74767708033323 15.836308017373083 3.0967938620597115 1.6534244064241645 5.0953796580433846 4.6404204852879047 2.0429361537098885
leaf_count=2007 5441 5306 314 4323 927 339 1885 10485 2225 1498 40 52 43 69 24 397 111 62 249 85 412 28 163 3337 481 92 46 157 135 54
internal_value=4.90745e-05 -0.00555227 0.00298535 -0.0121085 0.0133428 -0.0125105 -0.00898645 -0.00747429 -0.0117398 -0.0239599 0.0237883 0.0444925 -0.00460121 0.0251325 0.0475972 0.0092289 0.0227218 0.00766502 0.0286593 0.0691205 0.00643582 0.00784812 0.030206 0.00551154 -0.00948797 0.0111347 0.0461797 0.018653 0.0652451 0.0119357
internal_weight=1179.98 830.325 360.57 469.754 349.653 103.037 409.419 375.599 248.118 48.4131 117.721 12.4248 13.9608 3.52173 2.49483 257.533 25.0114 232.522 11.4017 5.16648 221.12 209.131 18.4569 190.674 29.9268 14.0905 14.2521 6.7488 7.50329 2.86287
internal_count=40787 34327 10103 24224 6460 3980 19901 18016 12710 1973 1019 92 475 136 93 6123 425 5698 396 147 5302 4890 583 4307 970 489 420 203 217 82
is_linear=0
shrinkage=0.05


Tree=29
num_leaves=31
num_cat=0
split_feature=17 16 0 0 17 15 15 16 15 0 0 0 15 0 0 16 16 4 16 15 16 15 15 16 16 15 0 15 15 0
