tree
version=v4
num_class=1
num_tree_per_iteration=1
label_index=0
max_feature_idx=29
objective=regression
feature_names=is_sprint is_mountain is_hilly is_tt co_mtn co_spr co_hll co_itt co_cob co_gc spec_climber spec_sprint spec_tt spec_hills form_overall form_sprint form_mountain form_hilly form_tt gt_form_5 gt_form_10 gt_wins_so_far xrace_form_10 xrace_top3_rate_10 xrace_top10_rate_10 startlist_quality sprint_co_spr sprint_spec sprint_xrace_top3 mtn_co_mtn
feature_infos=[0:1] [0:1] [0:1] [0:1] [-1:99] [-1:99] [-1:99] [-1:99] [-1:99] [-1:98] [-1:9989] [-1:6628] [-1:6230] [-1:7788] [-1:80.200000000000003] [-1:62.899999999999999] [-1:80.200000000000003] [-1:44.600000000000001] [-1:73.700000000000003] [1:184] [1:184] [0:6] [1:182] [0:1] [0:1] [1:2.0249999999999999] [-1:99] [-1:6628] [0:1] [-1:99]
tree_sizes=4256 4499 4481 4492 4516 4520 4517 4520 4494 4533 4519 4524 4520 4504 4528 4522 4521 4490 4554 4482 4522 4504 4503 4505 4532 4521 4518 4532 4523 4516 4506 4502 4536 4520 4531 4493 4512 4487 4507 4477 4499 4521 4507 4557 4516 4501 4528 4522 4500 4500 4519 4519 4483 4514 4521 4545 4546 4536 4512 4526 4537 4544 4559 4537 4505 4563 4518 4552 4538 4492 4504 4525 4546 4566 4543 4526 4550 4550 4540 4515 4486 4565 4519 4539 4544 4544 4515 4574 4525 4506 4561 4549 4538 4525 4550 4555 4523 4507 4576 4539 4457 4515 4549 4527 4520 4561 4507 4489 4522 4526 4507 4510 4469 4493 4492 4516 4473 4504 4522 4488 4494 4473 4469 4498 4447 4490 4456 4468 4491 4417 4504 4459 4530 4430 4481 4423 4430 4511 4434 4518 4498 4526 4519 4510 4457 4472 4460 4429 4464 4478 4542 4387 4409 4516 4430 4409 4524 4456 4382 4450 4522 4375 4420 4378 4371 4369 4439 4387 4340 4428 4362 4484 4447 4454 4494 4332 4347 4300 4305 4350 4501 4374 4330 4425 4431 4343 4286 4475 4326 4373 4346 4340 4355 4374 4429 4507 4305 4325 4319 4348 4386 4421 4444 4340 4406 4426 4347 4379 4356 4447 4427 4278 4385 4294 4394 4459 4412 4358 4408 4311 4447 4349 4492 4285 4354 4304 4432 4360 4349 4375 4399 4378 4340 4447 4318 4340 4458 4354 4346 4311 4351 4327 4379 4419 4386 4309 4286 4427 4406 4348 4402 4396 4369 4298 4337 4338 4308 4337 4355 4379 4366 4321 4389 4304 4327 4390 4358 4344 4408 4499 4333 4343 4337 4331 4307 4321 4336 4380 4401 4308 4359 4362 4424 4335 4435 4316 4358 4339 4344 4394 4340 4396 4347 4332 4358 4326 4392 4373 4351 4385 4353 4316 4419 4407 4380 4378 4366 4376 4351 4369 4326 4326 4366 4445 4422 4354 4318 4327 4427 4333 4361 4331 4410 4346 4313 4399 4345 4278 4290 4458 4360 4301 4338 4395 4377 4308 4374 4386 4402 4331 4317 4406 4353 4368 4369 4442 4463 4445 4311 4320 4306 4277 4341 4334 4376 4428 4434 4383 4353 4346 4362 4379 4374 4421 4301 4362 4506 4365 4365 4442 4295 4361 4328 4339 4296 4430 4275 4319 4319 4404 4359 4422 4356 4307 4367 4318 4438 4449 4341 4414 4306 4399 4361 4244 4433 4404 4330 4332 4382 4372 4318 4382 4402 4386 4332 4371 4371 4389 4473 4320 4277 4416 4312 4353 4331 4359 4441 4371 4324 4326 4339 4311 4321 4351 4426 4358 4364 4425 4344 4474 4385 4357 4337 4355 4350 4329 4266 4359 4291 4305 4359 4361 4352 4339 4465 4341 4431 4359 4321 4341 4314 4335 4356 4255 4290 4419 4395 4355 4423 4365 4322 4440 4359 4307 4293 4287 4336 4409 4346 4444 4346 4297 4337 4421 4395 4434 4435 4342 4453 4335 4267 4331 4488 4363 4335 4377 4362 4370 4413 4381 4426 4446 4308 4358 4374 4313 4295 4386 4299 4307 4332 4314 4348 4361 4360 4466 4300 4354 4413 4319 4343 4347 4343 4286 4382 4372 4377 4343 4361 4236 4354 4359 4417 4370 4355 4320 4443 4277 4309 4328 4392 4365 4332 4344 4372 4339 4332 4314 4332 4344 4318 4418 4343 4374 4354 4338 4372 4320 4347 4348 4385 4345 4300 4384 4360 4386 4311 4359 4359 4364 4340 4379 4420 4444 4308 4334 4305 4357 4431 4306 4344 4349 4294 4378 4358 4351 4308 4357 4313 4333 4411 4340 4338 4306 4369 4336 4362 4331 4345 4353 4296 4366 4278 4383 4392 4422 4349 4332 4339 4384 4362 4376 4329 4333 4338 4357 4355 4311 4286 4390 4326 4389 4347 4305 4302 4424 4314 4305 4357 4248 4351 4352 4334 4403 4366 4324 4296 4361 4326 4386 4322 4340 4285 4365 4386 4347 4360 4339 4422 4343 4344 4306 4397 4287 4435 4327 4306 4353 4268 4392 4395 4461 4303 4345 4343 4401 4303 4328 4310 4365 4329 4282 4311 4335 4280 4304 4329 4356 4452 4391 4431 4307 4239 4383 4370 4373 4360 4355 4390 4221 4330 4302 4306 4298 4390 4380 4357 4300 4339 4232 4334 4288 4291 4307 4333 4364 4253 4330 4335 4272 4384 4257 4301 4321 4307 4341 4376 4312 4267 4296 4401 4328 4274 4368 4289 4289 4280 4372 4295 4316 4341 4363 4292 4313 4333 4324 4406 4360 4322 4293 4330 4399 4349 4274 4396 4370 4372 4366 4350 4310 4307 4305 4305 4344 4354 4395 4267 4269 4364 4364 4275 4409 4284 4308 4277 4407 4336 4318 4307 4293 4306 4274 4346 4381 4364 4365 4253 4397 4326 4326 4288 4355 4295 4221 4275 4359 4235 4299 4322 4296 4346 4398 4321 4328 4387 4291 4407 4328 4279 4316 4337 4282 4260 4371 4333 4440 4348 4338 4302 4324

Tree=0
num_leaves=47
num_cat=0
split_feature=20 20 19 26 4 4 4 4 0 26 20 0 4 4 4 23 8 4 26 26 8 26 4 0 19 8 4 19 4 26 23 14 0 20 7 4 1 23 23 1 6 16 23 19 20 15
split_gain=992.379 212.152 132.604 77.8365 69.6104 45.515 39.0297 32.8338 30.2826 29.0738 17.2502 16.938 16.0049 17.4718 13.9796 11.3323 11.3126 12.6208 16.0081 10.6998 9.76641 11.0475 18.2546 9.76498 9.6858 8.54722 10.31 7.93523 7.93174 7.85044 7.62129 7.45108 6.95271 6.37523 6.13887 6.02786 5.87161 5.3202 5.09912 4.92888 4.83878 4.50546 4.48648 4.44381 3.91068 3.90671
threshold=69.550000000000011 95.15000000000002 42.45000000000001 61.500000000000007 42.500000000000007 74.500000000000014 42.500000000000007 58.500000000000007 1.0000000180025095e-35 61.500000000000007 121.05000000000001 1.0000000180025095e-35 1.0000000180025095e-35 29.500000000000004 80.500000000000014 1.0000000180025095e-35 27.500000000000004 47.500000000000007 39.500000000000007 34.500000000000007 23.500000000000004 49.500000000000007 34.500000000000007 1.0000000180025095e-35 85.100000000000009 28.500000000000004 30.500000000000004 120.10000000000001 80.500000000000014 86.500000000000014 0.29285000000000005 0.25000000000000006 1.0000000180025095e-35 78.050000000000011 34.500000000000007 74.500000000000014 1.0000000180025095e-35 inf 0.18335000000000004 1.0000000180025095e-35 69.500000000000014 1.0000000180025095e-35 1.0000000180025095e-35 31.550000000000004 60.850000000000001 1.7500000000000002
decision_type=8 10 10 2 2 2 2 2 2 2 10 2 2 2 2 10 2 2 2 2 2 2 2 2 8 2 2 8 2 2 10 2 2 10 2 2 2 8 10 2 2 2 10 10 10 2
left_child=2 4 5 6 9 16 10 20 -7 12 25 28 15 -14 30 24 32 18 -18 -16 41 22 -22 35 -2 -3 39 -21 -9 -5 33 -26 37 34 -6 -8 42 43 -15 -27 -11 44 -12 -1 -4 -24
right_child=1 3 7 29 14 8 23 11 -10 40 36 -13 13 38 19 -17 17 -19 -20 27 21 -23 45 -25 31 26 -28 -29 -30 -31 -32 -33 -34 -35 -36 -37 -38 -39 -40 -41 -42 -43 -44 -45 -46 -47
leaf_value=0.50959589223209512 0.50043801462020077 0.49680636809214218 0.50358880254628025 0.50033761501467799 0.50130365550778599 0.51177031222675839 0.49873617164166745 0.50564611872083165 0.50720810364356572 0.50171464860424242 0.49474579199679702 0.50346523659611819 0.495465716392823 0.49858513649919062 0.50639213793360571 0.50396244230416376 0.49951023350648632 0.50651591198012402 0.5061158939314071 0.49946301749100508 0.49695465518499643 0.50394079054801821 0.50248340114393364 0.49690844157543601 0.49803025532752115 0.49492760189022739 0.49675302280896361 0.50543847552596399 0.50888043794008009 0.50375715825662715 0.50956232011414759 0.50245756696720578 0.50568339664883766 0.50074217669376608 0.50350900240252439 0.50202626092495251 0.49301070256450097 0.50240517934958406 0.50579911302475744 0.49204856920127749 0.505104166385414 0.50493167036957287 0.49919869314424126 0.50704966117144712 0.50182950884290478 0.49915939162378331
leaf_weight=1253 3674 8006 2759 1567 2334 2918 2832 1702 2395 1186 5658 2228 2279 4020 1143 492 740 1426 594 488 925 1146 1937 2714 4323 1343 1918 337 1158 981 109 370 2134 4025 2221 607 1997 147 89 919 559 1191 214 1276 1949 379
leaf_count=1253 3674 8006 2759 1567 2334 2918 2832 1702 2395 1186 5658 2228 2279 4020 1143 492 740 1426 594 488 925 1146 1937 2714 4323 1343 1918 337 1158 981 109 370 2134 4025 2221 607 1997 147 89 919 559 1191 214 1276 1949 379
internal_value=0.500752 0.498453 0.505341 0.496649 0.50033 0.507586 0.496163 0.503459 0.509716 0.499138 0.495521 0.505431 0.498718 0.497573 0.50223 0.499544 0.50609 0.504554 0.502451 0.504513 0.502483 0.50141 0.500516 0.498254 0.499283 0.49623 0.495128 0.501903 0.506959 0.501654 0.501713 0.49838 0.50697 0.501611 0.50238 0.499318 0.494425 0.507993 0.498743 0.493753 0.502804 0.503281 0.494907 0.508315 0.502862 0.501938
internal_weight=84662 56405 28257 28756 27649 12883 26208 15374 5313 16992 20055 5088 15247 6388 10657 8859 7570 2760 1334 1968 10286 4387 3241 6153 8367 12186 4180 825 2860 2548 8689 4693 4810 8580 4555 3439 7869 2676 4109 2262 1745 5899 5872 2529 4708 2316
internal_count=84662 56405 28257 28756 27649 12883 26208 15374 5313 16992 20055 5088 15247 6388 10657 8859 7570 2760 1334 1968 10286 4387 3241 6153 8367 12186 4180 825 2860 2548 8689 4693 4810 8580 4555 3439 7869 2676 4109 2262 1745 5899 5872 2529 4708 2316
is_linear=0
shrinkage=1


Tree=1
num_leaves=47
num_cat=0
split_feature=22 19 22 22 19 22 22 19 19 26 19 26 19 19 0 22 22 0 26 9 9 9 9 5 22 22 26 19 0 19 22 19 19 22 9 0 19 27 5 0 5 5 9 19 0 8
split_gain=1318.32 232.913 221.582 78.3346 69.1423 58.0891 32.2851 22.1 19.6585 16.7186 15.9585 13.0241 12.6633 11.6227 11.0343 10.8566 10.2862 10.1008 9.8069 7.31088 6.13911 5.8896 5.1404 5.07287 4.85531 4.61886 4.47149 4.46984 4.45934 4.25066 4.24229 4.23003 4.0292 3.99809 3.23959 3.1873 3.1103 3.05727 3.02969 2.94765 2.81953 2.70129 2.42169 2.33332 2.28299 2.21687
threshold=76.250000000000014 51.900000000000006 105.05000000000001 52.550000000000004 72.100000000000009 34.95000000000001 125.05000000000001 97.100000000000009 83.100000000000009 55.500000000000007 68.250000000000014 73.500000000000014 75.65000000000002 42.45000000000001 1.0000000180025095e-35 57.850000000000001 26.550000000000004 1.0000000180025095e-35 51.500000000000007 50.500000000000007 61.500000000000007 78.000000000000014 39.500000000000007 88.500000000000014 85.950000000000017 31.950000000000003 61.500000000000007 29.100000000000005 1.0000000180025095e-35 116.55000000000001 66.750000000000014 104.55000000000001 98.550000000000011 90.15000000000002 63.500000000000007 1.0000000180025095e-35 38.45000000000001 -1.0000000180025095e-35 86.500000000000014 1.0000000180025095e-35 83.500000000000014 75.500000000000014 38.500000000000007 88.100000000000009 1.0000000180025095e-35 28.500000000000004
decision_type=8 8 10 10 8 10 10 10 10 2 10 2 8 10 2 10 10 2 2 2 2 2 2 2 10 10 2 10 2 10 10 10 10 8 2 2 10 2 2 2 2 2 2 10 2 2
left_child=1 5 4 10 13 14 12 19 30 29 16 32 28 20 21 27 39 22 31 26 -2 -1 -8 24 -15 37 33 44 41 -9 -5 45 -10 -6 -18 -29 -17 -12 -11 -3 -24 42 -4 -27 -7 -14
right_child=2 3 6 8 7 15 17 9 11 38 25 -13 18 23 -16 36 34 -19 -20 -21 -22 -23 40 -25 -26 43 -28 35 -30 -31 -32 -33 -34 -35 -36 -37 -38 -39 -40 -41 -42 -43 -44 -45 -46 -47
leaf_value=0.0091373247049994014 0.0017306864819119877 0.0089917244562220406 -0.0043356034453360436 0.00241718352938914 -0.0015187989289906238 0.0089647355435133608 -0.0092177873528101074 -0.0035452741033919453 7.8581929608018518e-05 -0.0013368890818622426 0.0015041753054291611 0.0034055820413567252 -0.0045659826749967257 0.0010442118877581881 0.0069828414044797536 0.0052044953022606366 0.004299689444558121 -0.0060346244563042597 -0.0018211850636694776 -0.00024995515609395726 0.0056998934451538983 0.01151242709006769 -0.005242454959650685 -0.0056527097878977649 -0.00080300494793424874 0.0033882882996682192 0.00048304566764794006 0.0067003017414798867 -0.0008005462052253381 -0.004851868852078123 0.0010493909403183367 -0.0064893303342244682 -0.0015241015646494185 -0.0028987368070524425 0.0062092647772555897 0.0049618578977301611 0.0033375029293093474 0.0054060803302061868 0.0020716209030608728 0.0042545658899984995 -0.0090582595102385519 -0.0062475271537529688 -0.00070442490469393125 0.001925835323930872 0.0068248352740805764 -0.0060512509839946455
leaf_weight=1770 1387 832 431 4949 3173 721 3516 4823 2491 1035 222 737 2383 2603 1073 1643 2821 1813 572 2281 471 2144 538 139 2518 1958 535 1941 633 4271 3494 4797 3247 4732 1143 1945 1618 1053 302 144 269 331 272 2011 1355 1525
leaf_count=1770 1387 832 431 4949 3173 721 3516 4823 2491 1035 222 737 2383 2603 1073 1643 2821 1813 572 2281 471 2144 538 139 2518 1958 535 1941 633 4271 3494 4797 3247 4732 1143 1945 1618 1053 302 144 269 331 272 2011 1355 1525
internal_value=0 0.00402078 -0.0034854 0.00228306 -0.00185516 0.00708988 -0.00618325 -0.00271582 0.000898019 -0.00369919 0.00431134 -0.000345141 -0.00520483 0.000701998 0.00969967 0.00567751 0.00553595 -0.0079267 -0.00563784 -0.00175852 0.00274101 0.0104417 -0.00871794 -1.80614e-05 0.000135369 0.00315632 -0.0021658 0.00644034 -0.00279138 -0.00415971 0.00185169 -0.00588804 -0.000827924 -0.00234548 0.00485249 0.00583246 0.00428038 0.00473075 -0.000563764 0.00830094 -0.00652774 -0.00400528 -0.00293791 0.00264872 0.00757343 -0.00514774
internal_weight=84662 39312 45350 25102 28270 14210 17080 21152 14918 10431 10184 6475 10944 7118 4987 9223 4940 6136 9277 10721 1858 3914 4323 5260 5121 5244 8440 5962 1667 9094 8443 8705 5738 7905 3964 3886 3261 1275 1337 976 807 1034 703 3969 2076 3908
internal_count=84662 39312 45350 25102 28270 14210 17080 21152 14918 10431 10184 6475 10944 7118 4987 9223 4940 6136 9277 10721 1858 3914 4323 5260 5121 5244 8440 5962 1667 9094 8443 8705 5738 7905 3964 3886 3261 1275 1337 976 807 1034 703 3969 2076 3908
is_linear=0
shrinkage=0.03


Tree=2
num_leaves=47
num_cat=0
split_feature=20 20 9 26 4 19 0 4 26 5 5 20 5 0 9 23 19 4 8 26 19 20 0 4 0 5 0 23 5 0 19 20 4 23 23 16 20 19 4 4 23 9 19 20 5 5
split_gain=880.255 188.347 122.062 69.4646 62.5858 45.0962 38.2243 35.0154 25.9688 23.0463 22.2535 18.4656 14.5576 14.4317 14.0451 13.6176 11.6503 10.6437 12.2277 17.3314 10.1817 10.104 8.81201 8.42121 8.27335 7.862 7.79514 7.06078 7.04649 6.55766 6.20813 6.19296 5.43934 5.06126 4.78998 4.62023 4.61772 4.53809 4.13726 4.05663 4.01555 3.87518 3.62145 3.12609 3.07824 3.07115
threshold=69.550000000000011 95.15000000000002 68.500000000000014 61.500000000000007 42.500000000000007 43.750000000000007 1.0000000180025095e-35 42.500000000000007 61.500000000000007 66.500000000000014 68.500000000000014 114.95000000000002 48.500000000000007 1.0000000180025095e-35 70.500000000000014 1.0000000180025095e-35 45.100000000000009 48.500000000000007 28.500000000000004 36.500000000000007 80.100000000000009 41.45000000000001 1.0000000180025095e-35 47.500000000000007 1.0000000180025095e-35 67.500000000000014 1.0000000180025095e-35 0.29285000000000005 87.500000000000014 1.0000000180025095e-35 120.10000000000001 70.050000000000011 74.500000000000014 0.13395000000000004 inf 0.65000000000000002 78.050000000000011 34.900000000000006 89.500000000000014 34.500000000000007 1.0000000180025095e-35 37.500000000000007 132.10000000000002 60.250000000000007 68.500000000000014 89.500000000000014
decision_type=8 10 2 2 2 10 2 2 2 2 2 10 2 2 2 10 10 2 2 2 8 10 2 2 2 2 2 10 2 2 8 10 2 10 8 2 10 10 2 2 10 2 10 10 2 2
left_child=2 4 5 7 8 12 16 10 9 15 11 40 24 23 27 20 38 18 43 25 -2 -8 32 -14 34 39 -16 36 -5 -19 -28 -11 -9 42 37 -22 -6 -1 -4 -20 -3 -33 -13 -7 -21 -43
right_child=1 3 6 28 14 17 21 22 -10 31 -12 33 13 -15 26 -17 -18 29 19 44 35 -23 -24 -25 -26 -27 30 -29 -30 -31 -32 41 -34 -35 -36 -37 -38 -39 -40 -41 -42 45 -44 -45 -46 -47
leaf_value=0.0078157883778178644 -0.00047156060566755451 -0.003724907647859297 0.0088640282130908726 -0.00033806191617550792 0.0014234135954477953 0.0028055595438664632 0.0063101127341595288 -0.001885622895296411 0.0019376474224358316 -0.0018795249015237257 -0.0080831468616993363 -0.0050548026574769684 -0.0021205955786058541 0.0053531820351644891 0.0051535484975804161 0.0024520108985298878 0.0067721258389343295 0.0041617854488665597 -0.003066115391345884 0.001041011115838236 -0.00244086663204327 0.0029875986123004236 -0.0036219145043737489 0.0038199552867352882 0.0043201375464834652 -0.0045651452212729978 -0.00056701756319564405 0.0084116059968353824 0.0029318714380787841 0.0017904045998945683 0.0043932552988922872 -0.008402099859196311 0.0012396328716288399 0.0024103638217784465 0.0019250551329761589 0.0011168068248172266 1.3804892749792525e-05 0.0054788722254113745 0.011097464435082418 0.0010576153817924204 -0.00031878447180470757 -0.0036951926933245166 -0.0062411555523940983 0.0013278050621616535 0.0042075398516059678 -0.0075780346910133013
leaf_weight=1824 3956 8212 1286 1612 4431 2898 2328 2832 1745 392 1836 5436 621 826 1217 737 1229 2452 333 573 8505 1286 2714 327 2724 736 543 109 936 1849 388 467 607 71 192 340 3969 1313 1977 599 326 574 4174 2344 540 276
leaf_count=1824 3956 8212 1286 1612 4431 2898 2328 2832 1745 392 1836 5436 621 826 1217 737 1229 2452 333 573 8505 1286 2714 327 2724 736 543 109 936 1849 388 467 607 71 192 340 3969 1313 1977 599 326 574 4174 2344 540 276
internal_value=1.1585e-08 -0.00216508 0.00432188 -0.00386493 -0.000396995 0.00307081 0.00743084 -0.00432468 -0.0015274 -0.00192427 -0.00493223 -0.00461411 0.00485181 0.00245691 0.00140507 -0.00150931 0.00927988 0.00193914 0.00129272 -0.000314236 -0.00173779 0.00512982 -0.00234348 -6.64543e-05 0.00555269 -0.00224927 0.00357261 0.000857186 0.00086264 0.00314368 0.00149948 -0.00520683 -0.00133293 -0.0055119 0.00655873 -0.00230366 0.000757812 0.00684068 0.0102211 -0.000414269 -0.00359526 -0.00619274 -0.00557099 0.00214572 0.00258242 -0.00496692
internal_weight=84662 56405 28257 28756 27649 20151 8106 26208 16992 15247 20055 18219 7827 1774 10657 13538 4492 12324 8023 2781 12801 3614 6153 948 6053 1668 2148 8509 2548 4301 931 1709 3439 9681 3329 8845 8400 3137 3263 932 8538 1317 9610 5242 1113 850
internal_count=84662 56405 28257 28756 27649 20151 8106 26208 16992 15247 20055 18219 7827 1774 10657 13538 4492 12324 8023 2781 12801 3614 6153 948 6053 1668 2148 8509 2548 4301 931 1709 3439 9681 3329 8845 8400 3137 3263 932 8538 1317 9610 5242 1113 850
is_linear=0
shrinkage=0.03


Tree=3
num_leaves=47
num_cat=0
split_feature=20 20 9 24 24 24 9 0 5 26 5 20 3 20 20 26 24 20 5 6 6 9 9 20 26 29 29 24 29 24 5 20 6 29 29 29 20 26 16 29 25 9 5 16 24 5
split_gain=828.268 177.22 114.852 79.0028 75.0929 39.4438 35.9969 35.9659 35.3464 27.1096 23.8047 24.254 19.4818 17.6766 16.6811 11.965 11.0802 9.50593 9.17695 8.72875 8.65791 7.5223 6.83613 6.78223 6.44945 6.4464 5.91772 4.90408 4.80631 4.61186 4.48462 4.44736 4.24097 4.03698 5.25106 3.97365 3.97091 3.86288 3.48727 3.3911 3.39005 3.28105 3.19545 3.1264 3.09296 3.0402
threshold=69.550000000000011 95.15000000000002 68.500000000000014 0.13395000000000004 1.0000000180025095e-35 1.0000000180025095e-35 42.500000000000007 1.0000000180025095e-35 66.500000000000014 54.500000000000007 68.500000000000014 111.05000000000001 1.0000000180025095e-35 42.750000000000007 50.050000000000004 67.500000000000014 0.21110000000000004 41.45000000000001 81.500000000000014 61.500000000000007 61.500000000000007 78.000000000000014 63.500000000000007 85.550000000000011 82.500000000000014 41.500000000000007 -1.0000000180025095e-35 0.35415000000000002 48.500000000000007 0.26785000000000009 92.500000000000014 48.050000000000004 73.500000000000014 47.500000000000007 27.500000000000004 21.500000000000004 124.05000000000001 61.500000000000007 0.25000000000000006 42.500000000000007 2.0215000000000001 37.500000000000007 57.500000000000007 0.55000000000000016 0.43650000000000005 88.500000000000014
decision_type=8 10 2 10 10 10 2 2 2 2 2 10 2 10 10 2 10 10 2 2 2 2 2 8 2 2 2 10 2 10 2 10 2 2 2 2 10 2 2 2 2 2 2 2 10 2
left_child=2 4 5 9 6 8 18 16 14 10 11 20 21 26 28 32 31 -9 23 36 39 29 33 40 -20 35 -7 -5 43 30 -6 -4 -10 34 37 -16 -13 45 -25 -3 -2 -12 -36 -1 -14 -8
right_child=1 3 7 27 12 13 22 17 15 -11 41 19 44 -15 25 -17 -18 -19 24 -21 -22 -23 -24 38 -26 -27 -28 -29 -30 -31 -32 -33 -34 -35 42 -37 -38 -39 -40 -41 -42 -43 -44 -45 -46 -47
leaf_value=0.0030592265476672748 -0.00066877391777958432 -0.0036673971625234667 0.0084937989646719676 0.00068427672889190684 0.0011395036630848627 0.010367234557805475 -0.00028653560083417048 0.0061208905730704005 -0.005641280755686635 -0.0010299796396891715 -0.0089027949954985988 -0.0047389106963038235 0.0059915742223341532 0.003603282452506784 0.0014078237978287105 0.0034400024981508441 0.010571910755321705 0.0028980402629449706 -0.0070446165131663697 -0.0033248343592762642 -0.0013605317427226094 0.0052094700666599379 0.0017812215619373943 -0.0028208774657283039 0.0012485817962139846 0.0038574871028129454 0.0062109860503168739 0.003728929609470587 0.0063600809376907997 0.0030468506064810202 -0.0076423529015045679 0.0056884979226297363 -0.0019875955824469635 0.0016873958681404423 -0.00043535197207256025 -0.0018395378493808383 -0.0058967523209787478 0.0028759022017742068 -0.00018799771918155298 2.4651147485650203e-05 -0.0023700296741686771 -0.0064044238831996135 -0.0046959219695901508 0.0048415088539026443 0.01057880739051025 -0.0057996030792682954
leaf_weight=3630 3390 6661 1574 1630 3792 362 4381 2328 551 2210 993 4830 439 3898 5452 254 2139 1286 539 2231 2152 561 2060 6768 99 963 2289 674 599 1371 52 779 604 872 265 360 6180 348 488 230 1535 965 400 1189 198 91
leaf_count=3630 3390 6661 1574 1630 3792 362 4381 2328 551 2210 993 4830 439 3898 5452 254 2139 1286 539 2231 2152 561 2060 6768 99 963 2289 674 599 1371 52 779 604 872 265 360 6180 348 488 230 1535 965 400 1189 198 91
internal_value=3.90733e-08 -0.00210015 0.00419234 -0.00374902 -0.000385079 0.00297878 -0.00124434 0.00720809 0.00205717 -0.00421312 -0.00450313 -0.00422379 0.00245955 0.00489186 0.00257716 -0.00243921 0.0090017 0.00497603 -0.00224515 -0.00504218 -0.00302474 0.00190897 0.000279621 -0.00206071 -0.00575311 0.00158374 0.00678336 0.00157748 0.00381832 0.00155241 0.00101797 0.00756914 -0.00373658 -0.000206707 -0.000508629 0.00120588 -0.00538957 -0.000162927 -0.00264427 -0.00354375 -0.0012 -0.0076769 -0.00300581 0.00350051 0.00743648 -0.000400662
internal_weight=84662 56405 28257 28756 27649 20151 21236 8106 13602 26452 24242 22284 6413 6549 12193 1409 4492 3614 12819 13241 9043 5776 8417 12181 638 6775 2651 2304 5418 5215 3844 2353 1155 6357 5485 5812 11010 4820 7256 6891 4925 1958 665 4819 637 4472
internal_count=84662 56405 28257 28756 27649 20151 21236 8106 13602 26452 24242 22284 6413 6549 12193 1409 4492 3614 12819 13241 9043 5776 8417 12181 638 6775 2651 2304 5418 5215 3844 2353 1155 6357 5485 5812 11010 4820 7256 6891 4925 1958 665 4819 637 4472
is_linear=0
shrinkage=0.03


Tree=4
num_leaves=47
num_cat=0
split_feature=22 22 22 19 19 19 22 22 19 22 4 19 19 0 4 19 0 4 0 19 19 0 5 5 0 5 4 22 5 1 19 0 22 19 4 22 4 0 23 19 19 1 5 13 4 19
split_gain=1143.67 195.306 193.89 62.2056 55.412 51.16 28.7991 21.3623 17.8407 14.4703 11.009 10.5781 9.94626 9.27011 8.84024 7.09963 6.86678 6.4049 6.40129 6.51618 6.16664 5.70781 9.35336 5.66057 5.42157 5.85843 4.97597 4.58292 4.34388 4.01239 3.54865 3.49454 3.49196 3.1814 3.17194 3.07727 2.96373 2.69453 2.69162 2.61575 2.56805 2.50829 2.37309 2.2761 2.27538 2.25856
threshold=76.250000000000014 105.05000000000001 46.250000000000007 65.250000000000014 72.100000000000009 51.900000000000006 125.05000000000001 22.050000000000004 102.90000000000002 59.550000000000004 44.500000000000007 39.900000000000006 75.65000000000002 1.0000000180025095e-35 47.500000000000007 41.100000000000009 1.0000000180025095e-35 30.500000000000004 1.0000000180025095e-35 79.100000000000009 83.100000000000009 1.0000000180025095e-35 72.500000000000014 69.500000000000014 1.0000000180025095e-35 60.500000000000007 80.500000000000014 60.95000000000001 39.500000000000007 1.0000000180025095e-35 114.55000000000001 1.0000000180025095e-35 90.550000000000011 50.750000000000007 30.500000000000004 29.350000000000005 42.500000000000007 1.0000000180025095e-35 0.18335000000000004 34.900000000000006 34.100000000000009 1.0000000180025095e-35 33.500000000000007 1598.0000000000002 30.500000000000004 91.100000000000009
decision_type=8 10 10 8 8 10 10 10 10 10 2 10 8 2 2 10 2 2 2 10 10 2 2 2 2 2 2 10 2 2 10 2 8 10 2 10 2 2 8 8 8 2 2 2 2 10
left_child=2 4 5 11 10 7 12 31 14 30 28 -4 29 17 32 -12 26 41 19 35 -11 36 -23 -22 34 -26 40 -13 33 -3 -5 -1 -6 -2 42 -7 -10 44 -17 -18 -9 -8 -14 -20 -30 -16
right_child=1 6 3 9 8 18 13 16 21 20 15 27 24 -15 45 38 39 -19 43 -21 23 22 -24 -25 25 -27 -28 -29 37 -31 -32 -33 -34 -35 -36 -37 -38 -39 -40 -41 -42 -43 -44 -45 -46 -47
leaf_value=0.010321451328109531 0.0018903371015218837 -0.001724545342227488 0.0052292469911452352 0.0023658676600900089 -0.0015192160743227301 0.0074161803012819053 -0.0080063165910355411 0.0082197893643991878 -0.0047144514171922969 0.00093438566317897542 0.0042523863737825782 0.0039523430071495193 -0.0057300832199491461 -0.0056133504598594643 0.00015866872479376496 0.00063581803957802089 0.0064789977926988469 -0.006072729031013616 0.0022457451116020336 0.0034195183966474986 -0.0010617612363798021 -0.0033296391788986694 0.0006240276454333928 0.001797331132449994 -0.0047685015784953407 -0.00039429889579503576 0.0092173251325093734 0.0023165131475640795 -0.0044517726114555681 -0.0049177654366114529 7.0533147047668039e-05 0.0066205703464194115 -0.0026907464415200305 -0.0004036769484118664 -0.0048439857677477945 0.0050789883420817332 -0.0027777575220479184 0.00033463474899203365 0.003941116265483856 0.0046103489324380116 0.0061955468703831342 -0.0097057390779982378 -0.0073997407076789694 0.0054316651267880085 -0.0015385454727236713 -0.0017286306808528024
leaf_weight=2500 829 1152 3518 4531 3937 782 1721 891 3402 4113 862 3227 1754 1813 2204 1892 1658 1012 1551 1711 4207 3751 627 730 4145 297 1261 2989 332 515 703 266 5546 1575 1628 1545 917 471 251 1190 1705 1590 1453 234 906 768
leaf_count=2500 829 1152 3518 4531 3937 782 1721 891 3402 4113 862 3227 1754 1813 2204 1892 1658 1012 1551 1711 4207 3751 627 730 4145 297 1261 2989 332 515 703 266 5546 1575 1628 1545 917 471 251 1190 1705 1590 1453 234 906 768
internal_value=5.56725e-08 -0.00324627 0.00374505 0.00206349 -0.00171573 0.0063853 -0.00577911 0.00774632 -0.00248621 0.000802785 0.000573452 0.00391292 -0.00485501 -0.00742578 -0.00175744 0.00195362 0.00682754 -0.00818371 0.00417016 0.00483268 7.62369e-05 -0.00352922 -0.00276271 -0.000638121 -0.00523885 -0.00447686 0.0076568 0.00316673 -0.000434411 -0.00271521 0.00205822 0.00996915 -0.0022049 0.000386605 -0.00593722 0.00586855 -0.00430469 -0.00159062 0.00102601 0.00570115 0.00689436 -0.008826 -0.00648956 0.00266788 -0.00232518 -0.00032844
internal_weight=84662 45350 39312 24018 28270 15294 17080 9471 21152 14284 7118 9734 10944 6136 12455 3005 6705 4323 5823 4038 9050 8697 4378 4937 9277 4442 3857 6216 4113 1667 5234 2766 9483 2404 4835 2327 4319 1709 2143 2848 2596 3311 3207 1785 1238 2972
internal_count=84662 45350 39312 24018 28270 15294 17080 9471 21152 14284 7118 9734 10944 6136 12455 3005 6705 4323 5823 4038 9050 8697 4378 4937 9277 4442 3857 6216 4113 1667 5234 2766 9483 2404 4835 2327 4319 1709 2143 2848 2596 3311 3207 1785 1238 2972
is_linear=0
shrinkage=0.03


Tree=5
num_leaves=47
num_cat=0
split_feature=22 22 22 19 20 19 22 22 19 22 26 4 19 26 19 0 4 0 26 19 4 0 19 20 26 4 22 20 22 8 1 19 0 8 22 26 26 26 19 19 4 19 1 6 19 23
split_gain=1076.13 183.776 182.445 58.5301 53.2634 48.1362 27.0972 20.0984 18.1124 13.6153 13.2691 11.5979 9.95218 9.56712 8.90024 8.72161 7.25257 6.46019 6.35385 8.97412 6.02482 6.02207 6.13087 5.51681 4.73684 4.68048 4.31153 4.17358 4.10496 4.07691 3.57 3.41272 3.28488 3.17623 2.89475 2.72234 2.68139 2.50781 2.48707 2.47643 2.43483 2.41536 2.35847 2.30389 2.25523 2.14333
threshold=76.250000000000014 105.05000000000001 46.250000000000007 65.250000000000014 72.050000000000011 51.900000000000006 125.05000000000001 22.050000000000004 97.100000000000009 59.550000000000004 55.500000000000007 44.500000000000007 39.900000000000006 51.500000000000007 75.65000000000002 1.0000000180025095e-35 47.500000000000007 1.0000000180025095e-35 66.500000000000014 98.550000000000011 30.500000000000004 1.0000000180025095e-35 79.100000000000009 42.050000000000004 61.500000000000007 80.500000000000014 60.95000000000001 115.25000000000001 96.050000000000011 28.500000000000004 1.0000000180025095e-35 120.10000000000001 1.0000000180025095e-35 34.500000000000007 29.350000000000005 86.500000000000014 32.500000000000007 86.500000000000014 28.100000000000005 104.55000000000001 30.500000000000004 34.100000000000009 1.0000000180025095e-35 56.500000000000007 50.750000000000007 0.18335000000000004
decision_type=8 10 10 8 8 10 10 10 10 10 2 2 10 2 8 2 2 2 2 10 2 2 10 10 2 2 10 10 8 2 2 10 2 2 10 2 2 2 8 10 2 8 2 2 10 8
left_child=2 4 5 12 11 7 13 32 16 27 31 29 -4 14 33 20 24 25 19 -11 42 22 34 -13 28 41 -14 35 -6 44 39 -10 -1 -3 -7 -5 40 -12 -19 -16 -31 -9 -8 -17 -2 -25
right_child=1 6 3 9 8 21 15 17 10 18 37 23 26 -15 30 43 -18 38 -20 -21 -22 -23 -24 45 -26 -27 -28 -29 -30 36 -32 -33 -34 -35 -36 -37 -38 -39 -40 -41 -42 -43 -44 -45 -46 -47
leaf_value=0.01001193177647444 0.0016539694785600674 -0.0017872436314603076 0.0050724141865672373 0.0020903037605939593 -0.0015888475113906334 0.0071939791476753646 -0.0077662665528191108 0.007973472125212256 -0.0032083672200923707 0.0004551699054334847 -0.0011816458477968805 0.004293452587616509 0.0038338094620803558 -0.001151076601161831 -0.0043226915802220345 -0.0059696696852045575 -0.00022759195415759684 0.0065572408127906557 0.0023831317280640866 -0.001723292348392936 -0.0058907269964954701 0.0025880251348165046 0.003316992764627285 0.00095444042508631671 0.00055786111023444873 0.0089410245129063707 0.0022470409938625028 -0.00035959188495708139 -0.0029640525029721943 -0.0049834744736569061 -0.0064044822640211534 -0.0044045519344665341 0.0064226970346252105 -0.0045417165026609843 0.004926717301638764 0.0048454299251448401 0.00058915731460558657 0.0019193616225061437 0.0047430206664698816 -0.0055007870807778714 -0.0015715020224931632 0.0060097894018600745 -0.0094147498817585499 -0.0032171110690812866 -0.00031238679495397651 0.0039572698493725673
leaf_weight=2500 855 974 3518 4286 4656 782 1721 891 5490 5660 1035 819 3227 643 3020 1465 2843 1231 958 2432 1012 1785 1711 1660 615 1261 2989 597 3392 248 2074 3591 266 622 1545 351 366 302 1617 3611 800 1705 1590 348 1352 246
leaf_count=2500 855 974 3518 4286 4656 782 1721 891 5490 5660 1035 819 3227 643 3020 1465 2843 1231 958 2432 1012 1785 1711 1660 615 1261 2989 597 3392 248 2074 3591 266 622 1545 351 366 302 1617 3611 800 1705 1590 348 1352 246
internal_value=6.54788e-08 -0.00314895 0.00363281 0.00200163 -0.00166428 0.00619395 -0.0056059 0.00751415 -0.00236487 0.000778723 -0.00327132 0.000755649 0.00379558 -0.00470949 -0.00493118 -0.00720319 -0.00154366 0.00662293 7.39554e-05 -0.000199315 -0.00793841 0.00404524 0.00468786 0.00223382 -0.00197514 0.00742732 0.00307177 0.0019965 -0.00216913 -0.000356239 -0.00530933 -0.00368215 0.00967029 -0.00286478 0.00569269 0.0023005 -0.00161374 -0.000478041 0.00553027 -0.00496542 -0.00238576 0.00668773 -0.00856141 -0.00544504 0.000448432 0.00134545
internal_weight=84662 45350 39312 24018 28270 15294 17080 9471 21924 14284 10418 6346 9734 10944 10301 6136 11506 6705 9050 8092 4323 5823 4038 2725 8663 3857 6216 5234 8048 3621 8705 9081 2766 1596 2327 4637 1414 1337 2848 6631 1048 2596 3311 1813 2207 1906
internal_count=84662 45350 39312 24018 28270 15294 17080 9471 21924 14284 10418 6346 9734 10944 10301 6136 11506 6705 9050 8092 4323 5823 4038 2725 8663 3857 6216 5234 8048 3621 8705 9081 2766 1596 2327 4637 1414 1337 2848 6631 1048 2596 3311 1813 2207 1906
is_linear=0
shrinkage=0.03


Tree=6
num_leaves=47
num_cat=0
split_feature=22 22 22 19 19 19 22 22 26 19 22 19 26 19 26 4 0 4 19 19 0 19 0 4 4 22 19 26 5 19 8 19 22 22 0 5 22 22 23 29 19 19 22 24 19 19
split_gain=1012.59 172.927 171.675 55.2233 49.2262 45.2923 25.538 18.9092 14.0375 14.5872 13.9292 11.5701 9.70009 8.1824 8.13882 7.53561 7.46458 7.46244 6.96472 6.13676 6.0776 5.73057 5.21884 4.40248 4.14925 4.07282 3.96439 3.85381 3.5448 5.07245 3.42949 3.42687 3.25698 3.25429 3.08774 3.08612 3.06146 2.53192 2.4735 2.41466 2.35155 2.27462 2.26784 2.25772 2.19322 2.11289
threshold=76.250000000000014 105.05000000000001 46.250000000000007 58.250000000000007 79.550000000000011 51.900000000000006 127.15000000000002 22.050000000000004 55.500000000000007 102.90000000000002 59.550000000000004 54.650000000000013 39.500000000000007 83.100000000000009 56.500000000000007 51.500000000000007 1.0000000180025095e-35 47.500000000000007 104.55000000000001 34.900000000000006 1.0000000180025095e-35 88.100000000000009 1.0000000180025095e-35 80.500000000000014 31.500000000000004 87.050000000000011 84.550000000000011 79.500000000000014 74.500000000000014 59.250000000000007 23.500000000000004 59.900000000000006 29.350000000000005 61.750000000000007 1.0000000180025095e-35 60.500000000000007 93.65000000000002 96.050000000000011 0.15480000000000002 62.500000000000007 34.900000000000006 38.45000000000001 78.250000000000014 0.31665000000000004 99.100000000000009 90.550000000000011
decision_type=8 10 10 8 8 10 10 10 2 10 10 10 2 10 2 2 2 2 10 10 2 10 2 2 2 10 10 2 2 8 2 8 10 10 2 2 8 8 8 2 8 8 10 10 10 10
left_child=2 4 5 19 11 7 12 34 9 17 26 15 18 -12 44 30 24 37 28 39 23 22 32 41 -8 -13 -5 -28 29 -3 -2 -14 -7 -21 -1 -33 -11 -6 -10 -4 -22 -9 -17 -16 -15 -19
right_child=1 6 3 10 8 21 16 20 38 36 13 25 31 14 43 42 -18 45 -20 33 40 -23 -24 -25 -26 -27 27 -29 -30 -31 -32 35 -34 -35 -36 -37 -38 -39 -40 -41 -42 -43 -44 -45 -46 -47
leaf_value=0.0097116937557945107 0.0015467428388212866 -0.0011868408080596806 0.00495366942169364 0.0027172938316262362 -0.0019355316379108518 0.006723066370557201 -0.0083313712018075053 0.0074952731003683276 -0.00054653529808930455 -0.0030866287841290149 0.0010926503773618372 0.00013110864318666935 0.0021903781618568159 -0.00039113480169784354 0.0012824375953903301 0.0053067334848000049 -0.0053598548578070067 0.0001792280415664595 -0.0058546750407925717 0.0040691639889973734 0.0061021549034441409 0.0025206104078929082 0.0028937062090839518 0.0086730063194984611 -0.0058002345421368125 -0.001467651475741477 0.00068022990938985581 0.0041975910877636458 -0.0060251719284771955 -0.0042911329409687608 -0.00086836229512324455 -0.003606556295546382 0.0045350127676629642 0.0025397566846747091 0.0062307377606525671 -0.00032879871853042347 -0.0043082430612925732 -0.0030722070137581539 0.0027039741470354689 0.0085662662344073628 0.0043299834503785183 0.0056739194635296673 0.0025416011539710569 0.0052792498537128961 -0.0018013416231494981 -0.0017788136984193319
leaf_weight=2500 1173 544 2418 3612 3907 937 3130 1154 1889 3426 5251 2983 125 1780 740 380 1534 1497 4669 2975 1658 1817 1200 1261 741 2755 2117 323 863 3871 961 1276 1869 2202 266 327 4119 3267 236 183 1190 1442 938 154 2263 739
leaf_count=2500 1173 544 2418 3612 3907 937 3130 1154 1889 3426 5251 2983 125 1780 740 380 1534 1497 4669 2975 1658 1817 1200 1261 741 2755 2117 323 863 3871 961 1276 1869 2202 266 327 4119 3267 236 183 1190 1442 938 154 2263 739
internal_value=7.45127e-08 -0.00305455 0.00352393 0.00194162 -0.00161436 0.00600833 -0.00543787 0.00728894 -0.00248314 -0.00277121 0.000945733 0.000189133 -0.00464702 0.000268164 -0.000608197 0.00156152 -0.00714441 -0.00198224 -0.00500786 0.00402019 0.00642444 0.00392402 0.00455903 0.00720473 -0.00784925 -0.000636107 0.00208563 0.00114861 -0.00425722 -0.00390967 0.000457851 -0.00256647 0.00526887 0.00341984 0.0093804 -0.00294041 -0.00375442 -0.00245394 -0.000183024 0.00521219 0.00536451 0.0064873 0.00334453 0.00197941 -0.00118147 -0.000467071
internal_weight=84662 45350 39312 24018 28270 15294 17080 9471 19080 16955 16240 9190 11675 10188 4937 3452 5405 9410 9947 7778 6705 5823 4006 3857 3871 5738 6052 2440 5278 4415 2134 1728 2806 5177 2766 1603 7545 7174 2125 2601 2848 2596 1318 894 4043 2236
internal_count=84662 45350 39312 24018 28270 15294 17080 9471 19080 16955 16240 9190 11675 10188 4937 3452 5405 9410 9947 7778 6705 5823 4006 3857 3871 5738 6052 2440 5278 4415 2134 1728 2806 5177 2766 1603 7545 7174 2125 2601 2848 2596 1318 894 4043 2236
is_linear=0
shrinkage=0.03


Tree=7
num_leaves=47
num_cat=0
split_feature=22 22 19 22 20 22 22 19 19 26 19 4 26 26 19 22 0 0 22 4 4 26 7 20 22 5 22 22 22 4 5 20 20 4 8 29 5 0 27 22 25 8 19 19 0 20
split_gain=952.883 170.335 153.888 56.9569 51.1751 36.2912 24.0896 16.8752 13.6102 12.7265 12.4792 11.2178 8.54867 8.35744 7.99394 7.8982 7.73322 7.70798 6.53649 6.45439 5.40642 4.78356 4.22746 4.11226 3.94092 3.87419 3.82647 3.82197 3.71907 3.61414 3.5041 3.31175 2.96857 2.91934 3.40994 2.82824 2.8184 2.63744 2.51626 2.47286 2.14739 2.00883 1.82627 1.81712 1.81018 1.8079
threshold=75.050000000000011 105.05000000000001 48.900000000000006 52.550000000000004 72.050000000000011 34.95000000000001 125.05000000000001 97.100000000000009 83.100000000000009 55.500000000000007 67.250000000000014 51.500000000000007 51.500000000000007 73.500000000000014 75.65000000000002 37.45000000000001 1.0000000180025095e-35 1.0000000180025095e-35 53.550000000000004 47.500000000000007 31.500000000000004 61.500000000000007 52.500000000000007 47.250000000000007 96.050000000000011 75.500000000000014 86.65000000000002 31.950000000000003 66.750000000000014 89.500000000000014 57.500000000000007 123.65000000000002 114.95000000000002 30.500000000000004 23.500000000000004 66.500000000000014 86.500000000000014 1.0000000180025095e-35 -1.0000000180025095e-35 59.550000000000004 2.0215000000000001 75.500000000000014 59.250000000000007 26.100000000000005 1.0000000180025095e-35 68.050000000000011
decision_type=8 10 8 10 8 10 10 10 10 2 10 2 2 2 8 10 2 2 10 2 2 2 2 10 8 2 10 10 10 2 2 10 10 2 2 2 2 2 2 10 2 2 10 10 2 8
left_child=2 4 5 10 11 17 12 19 28 31 15 25 14 32 30 22 20 29 37 21 -8 24 -4 -13 -6 26 -2 38 -5 -1 42 -9 39 34 40 -20 -11 -7 -12 -10 -16 -38 -3 -39 -25 -14
right_child=1 6 3 8 7 18 16 9 13 36 27 23 45 -15 33 -17 -18 -19 35 -21 -22 -23 -24 44 -26 -27 -28 -29 -30 -31 -32 -33 -34 -35 -36 -37 41 43 -40 -41 -42 -43 -44 -45 -46 -47
leaf_value=0.0080376042576880344 0.0010748455671343586 -0.00046937337628950751 0.0052844644954238434 0.0021871875811200142 -0.0014616009680463978 0.0065329906250606974 -0.0080117278133560628 -0.0030664569204104015 0.0011381882060727624 -0.001118198932762163 0.0013105089071035938 0.0040916538950120807 0.0049397480358768786 0.0029367051357724544 -0.0043943286132318779 0.0037805440867166424 -0.0051250973462107314 0.005946503931895753 0.0037868086751092619 -0.00020279397140914618 -0.0053476441851754751 0.00065737765685453778 0.0080692683995352461 0.0028153384683289057 -0.0027957237823182375 -0.0024786114090980518 -0.00082416748882797116 0.002328739607679116 0.00089689044990144836 0.0099568654427393821 -0.0047818551282252002 -0.0042923358692245834 -0.0017909170304578632 -0.0042359331063887345 -0.0064757792770660802 0.0075125944366829867 0.0044693256684142394 0.0061044373505779841 0.0048057197544355279 -0.00057750864589190215 -0.0059348526129480508 -0.00023077224042822032 -0.0029205204616534822 0.0044147722678744049 0.00057478576966001082 -0.0014871552131076188
leaf_weight=2067 2201 536 1714 5322 4881 2006 3446 6351 1002 1061 228 902 41 695 2621 2955 1813 1038 3409 2991 877 651 705 543 3392 531 1684 4100 3250 1653 494 2929 1322 3024 1832 196 159 950 1077 3065 1228 165 566 1570 817 602
leaf_count=2067 2201 536 1714 5322 4881 2006 3446 6351 1002 1061 228 902 41 695 2621 2955 1813 1038 3409 2991 877 651 705 543 3392 531 1684 4100 3250 1653 494 2929 1322 3024 1832 196 159 950 1077 3065 1228 165 566 1570 817 602
internal_value=1.00211e-07 -0.00289427 0.00349978 0.00214619 -0.00150433 0.00617032 -0.00527484 -0.00218666 0.000928342 -0.00305376 0.00380157 0.000802358 -0.0044296 -0.000156364 -0.00463916 0.00482624 -0.00678093 0.00825275 0.00495052 -0.00141009 -0.00747333 -0.00181432 0.00610031 0.00251988 -0.00200924 -7.70961e-05 0.000250923 0.00278151 0.00169849 0.00889369 -0.00268066 -0.00345412 -0.000556294 -0.00499755 -0.00540161 0.00399223 -0.000368502 0.00571209 0.00419883 -0.000153893 -0.00488802 0.00207318 -0.00173254 0.00505511 0.00147297 -0.00106566
internal_weight=84662 46338 38324 25435 29258 12889 17080 22580 14656 10665 10779 6678 10944 6084 10301 5374 6136 4758 8131 11915 4323 8924 2419 2262 8273 4416 3885 5405 8572 3720 1596 9280 5389 8705 5681 3605 1385 4526 1305 4067 3849 324 1102 2520 1360 643
internal_count=84662 46338 38324 25435 29258 12889 17080 22580 14656 10665 10779 6678 10944 6084 10301 5374 6136 4758 8131 11915 4323 8924 2419 2262 8273 4416 3885 5405 8572 3720 1596 9280 5389 8705 5681 3605 1385 4526 1305 4067 3849 324 1102 2520 1360 643
is_linear=0
shrinkage=0.03


Tree=8
num_leaves=47
num_cat=0
split_feature=22 22 22 19 20 19 22 22 19 22 26 4 26 19 0 19 0 19 4 0 26 19 20 29 20 26 20 4 4 22 20 22 22 5 0 29 22 26 4 23 19 9 22 6 19 8
split_gain=896.82 153.044 152.379 48.3153 44.5754 41.4785 22.6928 16.51 15.135 10.9796 10.7061 9.99126 8.77449 7.95256 6.61207 6.38799 6.19725 6.24209 6.15112 5.48706 5.46911 7.4598 4.77776 4.36488 3.9049 3.89237 3.70215 3.64951 3.52994 3.48555 3.4512 3.41661 3.30308 2.87501 2.83086 2.79947 2.7133 2.48969 2.42522 2.28051 2.23648 2.12707 2.10204 2.07289 2.00589 2.00156
threshold=76.250000000000014 105.05000000000001 46.750000000000007 65.250000000000014 72.050000000000011 48.900000000000006 127.15000000000002 22.050000000000004 93.550000000000011 59.550000000000004 68.500000000000014 44.500000000000007 39.500000000000007 43.100000000000009 1.0000000180025095e-35 104.55000000000001 1.0000000180025095e-35 79.100000000000009 47.500000000000007 1.0000000180025095e-35 66.500000000000014 98.550000000000011 42.050000000000004 1.0000000180025095e-35 111.45000000000002 61.500000000000007 115.25000000000001 31.500000000000004 80.500000000000014 95.65000000000002 57.050000000000004 60.95000000000001 115.05000000000001 60.500000000000007 1.0000000180025095e-35 66.500000000000014 29.350000000000005 86.500000000000014 43.500000000000007 0.21110000000000004 33.100000000000009 72.500000000000014 93.65000000000002 49.500000000000007 28.100000000000005 76.500000000000014
decision_type=8 10 10 8 8 10 10 10 10 10 2 2 2 10 2 10 2 10 2 2 2 10 10 2 10 2 10 2 2 8 8 10 10 2 2 2 10 2 2 10 8 2 8 2 8 2
left_child=2 4 5 13 11 7 12 34 18 26 24 23 15 35 27 32 17 36 25 28 21 -11 41 -2 -10 29 37 -8 -9 -6 -14 -15 38 -32 -1 -4 -7 -5 -3 -38 -36 -13 -26 -16 -21 -18
right_child=1 6 3 9 8 16 14 19 10 20 -12 22 30 31 43 -17 45 -19 -20 44 -22 -23 -24 -25 42 -27 -28 -29 -30 -31 33 -33 -34 -35 40 -37 39 -39 -40 -41 -42 -43 -44 -45 -46 -47
leaf_value=0.0092235586309359092 0.00015903304575769166 -0.0037342619653440126 0.0042408994282397521 0.001889827321242168 -0.0013616469267200676 0.0066357453813231503 -0.0078412348253116236 0.0061970899195642193 -0.002563121544668351 0.00040158657705435748 0.00033369516312103649 0.0029122015561049894 0.0030384495407342915 0.003440536849349099 -0.0057421408200264597 -0.0055253708673795015 0.001944786537730195 0.0029872105425958941 -7.1094805609166244e-05 0.0059880842292215674 0.0022008311452184552 -0.0015845639754679969 0.001239144973699166 -0.0025162425245131947 -0.0030482012781442407 0.00070338750560983924 -0.00043300723915220776 -0.0054662489039108602 0.0081999585475907161 -0.0026941810406133763 -0.0033568438432345108 0.0019334689138193147 -0.0048483713664863723 -0.0002110503185499112 0.0080287723866524167 0.0075223256735879136 0.0047488558716949547 0.0045699169705293186 -0.0015033503118355611 -0.0033195917173870835 0.0021947823664646201 0.0062152190733210187 -0.0042323106170747476 -0.0032581119289608836 0.004352854806782643 0.0045265290992624989
leaf_weight=2419 2948 2418 3854 4159 4120 917 3130 2469 5095 5660 847 556 98 2749 1101 4669 1661 1746 2619 1259 958 2432 1906 673 2441 538 588 741 1213 3118 1300 2706 2316 330 159 253 1761 339 544 31 98 263 3146 433 1555 326
leaf_count=2419 2948 2418 3854 4159 4120 917 3130 2469 5095 5660 847 556 98 2749 1101 4669 1661 1746 2619 1259 958 2432 1906 673 2441 538 588 741 1213 3118 1300 2706 2316 330 159 253 1761 339 544 31 98 263 3146 433 1555 326
internal_value=1.11956e-07 -0.0028746 0.00331642 0.00180003 -0.00151972 0.00561745 -0.00511672 0.00691382 -0.00216064 0.000685587 -0.00290932 0.000694029 -0.00437119 0.00344701 -0.00672544 -0.00471438 0.00377044 0.00439285 -0.0013298 0.00609336 5.84172e-05 -0.00019509 0.00206602 -0.000337924 -0.00316676 -0.00175329 0.00180075 -0.00738891 0.00685978 -0.00193639 -0.00239231 0.00269398 -0.00399549 -0.00272232 0.00890134 0.00444555 0.00529626 0.00209345 -0.00332619 0.00460583 0.0058329 0.00398282 -0.00371614 -0.00504551 0.0050874 0.00237194
internal_weight=84662 45350 39312 23698 28270 15614 17080 9172 21924 14136 11529 6346 11675 9562 5405 9947 6442 4455 10395 6496 9050 8092 2725 3621 10682 7776 5086 3871 3682 7238 1728 5455 5278 1630 2676 4107 2709 4498 2962 1792 257 819 5587 1534 2814 1987
internal_count=84662 45350 39312 23698 28270 15614 17080 9172 21924 14136 11529 6346 11675 9562 5405 9947 6442 4455 10395 6496 9050 8092 2725 3621 10682 7776 5086 3871 3682 7238 1728 5455 5278 1630 2676 4107 2709 4498 2962 1792 257 819 5587 1534 2814 1987
is_linear=0
shrinkage=0.03


Tree=9
num_leaves=47
num_cat=0
split_feature=22 22 19 22 20 22 22 19 26 19 19 4 26 22 20 1 22 0 26 4 4 19 4 20 1 8 26 26 19 19 4 0 22 22 20 19 6 26 8 23 0 0 22 26 19 8
split_gain=843.882 150.803 137.048 47.9948 44.4555 36.3045 22.3037 14.8093 11.2882 10.7406 9.99996 9.94666 8.85997 8.32282 8.31724 7.03519 7.02038 6.83943 6.48574 5.58014 3.89114 3.82446 3.60353 3.56078 3.50141 3.49684 3.22581 3.15598 3.15133 2.96494 2.93097 2.92621 2.85769 2.70708 2.63579 2.47298 2.47205 2.44264 2.43212 2.22463 2.19565 2.19367 2.18921 2.04305 2.0413 1.97803
threshold=75.050000000000011 104.55000000000001 51.900000000000006 51.550000000000004 72.050000000000011 34.95000000000001 124.45000000000002 97.100000000000009 55.500000000000007 83.100000000000009 76.100000000000009 51.500000000000007 73.500000000000014 26.550000000000004 69.050000000000011 1.0000000180025095e-35 57.850000000000001 1.0000000180025095e-35 46.500000000000007 38.500000000000007 89.500000000000014 104.55000000000001 36.500000000000007 47.250000000000007 1.0000000180025095e-35 29.500000000000004 37.500000000000007 60.500000000000007 29.100000000000005 132.10000000000002 30.500000000000004 1.0000000180025095e-35 66.750000000000014 96.050000000000011 110.05000000000001 50.750000000000007 65.500000000000014 86.500000000000014 28.500000000000004 1.0000000180025095e-35 1.0000000180025095e-35 1.0000000180025095e-35 94.050000000000011 68.500000000000014 37.900000000000006 75.500000000000014
decision_type=8 10 8 10 8 10 10 10 2 10 10 2 2 10 8 2 10 2 2 2 2 10 2 10 2 2 2 2 10 10 2 2 10 8 10 10 2 2 2 10 2 2 8 2 10 2
left_child=2 4 5 10 11 17 14 19 29 32 13 25 34 40 24 26 28 20 21 27 -1 38 -17 -13 -3 35 -8 33 -7 42 -27 -15 -5 -6 -11 -2 -33 -10 -16 -12 -4 -30 -9 -21 -18 -39
right_child=1 6 3 9 7 16 15 8 37 12 39 23 -14 31 18 22 44 -19 -20 43 -22 -23 -24 -25 -26 30 -28 -29 41 -31 -32 36 -34 -35 -36 -37 -38 45 -40 -41 -42 -43 -44 -45 -46 -47
leaf_value=0.0074469428595363464 0.0017406950095440311 -0.00042953903428032781 0.0072060311673757113 0.0019708613775288428 -0.001470524808692038 0.0060733951881841095 -0.0059602638058358854 -0.0024383420276733923 -0.0010172073847382725 -6.0119272091261846e-05 0.0019549381859208415 0.0038465739482055265 0.0030174576608035615 0.0043686232830206896 -0.0034367865643013897 -0.0081876001647212208 0.0041537554829929099 0.0055685749680799328 -0.0020031178872457036 -0.00052945201505883604 0.0093862758329416717 -0.0052348092031640698 -0.0039209051298881494 0.0014046983410250327 -0.0040834322192300548 -0.0035210405717585099 -0.0035088243003617908 0.00032861558876970073 0.0053316131899878057 -0.0042846384444587384 -0.00048174822927682024 0.0014432302606394965 0.00081718618110974484 -0.0026744633224496605 -0.0014703357248180085 -0.00012747169255716484 0.0037551437786820553 0.0043646485348927634 -0.0049001683694345549 0.0036129295325488904 0.0034798026328467361 0.0038888717787038474 -0.0034931124888536833 0.0038077966028871014 0.0025984923652884167 -0.00032130415896218349
leaf_weight=2210 1052 737 974 5284 4101 2076 3748 3675 1051 3790 2870 899 726 2934 2753 1879 1497 1073 943 4098 1704 4609 203 1354 348 362 568 581 1941 1934 1357 716 3067 2878 1743 1610 1018 157 1672 988 174 1945 3506 99 1594 164
leaf_count=2210 1052 737 974 5284 4101 2076 3748 3675 1051 3790 2870 899 726 2934 2753 1879 1497 1073 943 4098 1704 4609 203 1354 348 362 568 581 1941 1934 1357 716 3067 2878 1743 1610 1018 157 1672 988 174 1945 3506 99 1594 164
internal_value=1.30045e-07 -0.00272367 0.00329357 0.00192915 -0.00139269 0.00565298 -0.00492466 -0.00203552 -0.00285536 0.000843518 0.00356815 0.00076225 -9.56048e-05 0.00435449 -0.00410769 -0.00633585 0.00451901 0.00770959 -0.00437916 -0.0013038 0.0082942 -0.0046266 -0.00777511 0.00238167 -0.00160692 -7.02321e-05 -0.00563923 -0.00179085 0.00512195 -0.00323722 -0.0011252 0.00378865 0.00154767 -0.00196775 -0.000505092 0.000610062 0.00280362 -0.000315734 -0.00399139 0.00238114 0.00664739 0.00461146 -0.00295415 -0.000425546 0.00335379 0.0019677
internal_weight=84662 46338 38324 24284 28878 14040 17460 22244 10487 14610 9674 6634 6259 5816 11062 6398 9053 4987 9977 11757 3914 9034 2082 2253 1085 4381 4316 7560 5962 9115 1719 4668 8351 6979 5533 2662 1734 1372 4425 3858 1148 3886 7181 4197 3091 321
internal_count=84662 46338 38324 24284 28878 14040 17460 22244 10487 14610 9674 6634 6259 5816 11062 6398 9053 4987 9977 11757 3914 9034 2082 2253 1085 4381 4316 7560 5962 9115 1719 4668 8351 6979 5533 2662 1734 1372 4425 3858 1148 3886 7181 4197 3091 321
is_linear=0
shrinkage=0.03


Tree=10
num_leaves=47
num_cat=0
split_feature=22 22 22 19 19 19 22 22 26 19 22 19 19 26 4 0 19 19 26 19 0 22 0 4 4 22 4 8 19 22 4 22 19 26 22 0 29 29 19 19 28 4 25 13 1 7
split_gain=794.305 135.618 135.448 43.9027 40.2896 35.6977 18.717 14.4829 11.6395 11.6709 10.2575 9.60995 7.39537 7.33929 6.83735 5.95968 5.42632 5.37695 4.92324 6.64531 4.89779 4.83485 4.50753 4.45796 3.34657 3.26983 3.14087 2.89814 2.85183 2.78341 2.72512 2.71461 2.68713 2.68211 2.60708 2.50824 2.37076 2.3305 2.21075 2.08929 2.06291 2.02707 1.99303 1.98238 1.96487 1.95599
threshold=76.250000000000014 106.05000000000001 46.250000000000007 65.250000000000014 79.550000000000011 48.900000000000006 127.15000000000002 22.050000000000004 60.500000000000007 102.90000000000002 59.550000000000004 41.100000000000009 36.250000000000007 39.500000000000007 47.500000000000007 1.0000000180025095e-35 88.100000000000009 104.55000000000001 66.500000000000014 98.550000000000011 1.0000000180025095e-35 87.050000000000011 1.0000000180025095e-35 42.500000000000007 30.500000000000004 63.050000000000004 80.500000000000014 28.500000000000004 59.250000000000007 29.350000000000005 25.500000000000004 93.65000000000002 114.55000000000001 60.500000000000007 96.050000000000011 1.0000000180025095e-35 1.0000000180025095e-35 62.500000000000007 48.250000000000007 33.100000000000009 0.13395000000000004 47.500000000000007 1.5105000000000002 1634.0000000000002 1.0000000180025095e-35 85.500000000000014
decision_type=8 10 10 8 8 10 10 10 2 10 10 10 10 2 2 2 10 10 2 10 2 10 2 2 2 10 2 2 8 10 2 8 10 2 8 2 2 2 8 8 10 2 2 2 2 2
left_child=2 4 5 12 11 7 13 35 9 14 32 23 37 17 34 24 20 27 19 -12 29 41 26 36 44 -14 -9 28 -3 -7 -29 -11 40 38 -6 -1 -2 -4 -15 -37 -5 -13 -16 -10 -8 -18
right_child=1 6 3 10 8 16 15 22 43 31 18 21 25 33 42 -17 45 -19 -20 -21 -22 -23 -24 -25 -26 -27 -28 30 -30 -31 -32 -33 -34 -35 -36 39 -38 -39 -40 -41 -42 -43 -44 -45 -46 -47
leaf_value=0.0086953331189834407 0.0012168440295555029 -0.00067754690225487759 0.0043165095451817162 0.0018427373701376617 -0.001697962400541844 0.0060494420596746735 -0.0066746384159042157 0.005818643228492645 -9.9581248670268236e-05 -0.0027019791526336798 0.00036736297790387337 -0.00010656795138582931 0.0032722193428995766 0.0024761200571289427 -0.0011837788896426596 -0.0047376321768451855 0.0019272313193312602 -0.0052537983891831836 0.0020774501023125909 -0.0015072059971852425 0.0026140084057648992 -0.0011055340911337687 0.0048244262220212665 0.0035800229042313881 -0.0052836285571717673 0.0019331082855349531 0.0077233501750571983 -0.0069850348086107298 -0.003549303075369035 0.0041452450553475595 -0.0041444535903972894 -0.0038241195799914446 -7.9872544258912302e-06 0.00016150602675407984 -0.0028222146448308957 0.0076234015985566662 -0.0032885104525073364 0.0077288030759064524 -0.0031877757376498335 0.0019863878767937423 0.0049873559572875042 0.0012992118599611884 0.00056583275231755954 0.0060185081262369546 -0.008250008628012527 0.0058214424753650308
leaf_weight=2419 715 358 2655 4334 3991 1072 1560 2419 1734 3520 5660 2504 4118 64 1259 1534 1692 4450 958 2432 1324 3624 2733 925 858 2764 1197 382 2555 2056 1630 4445 703 318 3520 159 122 197 1231 98 197 1458 1092 48 1453 125
leaf_count=2419 715 358 2655 4334 3991 1072 1560 2419 1734 3520 5660 2504 4118 64 1259 1534 1692 4450 958 2432 1324 3624 2733 925 858 2764 1197 382 2555 2056 1630 4445 703 318 3520 159 122 197 1231 98 197 1458 1092 48 1453 125
internal_value=1.36061e-07 -0.00270528 0.00312115 0.00171565 -0.00147068 0.00532792 -0.0048857 0.00653643 -0.00224329 -0.00247437 0.000656495 0.000149739 0.00326936 -0.00417314 -0.00178357 -0.00633269 0.00358687 -0.00449518 4.47337e-05 -0.000195773 0.00415167 -0.000313558 0.0057527 0.00214514 -0.00696262 0.00273519 0.00645195 -0.00380819 -0.00319775 0.00480052 -0.00468846 -0.00332899 0.00171349 -0.00229794 -0.00222554 0.00839189 0.000553429 0.00455589 -0.00290385 0.00550154 0.00198119 0.000410194 -0.000369943 6.68163e-05 -0.00743783 0.00219984
internal_weight=84662 45350 39312 24018 28957 15294 16393 9025 19609 17827 14284 9348 9734 10988 9862 5405 6269 9375 9050 8092 4452 7586 6349 1762 3871 6882 3616 4925 2913 3128 2012 7965 5234 1613 7511 2676 837 2852 1295 257 4531 3962 2351 1782 3013 1817
internal_count=84662 45350 39312 24018 28957 15294 16393 9025 19609 17827 14284 9348 9734 10988 9862 5405 6269 9375 9050 8092 4452 7586 6349 1762 3871 6882 3616 4925 2913 3128 2012 7965 5234 1613 7511 2676 837 2852 1295 257 4531 3962 2351 1782 3013 1817
is_linear=0
shrinkage=0.03


Tree=11
num_leaves=47
num_cat=0
split_feature=22 22 22 19 20 19 22 22 19 22 26 4 26 19 26 19 19 0 4 0 29 19 20 26 19 19 1 26 27 4 22 22 22 1 4 6 19 22 26 24 19 6 23 1 29 16
split_gain=747.402 127.611 127.496 46.4184 38.3401 27.9722 17.6117 13.9593 13.0527 12.8238 9.36934 8.94961 6.91918 6.15405 6.4034 6.02298 5.85496 5.60681 5.4807 4.58861 4.15635 4.11546 3.96799 3.92904 3.72016 3.47434 3.45112 3.41065 3.39018 3.15205 3.13924 2.84701 2.79024 2.64198 2.61372 2.31743 2.10898 2.0359 2.11046 1.98518 1.90378 1.89716 1.86311 1.86075 1.8411 1.78888
threshold=76.250000000000014 106.05000000000001 42.650000000000013 58.250000000000007 72.050000000000011 58.250000000000007 127.15000000000002 59.550000000000004 92.550000000000011 20.850000000000005 55.500000000000007 44.500000000000007 51.500000000000007 83.100000000000009 56.500000000000007 71.550000000000011 34.900000000000006 1.0000000180025095e-35 47.500000000000007 1.0000000180025095e-35 1.0000000180025095e-35 84.550000000000011 42.750000000000007 83.500000000000014 34.100000000000009 119.55000000000001 1.0000000180025095e-35 61.500000000000007 -1.0000000180025095e-35 31.500000000000004 96.050000000000011 61.750000000000007 20.850000000000005 1.0000000180025095e-35 88.500000000000014 63.500000000000007 98.100000000000009 93.65000000000002 88.500000000000014 0.31665000000000004 28.100000000000005 49.500000000000007 0.18335000000000004 1.0000000180025095e-35 75.500000000000014 1.3500000000000003
decision_type=8 10 10 8 8 10 10 10 10 10 2 2 2 10 2 8 10 2 2 2 2 10 10 2 8 10 2 2 2 2 8 10 10 2 2 2 10 10 2 10 8 2 8 2 2 2
left_child=2 4 5 16 11 9 12 21 18 34 25 20 15 -9 -15 33 44 29 27 24 45 -5 -13 -23 -11 -10 35 30 -7 43 -6 -18 -30 -3 -1 -17 -34 38 -12 -16 -21 -19 -24 -8 -4 -2
right_child=1 6 3 7 8 28 17 13 10 19 37 22 -14 14 39 26 31 41 -20 40 -22 23 42 -25 -26 -27 -28 -29 32 -31 -32 -33 36 -35 -36 -37 -38 -39 -40 -41 -42 -43 -44 -45 -46 -47
leaf_value=0.0071202572359244281 -4.6263394906889796e-05 -0.0013644677763154354 0.00450144181092434 0.0025151768775478695 -0.0012442199786507288 0.0016011710801327708 -0.0064408062424568587 0.00093055799007426318 -0.0025808315454748706 0.0074906902067160127 -0.00038309774690398007 0.0036166760047648648 -0.00094287226717245634 -0.001053017119957895 0.0010970049989124596 -0.0044057414916013641 0.0035473315900770796 -0.005261666669446538 -2.6159747607828158e-05 0.0055793042372825697 -0.0024448900883955282 0.00063603588783013902 0.00078392347467726338 0.0039889756877751394 0.0055699746297727584 -0.0037128672383945579 -0.0055350493295997184 0.00070244883908669286 0.0057408984755577515 -0.0049668813169718284 -0.0025147926393289349 0.0021738743435251238 0.0038582537560034168 -0.0042767044515797034 0.0090419553400041108 -0.0028711147912514963 0.0018142815544905414 -0.001972751419423564 0.0029903429915287246 0.0048444927153808454 0.0038516500370821753 -0.0028868268737269019 0.0036024694051528861 -0.0079445783463182717 0.0084110243357396839 0.003147901995960779
leaf_weight=1281 2839 876 2974 4390 4059 825 1610 5251 6887 1457 780 846 613 4043 740 5780 3642 1101 2586 1037 693 2532 1667 359 2555 3828 2233 526 542 741 3102 2202 1835 416 1394 1070 616 525 211 154 1368 433 242 1520 115 166
leaf_count=1281 2839 876 2974 4390 4059 825 1610 5251 6887 1457 780 846 613 4043 740 5780 3642 1101 2586 1037 693 2532 1667 359 2555 3828 2233 526 542 741 3102 2202 1835 416 1394 1070 616 525 211 154 1368 433 242 1520 115 166
internal_value=1.47562e-07 -0.00262418 0.00302761 0.00183265 -0.00142658 0.00547086 -0.00473925 0.000932794 -0.00201114 0.00637625 -0.0026735 0.000611538 -0.00404803 0.000215494 -0.000544476 -0.0042311 0.00359172 -0.0061429 -0.00122206 0.0056453 -0.000352107 0.0019359 0.00190577 0.00105467 0.00626994 -0.00298585 -0.00450417 -0.00162393 0.00331292 -0.00675394 -0.0017953 0.00303079 0.00378306 -0.00230706 0.00812582 -0.00416692 0.00334672 -0.000463358 0.000334429 0.00175059 0.00459984 -0.0045956 0.00114449 -0.00717433 0.00465064 0.000130177
internal_weight=84662 45350 39312 26402 28957 12910 16393 17469 22504 9092 12231 6453 10988 10188 4937 10375 8933 5405 10273 6417 3698 7281 2755 2891 4012 10715 9083 7687 3818 3871 7161 5844 2993 1292 2675 6850 2451 1516 991 894 2405 1534 1909 3130 3089 3005
internal_count=84662 45350 39312 26402 28957 12910 16393 17469 22504 9092 12231 6453 10988 10188 4937 10375 8933 5405 10273 6417 3698 7281 2755 2891 4012 10715 9083 7687 3818 3871 7161 5844 2993 1292 2675 6850 2451 1516 991 894 2405 1534 1909 3130 3089 3005
is_linear=0
shrinkage=0.03


Tree=12
num_leaves=47
num_cat=0
split_feature=22 22 19 22 20 22 22 19 19 22 4 20 22 1 19 0 0 4 22 1 28 5 4 22 19 4 0 5 0 20 9 4 6 7 0 22 5 19 9 0 22 0 19 4 9 28
split_gain=703.403 125.887 115.284 40.1091 37.3134 30.4233 18.6979 12.4114 9.03423 8.90846 8.57024 7.17606 6.06635 5.89731 5.81818 5.74663 4.87409 4.7476 4.67226 4.5529 4.30917 3.41875 3.36047 3.35059 3.2467 3.15899 3.09673 3.05982 3.60148 3.02597 2.85963 2.49888 2.48658 2.47346 2.32444 2.30765 2.28267 2.62006 2.11817 2.07103 2.06429 1.97059 1.96133 1.93992 1.93691 1.8796
threshold=75.050000000000011 104.55000000000001 51.900000000000006 52.550000000000004 72.050000000000011 34.95000000000001 124.45000000000002 97.100000000000009 83.100000000000009 28.550000000000004 51.500000000000007 69.050000000000011 63.050000000000004 1.0000000180025095e-35 84.550000000000011 1.0000000180025095e-35 1.0000000180025095e-35 38.500000000000007 93.65000000000002 1.0000000180025095e-35 0.21110000000000004 75.500000000000014 89.500000000000014 86.65000000000002 28.100000000000005 36.500000000000007 1.0000000180025095e-35 78.500000000000014 1.0000000180025095e-35 50.050000000000004 42.500000000000007 62.500000000000007 54.500000000000007 52.500000000000007 1.0000000180025095e-35 66.750000000000014 69.500000000000014 114.55000000000001 89.500000000000014 1.0000000180025095e-35 85.550000000000011 1.0000000180025095e-35 97.550000000000011 55.500000000000007 78.000000000000014 0.15480000000000002
decision_type=8 10 8 10 8 10 10 10 10 10 2 8 10 2 10 2 2 2 8 2 10 2 2 10 10 2 2 2 2 10 2 2 2 2 2 10 2 10 2 2 8 2 8 2 2 10
left_child=2 4 5 9 10 15 11 17 35 16 21 26 24 30 31 22 33 40 27 32 36 23 -1 -2 -7 -15 -3 45 -29 38 -8 -11 42 -4 -26 -5 37 -10 -12 -38 -6 43 -13 -20 -14 -9
right_child=1 6 3 8 7 12 13 18 20 14 29 19 44 25 -16 -17 -18 -19 41 -21 -22 -23 -24 -25 34 -27 -28 28 -30 -31 -32 -33 -34 -35 -36 -37 39 -39 -40 -41 -42 -43 -44 -45 -46 -47
leaf_value=0.0068022375207898557 0.0010061557569879815 -0.002650725203982701 0.0047304322187837625 0.0017817168082885795 -0.00086203563411434917 0.0055040441919584713 -0.0055120532086302609 -0.0022671374305508686 -9.1426244535784852e-05 0.0028079145547770892 0.0029734153949082195 -0.0030053156695135433 0.0022537522400789332 -0.0074939215168491882 0.0015291648029561536 0.0050905399133828744 0.0019432143016688786 -0.00037941438390604596 -0.0039899371735426965 -0.0051872538642272611 0.0057305563021789888 -0.0023481891238606996 0.0086046991381657657 -0.00077838406980340819 0.0048003057012574032 -0.0034995483102153654 0.00066397655572500674 -0.0043195700530476609 0.0017371819066778549 0.0012034537050685419 -0.0034675771848845308 0.0041482100829025167 -0.002825507423733616 0.0071281254054563759 0.0034742876433572789 0.0007320005941403784 -0.0022215848559136398 -0.0016268931217125276 0.0077395398091287052 0.0017899836772278291 -0.0019568746854196311 -0.0025948360744997932 -0.0043417679164263669 -0.00083519005279958955 0.0048735149612812645 0.0039464221781077367
leaf_weight=2210 2201 685 1056 4949 2200 2211 3552 4777 3738 3649 925 1348 1676 1879 2495 1073 401 4197 2674 2270 109 521 1704 1659 2313 203 400 115 369 1235 764 1944 2329 639 2550 3067 136 1367 93 734 5360 2318 4030 191 303 43
leaf_count=2210 2201 685 1056 4949 2200 2211 3552 4777 3738 3649 925 1348 1676 1879 2495 1073 401 4197 2674 2270 109 521 1704 1659 2313 203 400 115 369 1235 764 1944 2329 639 2550 3067 136 1367 93 734 5360 2318 4030 191 303 43
internal_value=1.60253e-07 -0.00248661 0.00300701 0.0017556 -0.00127054 0.00517099 -0.00449758 -0.00185947 0.000719061 0.0031902 0.0007037 -0.0037495 0.00413285 -0.00578973 0.00273704 0.00705373 0.00493526 -0.00118957 -0.00261002 -0.00400166 -0.000152143 -6.89907e-05 0.00758972 0.000238394 0.00454442 -0.00710777 -0.00142647 -0.00198191 0.000285953 0.00220691 -0.00515173 0.00327497 -0.00365144 0.00563978 0.00410646 0.0013806 -0.000260902 -0.000503414 0.00341894 0.00115761 -0.00163882 -0.00325171 -0.00400796 -0.00378103 0.00265863 -0.00221028
internal_weight=84662 46338 38324 24284 28878 14040 17460 22244 14100 10184 6634 11062 9053 6398 8088 4987 2096 11757 10487 9977 6084 4381 3914 3860 7074 2082 1085 5304 484 2253 4316 5593 7707 1695 4863 8016 5975 5105 1018 870 7560 5183 5378 2865 1979 4820
internal_count=84662 46338 38324 24284 28878 14040 17460 22244 14100 10184 6634 11062 9053 6398 8088 4987 2096 11757 10487 9977 6084 4381 3914 3860 7074 2082 1085 5304 484 2253 4316 5593 7707 1695 4863 8016 5975 5105 1018 870 7560 5183 5378 2865 1979 4820
is_linear=0
shrinkage=0.03


Tree=13
num_leaves=47
num_cat=0
split_feature=22 22 22 19 20 19 22 19 22 26 22 19 9 20 20 26 26 22 22 26 19 7 6 22 26 26 20 5 20 5 5 19 5 6 22 9 20 3 29 29 23 28 20 25 6 6
split_gain=661.894 113.678 113.288 36.8706 34.6379 30.1432 13.661 12.344 9.39338 9.13617 8.6387 7.60583 7.47879 6.26657 5.6766 4.84993 4.57956 4.41625 4.38933 4.26743 5.8932 4.15273 3.85981 3.58227 3.1834 3.10387 2.97579 2.97563 2.76594 2.5052 2.47112 2.76376 2.44792 2.39952 2.38933 2.32849 2.27586 2.23439 2.20019 2.19376 2.17175 2.13905 2.01459 2.10254 1.91666 1.85519
threshold=76.250000000000014 46.250000000000007 107.75000000000001 65.250000000000014 72.050000000000011 46.45000000000001 127.95000000000002 93.550000000000011 20.850000000000005 72.500000000000014 59.550000000000004 67.90000000000002 61.500000000000007 40.850000000000001 71.050000000000011 46.500000000000007 32.500000000000007 87.050000000000011 98.750000000000014 56.500000000000007 98.550000000000011 52.500000000000007 66.500000000000014 93.65000000000002 71.500000000000014 31.500000000000004 115.25000000000001 78.500000000000014 47.250000000000007 71.500000000000014 52.500000000000007 97.550000000000011 89.500000000000014 56.500000000000007 63.050000000000004 78.000000000000014 117.55000000000001 1.0000000180025095e-35 66.500000000000014 77.500000000000014 0.13395000000000004 0.13395000000000004 100.65000000000002 2.0215000000000001 46.500000000000007 65.500000000000014
decision_type=8 10 10 8 8 8 10 10 10 2 10 10 2 10 8 2 2 10 10 2 10 2 2 8 2 2 10 2 10 2 2 8 2 2 10 2 10 2 2 2 10 10 8 2 2 2
left_child=1 5 4 13 12 8 14 18 -1 23 26 21 17 38 -4 30 29 27 22 20 -12 39 42 -9 32 35 41 -2 -14 33 31 -16 -24 -8 -15 -10 45 -23 -3 -7 -21 -5 43 -6 -44 -25
right_child=2 3 6 10 7 11 16 9 25 -11 19 -13 28 34 15 -17 -18 -19 -20 40 -22 37 24 36 -26 -27 -28 -29 -30 -31 -32 -33 -34 -35 -36 -37 -38 -39 -40 -41 -42 -43 44 -45 -46 -47
leaf_value=0.007980591189370773 0.0011094797305565864 0.0038549155208850083 -0.0017885468138591869 0.0016755073373699995 -0.00044249947252909469 0.0037200707341101288 -0.006037428489242623 -0.0021957954228757465 0.0056180999546028669 0.00053240677606270967 0.00030037891434531649 0.002586070179589269 0.0042800024635974033 0.0029288408711390965 -0.0030257140252115343 -0.0018706799489377592 -0.003494912496888524 -0.00087857706807930084 -0.002418557493935491 0.0011644385634819877 -0.0015096252515575822 0.0050962640143483381 -2.3026144499043579e-05 -0.0030988671706393008 0.0047108102827021249 0.0046079956949338849 -0.00042797045116499687 -0.0024468783762348675 0.0013130589697892511 -0.0074524210163840997 -0.0053573583021432657 -0.0044604270398541932 -0.006798957229734455 -0.0033645227322467637 0.0017546916947780605 0.0074087255639782475 -0.0039128662529130526 0.0080573005212091538 0.0070420687178176051 0.0069761617900711472 0.0051077087987610632 0.0047786016162546675 -0.0026491448422557551 -0.0019568020034558911 -0.00081354925161304203 -0.0014085900333531659
leaf_weight=2091 2750 3019 1010 4427 2779 3166 3070 5138 2272 792 5368 3624 542 3830 1643 765 669 2477 2148 1226 2316 731 2366 3102 126 1895 597 228 601 1081 1837 4860 48 346 2673 963 2780 351 212 201 140 210 1493 1178 789 732
leaf_count=2091 2750 3019 1010 4427 2779 3166 3070 5138 2272 792 5368 3624 542 3830 1643 765 669 2477 2148 1226 2316 731 2366 3102 126 1895 597 228 601 1081 1837 4860 48 346 2673 963 2780 351 212 201 140 210 1493 1178 789 732
internal_value=1.68459e-07 0.0028492 -0.00246948 0.00156158 -0.00140034 0.00487087 -0.00457283 -0.00194021 0.00627985 -0.00258254 0.000590927 0.00360958 0.000519659 0.00298544 -0.00393005 -0.00416705 -0.00582979 5.65853e-05 -0.00120238 2.94869e-05 -0.000244901 0.00444186 -0.000904228 -0.00279275 8.05278e-05 0.00558463 0.00156094 0.000835463 0.00272509 -0.00617562 -0.00437708 -0.00409893 -0.000161761 -0.00576864 0.00244702 0.00615419 -0.00325563 0.00606615 0.00406708 0.00391735 0.00157422 0.00181769 -0.00130557 -0.000894446 -0.00201644 -0.00277739
internal_weight=84662 39312 45350 24018 30069 15294 15281 23471 7221 12544 14284 8073 6598 9734 10115 9105 5166 5455 10927 9050 7684 4449 8779 11752 2540 5130 5234 2978 1143 4497 8340 6503 2414 3416 6503 3235 6614 1082 3231 3367 1366 4637 6239 3957 2282 3834
internal_count=84662 39312 45350 24018 30069 15294 15281 23471 7221 12544 14284 8073 6598 9734 10115 9105 5166 5455 10927 9050 7684 4449 8779 11752 2540 5130 5234 2978 1143 4497 8340 6503 2414 3416 6503 3235 6614 1082 3231 3367 1366 4637 6239 3957 2282 3834
is_linear=0
shrinkage=0.03


Tree=14
num_leaves=47
num_cat=0
split_feature=22 22 19 22 20 22 22 19 19 22 4 20 19 0 0 22 4 1 4 22 28 0 29 23 0 1 5 0 22 22 6 6 22 20 0 5 19 4 20 0 0 0 4 29 28 6
split_gain=622.937 111.567 102.458 38.208 33.0731 23.1245 16.6101 11.0105 9.50596 8.91926 7.75551 6.37781 5.9335 5.48472 5.24862 4.45571 4.33104 4.28451 4.2109 4.13614 3.91822 3.7566 3.55785 3.32595 3.18947 2.77271 2.73396 3.29318 2.64243 2.48756 2.35465 2.28322 2.18347 2.15698 2.07581 2.03579 2.34577 2.00506 1.99634 1.90104 1.88358 1.81753 1.80022 1.77833 1.76309 1.75367
threshold=75.050000000000011 104.55000000000001 47.750000000000007 52.550000000000004 72.050000000000011 34.95000000000001 124.45000000000002 97.100000000000009 83.100000000000009 26.550000000000004 44.500000000000007 68.050000000000011 84.550000000000011 1.0000000180025095e-35 1.0000000180025095e-35 57.850000000000001 47.500000000000007 1.0000000180025095e-35 30.500000000000004 93.65000000000002 0.21110000000000004 1.0000000180025095e-35 1.0000000180025095e-35 0.18335000000000004 1.0000000180025095e-35 1.0000000180025095e-35 78.500000000000014 1.0000000180025095e-35 13.850000000000003 66.750000000000014 63.500000000000007 60.500000000000007 84.850000000000009 104.85000000000001 1.0000000180025095e-35 69.500000000000014 114.55000000000001 72.500000000000014 42.050000000000004 1.0000000180025095e-35 1.0000000180025095e-35 1.0000000180025095e-35 55.500000000000007 65.500000000000014 0.15480000000000002 56.500000000000007
decision_type=8 10 8 10 8 10 10 10 10 10 2 8 10 2 2 10 2 2 2 8 10 2 2 8 2 2 2 2 10 10 2 2 8 10 2 2 10 2 10 2 2 2 2 2 10 2
left_child=2 4 5 9 10 14 11 16 29 21 22 25 24 18 28 34 32 31 -8 26 35 33 -2 38 37 -3 44 -28 -1 -5 -26 -13 -6 -4 -7 36 -10 -11 -12 -37 -34 42 -21 -17 -9 -15
right_child=1 6 3 8 7 15 13 19 20 12 23 17 -14 45 -16 43 -18 -19 -20 41 -22 -23 -24 -25 30 -27 27 -29 -30 -31 -32 -33 40 -35 -36 39 -38 -39 -40 -41 -42 -43 -44 -45 -46 -47
leaf_value=0.0085842697522208102 0.00019799954472868086 -0.00021939490436578279 0.005916032054447057 0.001785998249280517 -0.00067945868236927954 0.005261591299730424 -0.0065407188694182102 -0.0021365203020865219 -9.3576630942001837e-05 0.0033306040881917478 0.0027956585068791345 -0.0036913565371701268 0.0014718691784638715 -0.004540881052112063 0.0048121425426012592 0.0028424814333825369 -0.00012532450192608293 -0.0049062424171721318 -0.004355819301025925 -0.0037699776904116045 0.0054587352213873097 0.0021270969901676156 -0.0021939830207805926 0.0042050744222076756 0.00116701663249949 -0.0035408816715381047 -0.0041257941681763222 0.0016658225155725753 0.0067529952944673389 0.00074129502795180493 0.0030766604102327438 -0.002425617333492204 -0.0021992234564779966 0.0021420451931727048 0.0040392055223254794 -0.0021520751523547363 -0.0015465166410644439 0.0049437467064863076 0.00086503651013600182 0.0016911258424708276 -0.0011574639233514943 -0.0024295657027458496 -0.00073110367557111997 0.0065152540659810607 0.0038808054282880307 -0.002204331657568206
leaf_weight=1025 3050 708 1444 5459 2403 2245 3427 4777 3738 3137 664 6079 2573 1547 1017 2422 2962 2285 1058 2674 109 357 684 448 975 333 115 369 2627 3309 1468 1657 3588 155 2989 136 1367 912 1788 734 2804 2318 191 126 43 366
leaf_count=1025 3050 708 1444 5459 2403 2245 3427 4777 3738 3137 664 6079 2573 1547 1017 2422 2962 2285 1058 2674 109 357 684 448 975 333 115 369 2627 3309 1468 1657 3588 155 2989 136 1367 912 1788 734 2804 2318 191 126 43 366
internal_value=1.7006e-07 -0.00234004 0.00282981 0.00175346 -0.00119521 0.0050659 -0.00423319 -0.00174967 0.000760003 0.00309178 0.000663445 -0.00352807 0.00269405 -0.00545111 0.00673642 0.00406251 -0.00111868 -0.00376041 -0.00602706 -0.00245662 -0.000150684 0.00493118 -0.000239834 0.00182721 0.00317768 -0.00128715 -0.00186556 0.00027786 0.00727001 0.0013922 0.00231654 -0.00342098 -0.00145283 0.00555364 0.004565 -0.000254413 -0.000483454 0.00369582 0.00139 0.00108512 -0.00174295 -0.00306042 -0.00356876 0.00302776 -0.00208142 -0.0040968
internal_weight=84662 46338 38324 25873 28878 12451 17460 22244 14852 11021 6634 11062 9065 6398 4669 7782 11757 10021 4485 10487 6084 1956 3734 2900 6492 1041 5304 484 3652 8768 2443 7736 8795 1599 5234 5975 5105 4049 2452 870 6392 5183 2865 2548 4820 1913
internal_count=84662 46338 38324 25873 28878 12451 17460 22244 14852 11021 6634 11062 9065 6398 4669 7782 11757 10021 4485 10487 6084 1956 3734 2900 6492 1041 5304 484 3652 8768 2443 7736 8795 1599 5234 5975 5105 4049 2452 870 6392 5183 2865 2548 4820 1913
is_linear=0
shrinkage=0.03


Tree=15
num_leaves=47
num_cat=0
split_feature=19 19 9 24 24 9 24 5 26 26 5 19 3 6 19 19 5 19 26 29 19 9 26 7 29 6 2 7 24 5 29 5 2 19 24 3 16 5 5 23 26 29 29 29 16 26
split_gain=404.316 99.3466 55.629 45.9019 38.6674 22.5005 18.3156 21.345 17.4015 14.6296 14.3392 13.7042 11.0114 7.81599 7.79727 7.4845 6.82701 6.17271 5.47459 5.4259 5.23916 5.17326 4.48439 4.28005 4.19081 4.01269 3.77034 3.75396 3.71702 3.62259 3.57866 3.07877 3.00585 2.97661 2.82336 2.72939 2.57432 2.48557 2.33219 2.32944 2.32542 2.28541 2.27722 2.5858 2.15095 2.06252
threshold=62.900000000000006 94.550000000000011 72.500000000000014 0.13395000000000004 1.0000000180025095e-35 42.500000000000007 1.0000000180025095e-35 60.500000000000007 31.500000000000004 53.500000000000007 73.500000000000014 119.55000000000001 1.0000000180025095e-35 61.500000000000007 39.900000000000006 42.45000000000001 81.500000000000014 80.100000000000009 60.500000000000007 52.500000000000007 68.250000000000014 85.500000000000014 82.500000000000014 30.500000000000004 41.500000000000007 56.500000000000007 1.0000000180025095e-35 76.000000000000014 0.26785000000000009 88.500000000000014 -1.0000000180025095e-35 88.500000000000014 1.0000000180025095e-35 38.45000000000001 0.18335000000000004 1.0000000180025095e-35 1.0000000180025095e-35 49.500000000000007 90.500000000000014 0.18335000000000004 51.500000000000007 42.500000000000007 1.0000000180025095e-35 26.500000000000004 1.0000000180025095e-35 61.500000000000007
decision_type=8 10 2 10 10 2 10 2 2 2 2 10 2 2 10 10 2 8 2 2 10 2 2 2 2 2 2 2 8 2 2 2 2 10 10 2 2 2 2 10 2 2 2 2 2 2
left_child=2 4 6 9 5 16 7 15 28 10 11 13 21 37 30 -1 17 42 31 20 23 34 -18 35 36 41 39 -14 -4 32 -8 -9 40 -10 -6 -7 -17 -3 -11 -5 -22 -13 -2 -44 45 -19
right_child=1 3 8 26 12 19 14 18 33 38 -12 25 27 -15 -16 24 22 44 -20 -21 29 -23 -24 -25 -26 -27 -28 -29 -30 -31 -32 -33 -34 -35 -36 -37 -38 -39 -40 -41 -42 -43 43 -45 -46 -47
leaf_value=0.0031445091853139246 -0.00026252130245792474 -0.0026290743673196737 0.0058457341534249351 0.0012145343144446678 0.00053852851260024679 0.00060575902407897372 0.0077020664605730359 -0.0016019768274054072 0.0044834772957464799 -0.00090316293949285124 -0.0058698631628429912 -0.0042790739382194982 0.0038407297358127126 -0.0010303243652331593 0.0027034132003451307 0.00073540297891548027 -0.0053658006805907925 -0.0020710139945510067 0.001728521304373356 0.0023851882391868612 -0.0010535861550470262 0.0045483160318579349 0.0012099786300720139 0.0018030527763442795 0.0033485114903755429 -0.0026360944383648716 -0.0015160040797124129 0.0086853628884043504 0.0077663803916783901 -0.004745607280870234 0.0044452209567304784 -0.005079412819924408 0.0010689606392338599 0.002457522893164157 0.0018227498409860187 -0.0023420708838970783 0.0021662060085065539 -0.0042679644410429669 0.0039178523487470888 0.0035736182060349926 0.001030408369789654 -2.6256713015816597e-05 -0.0059167078602965504 -0.0011909879209426601 -0.00030045218246875781 0.00070806930811796709
leaf_weight=4221 4310 8893 1710 1609 3292 841 353 989 2029 2199 1704 7217 464 2988 3326 3669 608 7690 367 1067 3234 429 109 2221 946 1838 367 213 2041 174 2407 300 1050 981 2912 424 1644 929 93 495 564 117 132 498 752 246
leaf_count=4221 4310 8893 1710 1609 3292 841 353 989 2029 2199 1704 7217 464 2988 3326 3669 608 7690 367 1067 3234 429 109 2221 946 1838 367 213 2041 174 2407 300 1050 981 2912 424 1644 929 93 495 564 117 132 498 752 246
internal_value=1.77896e-07 -0.00134116 0.00320439 -0.00262358 -0.000172792 -0.000756444 0.00234158 0.00166736 0.00552865 -0.00299526 -0.00321675 -0.00301069 0.00173648 -0.00237591 0.00368505 0.00216759 -0.00150817 -0.00135751 -0.00149594 0.000369492 0.000116098 0.0013634 -0.00436166 0.00100977 0.00150789 -0.00389657 0.00128237 0.00537995 0.00689339 -0.000503718 0.00486549 -0.00241695 -0.000349906 0.00382522 0.00114199 -0.000380988 0.00117902 -0.00278481 -0.000704614 0.00177241 -0.000743135 -0.00421165 -0.000509807 -0.0021937 -0.00183905 -0.00198441
internal_weight=84662 59679 24983 28449 31230 23920 18222 12136 6761 25978 23686 21982 7310 12810 6086 10480 14345 13628 1656 9575 8508 6633 717 3486 6259 9172 2471 677 3751 5022 2760 1289 4848 3010 6204 1265 5313 9822 2292 2104 3798 7334 4940 630 8688 7936
internal_count=84662 59679 24983 28449 31230 23920 18222 12136 6761 25978 23686 21982 7310 12810 6086 10480 14345 13628 1656 9575 8508 6633 717 3486 6259 9172 2471 677 3751 5022 2760 1289 4848 3010 6204 1265 5313 9822 2292 2104 3798 7334 4940 630 8688 7936
is_linear=0
shrinkage=0.03


Tree=16
num_leaves=47
num_cat=0
split_feature=20 20 4 24 24 4 0 19 26 4 5 3 19 24 5 24 5 26 5 19 4 20 0 4 4 26 29 6 26 29 25 25 8 26 0 29 20 6 19 16 8 19 5 24 16 6
split_gain=383.376 87.3351 55.2389 39.412 35.214 24.3235 19.9185 19.6747 13.5814 15.5369 11.4818 10.3492 9.81625 8.09339 10.7972 6.31396 8.60199 6.29903 8.8259 6.41992 5.94669 5.82387 4.74725 4.434 4.29093 3.87489 3.56757 3.71575 4.7275 3.53784 3.40482 3.1149 3.09759 3.06249 2.81641 2.81145 2.90772 3.62709 2.49018 2.47218 2.47049 2.43506 2.36634 2.14875 2.12133 2.65217
threshold=68.550000000000011 95.15000000000002 70.500000000000014 0.13395000000000004 1.0000000180025095e-35 46.500000000000007 1.0000000180025095e-35 40.45000000000001 54.500000000000007 42.500000000000007 68.500000000000014 1.0000000180025095e-35 122.65000000000002 1.0000000180025095e-35 61.500000000000007 1.0000000180025095e-35 66.500000000000014 61.500000000000007 75.500000000000014 85.100000000000009 89.500000000000014 41.45000000000001 1.0000000180025095e-35 88.500000000000014 44.500000000000007 67.500000000000014 -1.0000000180025095e-35 69.500000000000014 75.500000000000014 -1.0000000180025095e-35 2.0215000000000001 2.0215000000000001 28.500000000000004 84.500000000000014 1.0000000180025095e-35 56.500000000000007 72.050000000000011 84.500000000000014 31.550000000000004 0.45000000000000007 32.500000000000007 50.100000000000009 80.500000000000014 0.43650000000000005 1.0000000180025095e-35 46.500000000000007
decision_type=8 10 2 10 10 2 2 10 2 2 2 2 10 10 2 10 2 2 2 8 2 10 2 2 2 2 2 2 2 2 2 2 2 2 2 2 10 2 10 2 2 10 2 10 2 2
left_child=2 4 7 8 5 17 20 13 9 10 12 23 31 14 -1 16 24 18 19 30 38 -8 44 26 32 -18 -6 -28 42 -15 40 39 -9 -5 -16 36 37 -7 -4 -3 -2 -20 -29 -13 45 -11
right_child=1 3 6 33 11 35 21 15 -10 22 -12 43 -14 29 34 -17 25 -19 41 -21 -22 -23 -24 -25 -26 -27 27 28 -30 -31 -32 -33 -34 -35 -36 -37 -38 -39 -40 -41 -42 -43 -44 -45 -46 -47
leaf_value=0.0030900898935777854 0.00022622854508678092 -0.0024834871163374093 0.0064939894974482132 0.00047746065471403518 0.004409690317951122 0.0005651436258020656 0.004172221652162098 0.00096916998392217407 -0.00064070913561319217 0.0045969558859243987 -0.0058123680671698513 0.0041045606864711873 -0.0041982757705921791 0.0074290453148736389 -0.0029338348182884259 0.0023471649349472439 -0.0026967163976572184 0.0012222300017375534 -0.0014799389303414385 -0.0019725987212507916 0.0072159534163369361 0.0017561793390346503 -0.0026935809864576743 0.0041091828343133114 0.0019971065040761959 0.0022185605820456904 0.00013369977189962786 0.0013713657469525378 0.0044044213689664663 0.0042044142488497343 -0.0017672780819327611 -0.0035385067554365994 -0.0010295119587370725 0.0028676870628536375 0.0023882944484551749 0.0023806097305917578 -9.4884090457841204e-05 0.0031550248486978266 0.0044102067443753563 0.00064853168287975994 -0.0014931000767352176 -0.0048325501890492317 -0.0026840894868490187 0.0078819312772299803 2.2098588564393048e-07 -0.0018123963850557566
leaf_weight=3339 3185 7452 787 1614 272 1818 2430 3573 2210 59 1767 452 6397 362 375 3666 792 745 253 7374 2441 1436 2370 467 3395 175 2769 1825 481 2170 1716 2960 865 690 116 803 3315 666 1610 232 983 911 138 201 1323 1682
leaf_count=3339 3185 7452 787 1614 272 1818 2430 3573 2210 59 1767 452 6397 362 375 3666 792 745 253 7374 2441 1436 2370 467 3395 175 2769 1825 481 2170 1716 2960 865 690 116 803 3315 666 1610 232 983 911 138 201 1323 1682
internal_value=1.89701e-07 -0.00140122 0.00290822 -0.00256634 -0.000220252 -0.000802499 0.00488475 0.00199411 -0.00289415 -0.00309942 -0.00350782 0.00169812 -0.00326836 0.00335184 0.00247904 0.00130075 0.000864265 -0.00146415 -0.0016032 -0.00138274 0.00616852 0.00327626 -0.00168494 0.00130359 0.00119408 -0.00180272 0.00106346 0.000887477 0.00173986 0.00466937 -0.000642797 -0.00270886 0.000578792 0.00119552 -0.00166807 0.000717064 0.000485821 0.00126173 0.00509804 -0.00238846 -0.000178807 -0.00410832 0.00108352 0.00528213 -0.000903149 -0.00159096
internal_weight=84662 57130 27532 28756 28374 21769 8704 18828 26452 24242 18808 6605 17041 6362 3830 12466 8800 15167 14422 13258 4838 3866 5434 5952 7833 967 5485 5213 2444 2532 5884 10644 4438 2304 491 6602 5799 2484 2397 7684 4168 1164 1963 653 3064 1741
internal_count=84662 57130 27532 28756 28374 21769 8704 18828 26452 24242 18808 6605 17041 6362 3830 12466 8800 15167 14422 13258 4838 3866 5434 5952 7833 967 5485 5213 2444 2532 5884 10644 4438 2304 491 6602 5799 2484 2397 7684 4168 1164 1963 653 3064 1741
is_linear=0
shrinkage=0.03


Tree=17
num_leaves=47
num_cat=0
split_feature=22 22 22 19 19 19 22 19 22 22 26 4 26 4 19 26 19 19 26 26 22 20 9 27 20 26 5 19 22 5 5 9 22 26 7 4 19 5 22 4 26 4 29 26 22 4
split_gain=538.758 94.1498 91.8907 31.5376 26.2426 19.4046 11.6908 11.6779 10.4304 9.09954 7.48645 5.58037 5.24342 5.00458 4.20162 4.50026 4.1813 4.07165 3.98291 3.35952 3.19403 2.97946 2.96655 2.85525 2.79569 2.71436 2.71247 3.2757 2.53076 2.47931 2.23861 2.20663 2.12359 2.11763 2.04812 1.8941 1.86791 1.85412 1.8395 1.82211 1.77505 1.97516 1.7439 1.71217 1.63028 1.59115
threshold=76.250000000000014 107.75000000000001 42.650000000000013 58.250000000000007 59.900000000000006 58.250000000000007 130.25000000000003 92.100000000000009 59.550000000000004 20.850000000000005 60.500000000000007 47.500000000000007 46.500000000000007 51.500000000000007 82.550000000000011 73.500000000000014 30.900000000000002 104.55000000000001 28.500000000000004 61.500000000000007 96.050000000000011 111.45000000000002 78.000000000000014 -1.0000000180025095e-35 115.25000000000001 31.500000000000004 74.500000000000014 59.250000000000007 61.750000000000007 40.500000000000007 73.500000000000014 89.500000000000014 20.850000000000005 82.500000000000014 81.500000000000014 28.500000000000004 84.550000000000011 71.500000000000014 87.850000000000009 33.500000000000007 42.500000000000007 29.500000000000004 -1.0000000180025095e-35 30.500000000000004 78.250000000000014 27.500000000000004
decision_type=8 10 10 8 8 10 10 10 10 10 2 2 2 2 10 2 10 10 2 2 8 10 2 2 10 2 2 8 10 2 2 2 10 2 2 2 10 2 10 2 2 2 2 2 10 2
left_child=2 4 5 16 13 9 12 11 24 34 21 19 17 29 -10 -16 -4 26 37 20 -6 30 25 -7 33 -11 27 -3 -18 -2 -9 44 -25 36 43 -21 -5 42 -13 -35 41 -31 -8 -1 -15 -27
right_child=1 6 3 8 7 23 18 10 14 22 -12 38 -14 31 15 -17 28 -19 -20 35 -22 -23 -24 32 -26 45 -28 -29 -30 40 -32 -33 -34 39 -36 -37 -38 -39 -40 -41 -42 -43 -44 -45 -46 -47
leaf_value=0.0065780002531317799 0.00087823534222651405 -0.00064719603924626547 0.0040928470258869126 0.0020725305620109156 -0.00097872818767781047 0.0012764833429757816 -0.0069351933540758139 -0.0018543245907454947 0.00079635828624450764 0.0047093774080683012 -0.00011153976676670891 0.0006851048440026659 -0.0013666022533284229 0.0035716502763974219 -0.00072604642347816719 0.0022253217864732174 0.0030677508956252412 -0.0044290841958061029 -0.0031504154195970361 -0.0014464855390614359 -0.0021396404260301633 -0.0029700830539855119 0.0056558462867662886 0.004987430906832702 -0.00010558477434991727 -0.0020901597415351053 -0.004761313501916639 -0.003206685941314773 0.001842910242323642 -0.0043853141750949147 -0.0042756522412934162 0.0063646772095463534 0.0028975435850356907 0.0021567518325038967 0.0081490345691380209 0.0021189123681554243 0.00093442631320774547 -0.0069619806194225892 -0.00076672074607526844 0.0057140496429987251 0.0010534421240866538 -0.00087538978264707905 -0.0050375494381034273 0.0031624224884250502 0.0013076398602807852 0.0031562460245314868
leaf_weight=1707 1627 516 2358 4117 4822 825 561 5428 5155 3212 1322 1939 867 387 4516 517 4142 4871 601 206 3850 5923 2290 542 708 54 852 3722 2433 178 369 106 2451 311 818 377 1916 957 1318 229 314 769 2334 150 1134 861
leaf_count=1707 1627 516 2358 4117 4822 825 561 5428 5155 3212 1322 1939 867 387 4516 517 4142 4871 601 206 3850 5923 2290 542 708 54 852 3722 2433 178 369 106 2451 311 818 377 1916 957 1318 229 314 769 2334 150 1134 861
internal_value=2.14159e-07 -0.0022279 0.00257061 0.0015561 -0.00125323 0.00464485 -0.00414537 -0.0016258 0.000814336 0.00539902 -0.00225412 -0.000970498 -0.00361171 0.000854644 0.000194248 -0.000421898 0.00300608 -0.00380666 -0.00544126 -0.00134633 -0.00149466 -0.00249551 0.00478303 0.00284717 0.00168144 0.00429674 -0.00320968 -0.00289599 0.00261532 0.000103697 -0.00200968 0.00218488 0.00327854 0.00187437 0.00687325 0.000853641 0.0017118 -0.005797 9.66233e-05 0.00367863 -0.000893175 -0.00154222 -0.00540858 0.00630557 0.00188763 0.0028414
internal_weight=84662 45350 39312 26402 30069 12910 15281 25554 17469 9092 13042 12512 10828 4515 10188 5033 8933 9961 4453 9255 8672 11720 6417 3818 7281 4127 5090 4238 6575 2888 5797 1627 2993 6573 2675 583 6033 3852 3257 540 1261 947 2895 1857 1521 915
internal_count=84662 45350 39312 26402 30069 12910 15281 25554 17469 9092 13042 12512 10828 4515 10188 5033 8933 9961 4453 9255 8672 11720 6417 3818 7281 4127 5090 4238 6575 2888 5797 1627 2993 6573 2675 583 6033 3852 3257 540 1261 947 2895 1857 1521 915
is_linear=0
shrinkage=0.03


Tree=18
num_leaves=47
num_cat=0
split_feature=20 20 9 24 24 4 20 0 3 4 29 24 5 20 29 4 29 29 4 20 25 20 5 6 29 5 20 24 0 5 29 0 20 29 24 21 0 6 16 24 6 5 9 5 20 16
split_gain=340.36 75.2153 52.1205 33.3665 32.0249 22.7821 17.6594 16.3493 10.2905 10.2711 9.69378 8.59218 9.23064 6.66854 6.36213 6.29917 5.85035 8.42697 4.71872 4.65721 4.33996 4.32297 4.07019 4.02268 4.06314 3.95498 3.70147 3.64922 3.44061 4.28178 3.41168 3.35072 3.12813 2.90975 2.79382 3.03265 2.55643 2.54053 2.48456 2.43206 2.40007 2.28451 2.25438 2.15945 2.14566 2.0732
threshold=69.550000000000011 98.250000000000014 70.500000000000014 0.13395000000000004 1.0000000180025095e-35 46.500000000000007 43.250000000000007 1.0000000180025095e-35 1.0000000180025095e-35 42.500000000000007 1.0000000180025095e-35 1.0000000180025095e-35 61.500000000000007 121.05000000000001 1.0000000180025095e-35 26.500000000000004 46.500000000000007 1.0000000180025095e-35 26.500000000000004 33.95000000000001 2.0215000000000001 41.45000000000001 47.500000000000007 68.500000000000014 -1.0000000180025095e-35 47.500000000000007 86.550000000000011 1.0000000180025095e-35 1.0000000180025095e-35 60.500000000000007 -1.0000000180025095e-35 1.0000000180025095e-35 78.050000000000011 74.500000000000014 0.35415000000000002 1.0000000180025095e-35 1.0000000180025095e-35 54.500000000000007 0.25000000000000006 0.35415000000000002 82.500000000000014 77.500000000000014 85.500000000000014 66.500000000000014 71.050000000000011 0.45000000000000007
decision_type=8 10 2 10 10 2 10 2 2 2 2 10 2 10 2 2 2 2 2 10 2 10 2 2 2 2 8 10 2 2 2 2 10 2 10 2 2 2 2 10 2 2 2 2 10 2
left_child=2 4 6 9 5 14 11 19 23 10 13 12 -1 28 20 -16 17 27 -12 -4 26 -9 -17 24 -6 -19 -2 38 43 -30 -13 -11 40 -34 35 44 -14 -22 -8 -5 -7 -20 -21 45 -25 -3
right_child=1 3 7 39 8 32 16 21 -10 31 18 30 36 -15 15 22 -18 25 41 42 37 -23 -24 34 -26 -27 -28 -29 29 -31 -32 -33 33 -35 -36 -37 -38 -39 -40 -41 -42 -43 -44 -45 -46 -47
leaf_value=0.002795258581829458 -0.00011931415663858171 -0.0027648718583951582 0.0071158701576675585 0.00049582712664811019 0.0038107318449802866 0.00069498763999645112 0.00060196147138211989 0.0040428429851255224 0.004996971630093809 -0.00091627947499173246 -0.0064954398720403822 0.0071026822547996188 -0.0024505842565558851 -0.0035611540146715235 -0.0061407873659492388 -0.00017186104096400447 0.0029781049149976467 0.00088770936418272703 -0.0033554144020308445 0.0041962377316632129 -0.0022718588090757481 0.0017692676553299053 -0.0031950993710036599 0.0030876836031348076 2.8844943604133229e-05 -0.0028891756894147149 -0.0013506779959954549 0.0021097584928583416 -0.0021596888968767173 0.00029135907068307142 0.0039874835423071141 -0.0024340362574663777 -0.0002663372685487046 0.0038930025790282086 0.0039412122827734873 -0.0033468924861767197 0.0024333159012087215 -0.00059507544430769874 0.0018655173200740989 0.0027730466184602118 0.0023921939349763172 -0.0060512341041255788 0.0061756371252337542 -0.0046790357776989484 0.0011120898738928413 0.0018277905341548225
leaf_weight=3825 3792 4042 2029 1441 279 2449 5588 2205 672 2717 960 368 428 7084 447 615 1592 393 1477 1177 4035 1155 1162 706 2963 676 5242 3380 3703 773 2473 2545 3145 158 496 111 123 1026 1875 599 1086 357 970 549 1685 89
leaf_count=3825 3792 4042 2029 1441 279 2449 5588 2205 672 2717 960 368 428 7084 447 615 1592 393 1477 1177 4035 1155 1162 706 2963 676 5242 3380 3703 773 2473 2545 3145 158 496 111 123 1026 1875 599 1086 357 970 549 1685 89
internal_value=2.17031e-07 -0.00134607 0.00268766 -0.00251663 -0.000320681 -0.000855654 0.00191024 0.0048243 0.00147105 -0.00282608 -0.00315061 0.00310848 0.00227212 -0.00286898 -0.00146479 -0.00295678 0.00126946 0.00104062 -0.00478489 0.00607875 -0.00122897 0.00326295 -0.00215116 0.00109011 0.000356306 -0.00149833 -0.000834218 0.00129133 -0.00233279 -0.00173576 0.00439441 -0.00165125 0.00059762 -6.5348e-05 0.00188226 0.00147148 -0.00135248 -0.00193271 0.000920026 0.00116698 0.00121777 -0.00388482 0.00509437 -0.00290266 0.00169773 -0.00266478
internal_weight=84662 56405 28257 26336 30069 23157 20721 7536 6912 24296 19034 7217 4376 16240 16319 2224 13504 11912 2794 4176 14095 3360 1777 6240 3242 1069 9034 10843 9156 4476 2841 5262 6838 3303 2998 2502 551 5061 7463 2040 3535 1834 2147 4680 2391 4131
internal_count=84662 56405 28257 26336 30069 23157 20721 7536 6912 24296 19034 7217 4376 16240 16319 2224 13504 11912 2794 4176 14095 3360 1777 6240 3242 1069 9034 10843 9156 4476 2841 5262 6838 3303 2998 2502 551 5061 7463 2040 3535 1834 2147 4680 2391 4131
is_linear=0
shrinkage=0.03


Tree=19
num_leaves=47
num_cat=0
split_feature=22 22 22 19 19 22 19 22 22 1 20 26 9 26 26 19 4 26 19 26 22 4 5 4 9 26 20 22 19 19 22 19 7 26 20 19 9 19 6 4 5 20 19 19 7 19
split_gain=486.169 89.8272 78.5125 26.4958 21.9235 20.6474 17.1041 8.59716 8.10581 7.25249 6.60787 5.12034 4.08381 4.03061 4.01939 3.99536 3.79666 3.7774 3.63183 3.52847 3.22044 3.06402 2.97492 2.78895 2.53688 2.5591 2.50704 2.24394 2.1509 1.98149 1.97268 1.88281 1.87357 1.84945 1.82974 1.80902 1.8064 1.78707 1.72981 1.72656 1.69497 1.66783 1.66567 1.65309 1.63931 1.5984
threshold=75.050000000000011 99.550000000000011 42.650000000000013 55.100000000000009 72.100000000000009 115.55000000000001 58.250000000000007 59.550000000000004 20.850000000000005 1.0000000180025095e-35 110.05000000000001 60.500000000000007 70.500000000000014 71.500000000000014 45.500000000000007 104.10000000000001 29.500000000000004 44.500000000000007 65.90000000000002 66.500000000000014 63.050000000000004 46.500000000000007 88.500000000000014 41.500000000000007 78.000000000000014 31.500000000000004 115.25000000000001 86.65000000000002 98.100000000000009 99.100000000000009 130.25000000000003 71.550000000000011 81.500000000000014 82.500000000000014 50.050000000000004 84.550000000000011 78.000000000000014 51.250000000000007 42.500000000000007 33.500000000000007 83.500000000000014 53.750000000000007 28.100000000000005 90.100000000000009 83.500000000000014 93.550000000000011
decision_type=8 10 10 8 8 10 10 10 10 2 10 2 2 2 2 10 2 2 10 2 10 2 2 2 2 2 10 10 10 10 10 8 2 2 10 10 2 8 2 2 2 8 10 10 2 8
left_child=2 4 6 20 12 11 8 26 32 14 17 15 22 -12 30 21 -11 23 -9 28 42 -3 27 45 25 -10 33 -2 -20 -8 31 -7 -1 43 -14 -13 -22 -16 -19 -35 -18 -23 -4 -5 -31 -6
right_child=1 5 3 7 10 9 29 18 24 16 13 35 34 -15 37 -17 40 38 19 -21 36 41 -24 -25 -26 -27 -28 -29 -30 44 -32 -33 -34 39 -36 -37 -38 -39 -40 -41 -42 -43 -44 -45 -46 -47
leaf_value=0.0059618508245728322 0.00092602944244889662 -0.0025441348672300022 0.0042574036868128105 0.0019098617403106005 -0.0010850655467266681 -0.0016806097862854391 0.0031068140140023451 0.0012470748779511477 0.0044823466958985028 -0.0062889901746709734 -0.0025146190242052581 0.004031445763244529 0.0042582848300137454 0.00049961483317446703 0.0061198738950490952 -0.0034278294875139241 -0.0029804481293552697 -0.0024971861260921456 0.00011366883842194162 0.0018027022236870511 0.0016894573269434943 0.0018375488023778331 -0.0034123838808960637 -0.00053119226590744059 0.0053395421845335786 0.00266879886318024 -6.8669619334254769e-05 -0.00028712079978144396 -0.0010380024448603034 0.0011256569180866257 -0.004786198199116346 -0.0039339676048784963 0.0077252147370137471 0.0020040777742349595 0.001068893931356889 -0.00047757662913738554 0.0041403216030830607 -0.0020313515670131893 0.00032604736442310675 0.005424196600996873 -0.0058005471360704063 -0.0013076806273771592 0.0030591070000688127 0.00074608172145978579 0.0057402040253111504 -0.001976171581630496
leaf_weight=1857 3733 4833 1435 5077 3256 375 2886 2619 3212 2304 4974 102 367 432 24 4142 578 214 4093 812 1985 178 181 3263 2290 915 708 2164 2264 857 2695 3646 818 318 296 356 316 665 2127 235 297 977 4136 1416 75 4159
leaf_count=1857 3733 4833 1435 5077 3256 375 2886 2619 3212 2304 4974 102 367 432 24 4142 578 214 4093 812 1985 178 181 3263 2290 915 708 2164 2264 857 2695 3646 818 318 296 356 316 665 2127 235 297 977 4136 1416 75 4159
internal_value=2.24763e-07 -0.00206718 0.00250002 0.00153194 -0.000855449 -0.00350725 0.00440522 0.000882712 0.00511331 -0.00444477 -0.00139106 -0.00256947 0.000608074 -0.00227315 -0.0039277 -0.00270979 -0.00564666 -0.00102441 0.000291165 -5.77571e-05 0.00297801 -0.00221211 0.000363402 -0.00126367 0.00453183 0.00408173 0.00162891 0.000480362 -0.000296118 0.00271732 -0.00415195 -0.00372503 0.00650488 0.0017999 0.00284264 0.000526676 0.00202899 -0.00173461 6.57275e-05 0.00347006 -0.00394662 -0.000819196 0.00336902 0.00165668 0.00150597 -0.00158548
internal_weight=84662 46338 38324 25414 25166 21172 12910 17542 9092 10584 18425 10588 6741 5406 7405 10130 3179 13019 9788 7169 7872 5988 6078 10678 6417 4127 7754 5897 6357 3818 6716 4021 2675 7046 663 458 2301 689 2341 553 875 1155 5571 6493 932 7415
internal_count=84662 46338 38324 25414 25166 21172 12910 17542 9092 10584 18425 10588 6741 5406 7405 10130 3179 13019 9788 7169 7872 5988 6078 10678 6417 4127 7754 5897 6357 3818 6716 4021 2675 7046 663 458 2301 689 2341 553 875 1155 5571 6493 932 7415
is_linear=0
shrinkage=0.03


Tree=20
num_leaves=47
num_cat=0
split_feature=22 22 22 19 19 19 0 19 0 26 22 22 22 0 22 19 19 19 22 22 6 26 19 26 26 22 22 20 19 19 19 8 23 19 26 8 26 26 26 29 29 6 20 20 24 8
split_gain=457.584 80.9374 77.85 22.6841 22.6679 20.4799 10.0207 9.9733 8.66381 6.73921 6.34797 5.98731 4.62433 4.4812 4.20223 3.96966 3.85926 3.40611 3.35355 3.20774 3.09439 3.07096 3.86075 2.59437 2.56053 2.29816 2.25118 2.11872 1.95828 1.92236 1.83943 1.81675 1.81302 1.72463 1.69824 1.84406 1.68045 1.67681 1.67492 1.64035 1.63977 1.62188 1.54369 1.50965 1.44786 1.36715
threshold=76.250000000000014 109.05000000000001 46.750000000000007 65.250000000000014 59.900000000000006 46.45000000000001 1.0000000180025095e-35 92.100000000000009 1.0000000180025095e-35 68.500000000000014 130.25000000000003 59.550000000000004 98.750000000000014 1.0000000180025095e-35 20.850000000000005 79.100000000000009 30.900000000000002 79.100000000000009 94.050000000000011 87.050000000000011 66.500000000000014 56.500000000000007 98.550000000000011 71.500000000000014 61.500000000000007 63.050000000000004 115.05000000000001 115.25000000000001 34.100000000000009 90.550000000000011 26.100000000000005 76.500000000000014 0.13395000000000004 122.65000000000002 31.500000000000004 23.500000000000004 86.500000000000014 51.500000000000007 40.500000000000007 71.500000000000014 77.500000000000014 46.500000000000007 113.05000000000001 64.050000000000011 0.13395000000000004 24.500000000000004
decision_type=8 10 10 8 8 10 2 10 2 2 10 10 10 2 10 8 10 10 8 10 2 2 10 2 2 10 10 10 8 8 8 2 10 10 2 2 2 2 2 2 2 2 10 10 10 2
left_child=2 4 5 16 19 8 10 12 14 18 26 27 20 17 -1 37 -4 40 -9 39 29 22 -13 43 33 -18 -3 36 -16 -6 -10 -15 45 -17 35 -21 -5 -8 -14 -2 -7 -31 -20 -22 -45 -23
right_child=1 6 3 11 7 13 15 9 30 -11 -12 21 38 31 28 24 25 -19 42 34 23 32 -24 -25 -26 -27 -28 -29 -30 41 -32 -33 -34 -35 -36 -37 -38 -39 -40 -41 -42 -43 -44 44 -46 -47
leaf_value=0.0066987061360542595 0.001342745127657052 -0.0030611531069304888 0.0036194909226145403 0.0013990317129889786 -0.00063267224359157153 0.0035966475678193329 -0.0011819912609507335 -0.0017161643398424613 0.0045259169943005885 0.00037779603655527152 -0.0055934108500043994 0.00026678371083603634 -0.0023605888880307117 0.0012371833138830103 0.0057881996049028881 -0.0028765841090229371 0.0025339575773779084 0.002235545742191777 -0.0022545963020520476 0.00018163086830391687 0.00090685917769336207 0.0040840691378323706 -0.0011982042865242739 0.0042053059682537631 -0.00033202464915812015 0.001466824129116141 -0.0043469038604161004 -0.00034386928526870727 0.0043699627887171912 -0.0022553799843653129 0.0029948482097646723 0.0036407940364182544 0.0045971213714318705 -0.0040641653725829834 0.0011152928580753848 -0.0020510852801975139 0.0036011899348519574 0.0038674578018147842 -0.00017497333282118498 0.0063008613483079021 0.0055301342878739425 -0.00058174140340100649 -0.0031456303559968613 -0.00034510421318194903 -0.0043992897850539843 0.00066506749376828351
leaf_weight=2174 2498 1869 1918 4159 4727 2512 560 5500 1250 923 3248 5368 2239 1767 1658 2789 4605 1746 3522 807 1014 116 2316 135 269 3039 3761 588 1984 1540 1702 339 140 1878 661 563 339 65 371 61 482 797 3595 1876 82 1110
leaf_count=2174 2498 1869 1918 4159 4727 2512 560 5500 1250 923 3248 5368 2239 1767 1658 2789 4605 1746 3522 807 1014 116 2316 135 269 3039 3761 588 1984 1540 1702 339 140 1878 661 563 339 65 371 61 482 797 3595 1876 82 1110
internal_value=2.3607e-07 -0.00205317 0.00236909 0.00128517 -0.00118676 0.00401383 -0.00390756 -0.00152604 0.00497444 -0.00209358 -0.00453389 0.00052146 -0.000924454 0.00278255 0.0056477 -0.00290646 0.00241372 0.00329486 -0.00227463 0.000758101 -0.000634837 5.82303e-05 -0.00017448 0.000153308 -0.00319179 0.00211034 -0.00392122 0.00134497 0.00501784 -0.000981889 0.0036455 0.00162706 0.00136863 -0.00335588 -0.000130773 -0.00073454 0.00156643 -0.000646717 -0.00205125 0.00146452 0.00391066 -0.00168639 -0.00270548 -3.1093e-05 -0.000518582 0.000994072
internal_weight=84662 45350 39312 23698 30911 15614 14439 26321 8768 13540 8878 14136 12781 6846 5816 5561 9562 4740 12617 4590 10171 9050 7684 3107 4936 7644 5630 5086 3642 7064 2952 2106 1366 4667 2031 1370 4498 625 2610 2559 2994 2337 7117 2972 1958 1226
internal_count=84662 45350 39312 23698 30911 15614 14439 26321 8768 13540 8878 14136 12781 6846 5816 5561 9562 4740 12617 4590 10171 9050 7684 3107 4936 7644 5630 5086 3642 7064 2952 2106 1366 4667 2031 1370 4498 625 2610 2559 2994 2337 7117 2972 1958 1226
is_linear=0
shrinkage=0.03


Tree=21
num_leaves=47
num_cat=0
split_feature=22 22 22 19 19 19 19 1 22 22 4 4 22 22 4 27 19 19 19 27 22 9 22 20 9 19 4 4 22 9 6 22 22 22 28 27 25 27 22 25 4 22 27 20 29 25
split_gain=430.564 76.1567 73.2531 21.3865 21.3308 19.2687 9.38325 8.97272 7.56362 5.85033 5.01387 4.83281 4.51103 4.36502 4.29495 3.46359 3.32817 3.29144 3.19465 2.82809 2.81722 2.56076 2.61446 2.26424 2.02066 1.93261 1.88125 1.63667 1.61522 1.5903 1.57167 1.57072 1.5566 1.53819 1.52977 1.49348 1.4068 1.38631 1.3725 1.36941 1.36599 1.35888 1.35702 1.42773 1.35056 1.30703
